Rótulo,1,2,3,4,5,6,7,8,9,10,11,12,13,14,15,16,17,18,19,20,21,22,23,24,25,26,27,28,29,30,31,32,33,34,35,36,37,38,39,40,41,42,43,44,45,46,47,48,49,50,51,52,53,54,55,56,57,58,59,60,61,62,63,64,65,66,67,68,69,70,71,72,73,74,75,76,77,78,79,80,81,82,83,84,85,86,87,88,89,90,91,92,93,94,95,96,97,98,99,100,101,102,103,104,105,106,107,108,109,110,111,112,113,114,115,116,117,118,119,120,121,122,123,124,125,126,127,128,129,130,131,132,133,134,135,136,137,138,139,140,141,142,143,144,145,146,147,148,149,150,151,152,153,154,155,156,157,158,159,160,161,162,163,164,165,166,167,168,169,170,171,172,173,174,175,176,177,178,179,180,181,182,183,184,185,186,187,188,189,190,191,192,193,194,195,196,197,198,199,200,201,202,203,204,205,206,207,208,209,210,211,212,213,214,215,216,217,218,219,220,221,222,223,224,225,226,227,228,229,230,231,232,233,234,235,236,237,238,239,240,241,242,243,244,245,246,247,248,249,250,251,252,253,254,255,256,257,258,259,260,261,262,263,264,265,266,267,268,269,270,271,272,273,274,275,276,277,278,279,280,281,282,283,284,285,286,287,288,289,290,291,292,293,294,295,296,297,298,299,300,301,302,303,304,305,306,307,308,309,310,311,312,313,314,315,316,317,318,319,320,321,322,323,324,325,326,327,328,329,330,331,332,333,334,335,336,337,338,339,340,341,342,343,344,345,346,347,348,349,350,351,352,353,354,355,356,357,358,359,360,361,362,363,364,365,366,367,368,369,370,371,372,373,374,375,376,377,378,379,380,381,382,383,384,385,386,387,388,389,390,391,392,393,394,395,396,397,398,399,400,401,402,403,404,405,406,407,408,409,410,411,412,413,414,415,416,417,418,419,420,421,422,423,424,425,426,427,428,429,430,431,432,433,434,435,436,437,438,439,440,441,442,443,444,445,446,447,448,449,450,451,452,453,454,455,456,457,458,459,460,461,462,463,464,465,466,467,468,469,470,471,472,473,474,475,476,477,478,479,480,481,482,483,484,485,486,487,488,489,490,491,492,493,494,495,496,497,498,499,500,501,502,503,504,505,506,507,508,509,510,511,512,513,514,515,516,517,518,519,520,521,522,523,524,525,526,527,528,529,530,531,532,533,534,535,536,537,538,539,540,541,542,543,544,545,546,547,548,549,550,551,552,553,554,555,556,557,558,559,560,561,562,563,564,565,566,567,568,569,570,571,572,573,574,575,576,577,578,579,580,581,582,583,584,585,586,587,588,589,590,591,592,593,594,595,596,597,598,599,600,601,602,603,604,605,606,607,608,609,610,611,612,613,614,615,616,617,618,619,620,621,622,623,624,625,626,627,628,629,630,631,632,633,634,635,636,637,638,639,640,641,642,643,644,645,646,647,648,649,650,651,652,653,654,655,656,657,658,659,660,661,662,663,664,665,666,667,668,669,670,671,672,673,674,675,676,677,678,679,680,681,682,683,684,685,686,687,688,689,690,691,692,693,694,695,696,697,698,699,700,701,702,703,704,705,706,707,708,709,710,711,712,713,714,715,716,717,718,719,720,721,722,723,724,725,726,727,728,729,730,731,732,733,734,735,736,737,738,739,740,741,742,743,744,745,746,747,748,749,750,751,752,753,754,755,756,757,758,759,760,761,762,763,764,765,766,767,768,769,770,771,772,773,774,775,776,777,778,779,780,781,782,783,784,785,786,787,788,789,790,791,792,793,794,795,796,797,798,799,800,801,802,803,804,805,806,807,808,809,810,811,812,813,814,815,816,817,818,819,820,821,822,823,824,825,826,827,828,829,830,831,832,833,834,835,836,837,838,839,840,841,842,843,844,845,846,847,848,849,850,851,852,853,854,855,856,857,858,859,860,861,862,863,864,865,866,867,868,869,870,871,872,873,874,875,876,877,878,879,880,881,882,883,884,885,886,887,888,889,890,891,892,893,894,895,896,897,898,899,900,901,902,903,904,905,906,907,908,909,910,911,912,913,914,915,916,917,918,919,920,921,922,923,924,925,926,927,928,929,930,931,932,933,934,935,936,937,938,939,940,941,942,943,944,945,946,947,948,949,950,951,952,953,954,955,956,957,958,959,960,961,962,963,964,965,966,967,968,969,970,971,972,973,974,975,976,977,978,979,980,981,982,983,984,985,986,987,988,989,990,991,992,993,994,995,996,997,998,999,1000,1001,1002,1003,1004,1005,1006,1007,1008,1009,1010,1011,1012,1013,1014,1015,1016,1017,1018,1019,1020,1021,1022,1023,1024
falso,-0.01259511,0.010922823,0.044633683,-0.020728363,-0.07908487,-0.017625133,0.0548548,0.07089987,-0.06072604,-0.0011864387,-0.020648854,-0.008369705,0.051548645,-0.010044575,-0.04101248,-0.09499829,-0.019440012,-0.006152053,-0.016943498,0.0051890835,-0.064850666,-0.020604588,-0.0005408424,0.054874953,0.009701487,-0.028414005,-0.0102164345,-0.0391446,0.03020899,0.07204402,0.010809631,-0.022302544,-0.019287141,-0.0013385004,-0.027954709,-0.040001646,0.022333963,-0.062087964,0.0152632035,0.033681206,-0.02616433,0.0024903284,0.020810498,-0.09860367,0.0004135357,-0.02544239,-0.010129146,-0.07216693,-0.0009606562,0.0080405865,-0.035254214,-0.025629828,0.008980233,0.030628847,0.037377737,0.032677192,-0.012791263,0.0414625,0.09852534,-0.0004817303,-0.0080458,-0.030062517,-0.05981176,-0.02850151,0.023095477,0.015812472,0.056444358,0.025048552,-0.02012652,0.08282444,-0.0013812326,0.0044367104,0.014357074,0.041733064,0.016136503,-0.0045953137,0.04448479,0.0015034274,0.058572415,0.06920451,0.027233468,-0.008572114,0.030619556,0.038776223,-0.008973034,0.038332906,-0.008841856,0.020710895,0.0005709678,0.0037648997,-0.039371386,-0.019538332,0.002172371,-0.01042144,-0.0059888386,-0.051898528,-0.002843121,-0.015004991,-0.003471522,-0.0039760577,0.010852186,0.056209825,0.024230892,0.03739064,0.019932827,0.040717207,0.009455432,0.002648515,-0.0016553833,-0.019211695,-0.043506823,-0.021828996,-0.011912782,-0.0077002714,-0.023806378,0.0045549436,0.02829956,-0.020865483,0.03690253,-0.061046015,-0.020784289,-0.040301047,0.03648151,-0.037865613,0.010437147,0.00013048007,0.006133884,0.01542564,0.010474463,0.08104197,-0.040781703,0.074625805,0.05065199,-0.010512178,-0.076950826,-0.01858008,-0.0146464575,0.026922937,-0.00091235345,-0.036313657,-0.051904023,0.07600854,0.025260296,0.017707177,0.061137468,-0.02020886,0.04752081,0.049678653,-0.12000963,0.055655137,0.036340207,0.022305798,0.044326838,0.040061027,0.038410008,0.0052471366,0.04240409,-0.057527937,-0.062416356,0.020085197,-0.03928797,0.07155628,-0.041156303,-0.0022977549,-0.059745945,-0.0012540339,-0.03592616,-0.03990391,-0.010101076,-0.010644447,0.010612542,-0.034660988,0.10610881,-0.040106542,-0.017939998,0.035115357,0.0052264277,-0.009647463,-0.08042202,-0.045011614,0.0059559103,-0.0175203,-0.017014332,-0.004504681,-0.02197428,0.0023555688,-0.04411136,-0.066230126,-0.036854103,-0.01885675,0.010194569,-0.013264416,0.017236233,0.016790709,0.031521343,0.0023514465,-0.09788595,-0.021982698,0.012505733,-0.0043123793,-0.07003615,-0.03341112,-0.049501177,-0.011948139,0.005397867,-0.06456638,-0.009356127,-0.0038029167,0.011446248,0.03489516,-0.044347104,0.07724949,0.013533976,-0.03473017,0.04276981,0.05411681,0.03225201,0.038560297,0.0010697803,0.009924918,-0.0068717883,0.036200423,-0.042522218,-0.0042234007,-0.053116977,0.012721246,-0.02842328,0.03534865,-0.042536404,-0.06973217,0.054298688,-0.061812874,0.036821183,0.05322141,0.045270648,-0.039028544,-0.008729596,0.019293725,0.0035637375,-0.09186581,0.05068562,-0.076220565,0.042666715,-0.00873625,-0.11101261,0.017858516,-0.029064637,-0.029699726,-0.013155938,-0.058487438,0.088374525,0.06831171,0.049670536,0.059589542,-0.022154482,0.00455861,0.024395622,-0.00810579,-0.028645756,0.02305642,0.034086682,0.031023176,0.028712392,0.0151217915,0.017534543,0.005313847,-0.016208895,-0.008543054,-0.017898856,-0.014122598,0.034080524,0.038219307,-0.0064297123,0.0028355129,0.030337572,0.031275593,0.0019395252,0.025309052,0.045912694,-0.01912128,-0.05284784,0.008464438,0.032200232,-0.028580261,0.05503011,-0.048148457,-0.024717161,0.005342935,-0.031386934,-0.016428702,-0.07224129,-0.02523964,0.014088304,-0.0027342853,-0.029697094,0.012022619,0.030106448,-0.0011228706,-0.013941051,-0.04223385,-0.047818866,-0.03993725,0.015153077,0.008064375,0.006591013,-0.025391037,-0.023242014,0.009957042,-0.007354693,0.057135537,-0.017176807,-0.017032199,0.015520062,-0.0008123825,0.006156448,0.04285784,0.0039217845,0.01759587,0.007546286,0.019253371,-0.06512691,-0.011930494,-0.003385252,-0.030439658,0.032630015,-0.027371649,0.027617188,0.03785722,0.002207588,-0.03272045,-0.014077085,-0.00888593,0.012551374,-0.045339566,-0.01658962,-0.017857278,-0.0041234577,0.017066108,0.036415383,0.00094203936,0.017393343,0.012539101,0.008920795,0.061511498,0.013056052,0.026923876,0.051342856,-0.07870272,0.029433832,0.015475641,-0.02457469,-0.0034510256,-0.021240592,0.021552648,-0.0053181467,-0.022113157,0.024725797,-0.015322595,-0.03746939,0.01022731,-0.022994883,-0.056286212,-0.00314701,0.005934651,-0.050399896,0.0046067555,-0.011913411,0.030520454,-0.0009893528,0.034065545,0.030033613,-0.07207443,0.02048845,-0.0068781525,-0.014626761,0.0011863969,-0.0075140484,0.0364846,0.018085605,-0.016771417,0.028362568,-0.004709494,0.01786211,-0.04902369,0.056904223,-0.02689387,0.036247715,-0.015377019,-0.024230365,0.027754908,-0.01296755,0.0031882112,0.0046670013,-0.02823618,0.028046923,0.017020259,-0.018499902,-0.022371646,-0.020170461,0.019277262,-0.058076847,-0.023489442,-0.012084499,-0.046506245,0.0036837053,0.017895311,-0.0075107925,0.027602188,0.0062241238,-0.007743755,-0.045322727,0.028788945,0.011586125,0.022465363,-0.016372645,0.021647055,-0.033437267,-0.01268737,-0.016105808,0.04852381,9.146788e-05,0.01973212,0.048502784,0.0026504963,0.03200241,-0.019199086,-0.0030705356,-0.02082052,-0.039382353,0.09471452,0.01441801,-0.0030241967,-0.024524443,0.046424616,-0.00035145073,-0.01999684,0.004620738,-0.0028908004,-0.0023056746,0.03499056,-0.0588915,0.048551854,0.0090079345,-0.027876193,0.03677635,0.0027672737,-0.0055814967,-0.018686604,0.0048508877,-0.018953232,0.0034772053,-0.014035812,0.009888927,-0.0003648014,-0.040942006,-0.015327435,0.025729232,0.002316468,0.0023494503,0.00418406,0.00010880822,0.033751965,0.013485225,-0.0065055,-0.0046988227,-0.025221888,-0.04734133,0.006885434,-0.006743804,-0.029716067,0.0013276878,-0.009925146,0.030204851,-0.0045012324,0.012564148,-0.0067963987,-0.012982933,0.01760914,0.024689294,-0.02050868,-0.0049400064,0.011696515,-0.040583678,0.02879861,0.013747397,0.014925322,0.014982517,0.012371636,-0.021069137,-0.005200078,0.037378892,0.023648066,-0.084337115,0.013101641,-0.011455163,0.010554317,-0.011993987,-0.067338765,0.034458317,-0.009950247,0.0048217154,0.017746536,0.026604207,-0.060979795,0.057212297,0.036369715,0.00047688637,-0.022928623,-0.0068669464,0.043689124,-0.0016110631,-0.0046106726,-0.0061513744,0.073535115,-0.034474686,-0.031960636,-0.032939363,-0.0030976671,0.019451689,0.004291051,-0.0045057037,0.025925346,-0.028827261,-0.014745615,-0.025053669,0.03672117,-0.021060001,-0.017971618,0.027384719,-0.018340532,0.0010129659,0.042299688,-0.0056274044,0.020260854,0.049137022,0.030604152,0.010303641,0.040031377,0.041764658,0.0101072015,-0.019035487,-0.010296062,-0.035522968,0.02623186,0.011704387,-0.04379808,0.013541705,-0.011303702,-0.001072199,0.022764333,0.04105092,0.033066012,-0.029789114,-0.01616317,0.026813751,0.03230077,-0.012679145,0.001816267,-0.027374314,-0.00039300654,-0.030921172,0.03866896,0.01933366,-0.008394799,-0.051664893,0.011075017,0.020476565,-0.026922118,0.034749493,-0.030123973,-0.010087903,0.011750035,-0.036924127,0.004692725,9.036943e-05,-0.01822943,0.011566098,0.017781889,-0.011216536,-0.025966566,-0.03508516,-0.013013932,0.011010092,0.034297626,-0.0014943554,0.0019859064,-0.0697381,-0.04794907,-0.020189254,-0.060738035,-0.00024376273,0.02051282,0.018904416,-0.015960664,0.028338872,-0.024257792,-0.012310738,0.011346302,0.0024121157,0.012439731,0.021936407,-0.07441883,-0.0056529073,-0.010453821,-0.006290218,0.03030277,-0.062161908,-0.0014310896,-0.008962064,0.017950177,0.008653408,-0.007621479,-0.018472297,0.013072476,-0.024493482,-0.0043604407,-0.0030153717,-0.022056283,-0.0020931105,-0.0041453606,-0.019946024,0.030257018,-0.0034581493,0.050491866,-0.015405027,-0.001274744,0.06413561,0.028817786,0.009650369,-0.015257413,-0.011844004,0.011660227,0.052333277,0.04150532,0.0051912214,0.031899,-0.003114329,0.019943802,0.017817112,0.016711438,-0.01647052,-0.007761457,-0.04667924,-0.00373869,0.030495832,-0.115509205,0.008388534,0.0039931415,-0.0281931,0.035414178,-0.046738617,-0.05104544,-0.017816663,-0.002159643,0.006086414,-0.036487166,0.012979739,-0.009245798,-0.004202272,-0.011326622,-0.03232568,0.017035613,-0.02912729,-0.037497897,-0.053982887,-0.0132725,0.043796696,-0.029531173,0.0011545395,0.023460222,-0.0013476501,0.076666094,0.05212608,0.008186545,-0.0049924995,0.02770769,0.028293848,0.00793582,0.027478453,0.046573803,0.0033671104,-0.0368832,-0.01159931,-0.010565923,-0.03195345,-0.05217117,-0.017124472,0.00936497,0.005460869,-0.00833947,0.01578962,0.00717816,-0.012881034,0.0088217165,0.022450257,0.03143263,-0.03204151,-0.008294243,0.03819878,0.040499985,-0.032920443,-0.0152836535,0.04169549,0.024253994,0.008215462,0.020321717,0.02477974,0.045358647,-0.02397054,-0.007630355,-0.022454401,-0.030493265,0.00020171827,0.0018849478,-0.0002531865,0.044549126,0.004227176,-0.009172219,-0.0024369594,-0.016203234,-0.0069047804,-0.017645478,0.020963958,-0.014851055,-0.013142866,-0.019941844,0.016856594,0.021260874,-0.01968601,-0.016394865,-0.014694292,0.047289677,0.004558376,0.015106254,-0.03843154,0.001385777,-0.00036113773,0.04525841,0.026377134,0.018890738,-0.018345645,-0.015663207,0.017953288,0.0071038627,-0.025258994,0.033892013,-0.019580241,0.0341076,0.0045391396,-0.0540511,0.0031428281,-0.063300215,0.007555326,0.03374949,-0.0327672,0.011693019,0.03268474,-0.017964574,0.006068365,-0.03993711,-0.018089786,0.040320653,-0.026526315,0.0013830172,-0.018311663,-0.004904021,0.0063966685,0.026813194,0.03601486,-0.00447344,0.010933142,0.011083051,0.018583113,0.017313113,-0.019333497,-0.0043284385,0.015592459,0.009373344,0.032394383,0.027871761,-0.012829526,-0.007672305,0.011333285,-0.014624113,0.014844279,-0.011607882,0.0056245606,0.05691313,0.004511013,0.034455936,0.01293576,-0.0489451,0.015615775,-0.017110614,0.0051566763,-0.04830626,0.01993813,-0.0023085617,0.002044656,0.017308876,0.019784477,0.021547465,-0.064245015,-0.041916534,0.0284067,-0.009349855,0.024001982,0.007412724,-0.019023405,-0.0027914273,-0.0043469057,-0.026806531,0.0073072314,0.06318664,0.017929224,-0.0018703603,-0.0003268709,0.041379236,-0.00013862479,-0.05753283,0.003363569,0.009771857,-0.01874294,-0.0019309086,-0.031784173,0.008678787,0.041239556,0.030832803,0.021356635,-0.0102656465,-0.040531404,-0.029149804,-0.020395897,0.02607018,-0.017101426,0.04159951,0.0060937703,-0.040525857,-0.00178996,0.00094566913,-0.0032616404,0.014354268,-0.01055034,-0.00120683,-0.020796366,-0.015197835,0.005875795,-0.0032949143,-0.045710303,-0.048988603,0.014142755,-0.0043237316,-0.034071352,0.05464996,-0.03232485,-0.018134387,0.054838344,-0.025257751,0.034994133,-0.0013429569,-0.022071036,0.034334455,-0.018828323,-0.03797216,-0.020577213,-0.028130893,0.045986097,-0.015897574,0.023938801,-0.021381209,0.016736187,-0.031999085,0.0057495404,0.027082063,0.030317329,0.03205687,-0.069172494,0.0082575185,0.012549117,0.046434645,0.031243023,0.0029537925,0.002387469,-0.026073063,0.010130141,0.006596216,0.07126858,0.050980218,-0.05488694,0.032678694,0.021620814,0.0051855166,0.024544774,0.019007107,-0.062182885,-0.0074548363,-0.02106733,-0.00037659422,-0.02285334,-0.020632347,-0.0053722127,0.09156835,-0.024903351,-0.0025001315,0.007721187,-0.009625024,-0.031961612,0.020837748,0.030492334,-0.023857448,-0.017495753,0.03622315,0.017984256,-0.018397126,0.047653917,-0.04966158,0.018457757,0.013591325,0.036554676,-0.0082629835,0.04403891,0.010393379,0.0033474758,0.04037888,0.015536546,0.028198825,-0.010988935,0.026471697,-0.047671318,0.009007538,0.016352514,0.02119265,-0.012335805,0.010694186,0.02014242,-0.016014934,-0.009859901,0.02430721,0.0052681942,0.021135418,0.008603862,-0.0056142733,-0.015973363,0.049515996,0.017924292,0.0120926015,0.035045546,-0.0052196286,-0.003668119,-0.009888471,0.034989133,0.0074093556,-0.0057948804,0.03195028,-0.025338572,-0.028021732,0.011617122,-0.016408628,0.04913915,0.015820434,0.010653043,0.0050031855,0.023468286,-0.032784794,-0.018144362,-0.04012457,0.04231951,-0.001072211,-0.0046923207,-0.050493013,0.0235041,0.03506203,0.047402903,0.0202518,0.049568027,0.008045403,-0.028783191,-0.031783354,0.0025421823,-0.058466006,0.009699731,0.02057212,-0.008125,-0.02128365,-8.3950225e-05,-0.06754345,0.0022376676,-0.0008547695,0.0071121044,-0.019018069,-0.015407728,0.015167459,-0.0013794932,-0.0017389855,-0.027104707,-0.031322755,0.023023771,0.018834835,-0.046873447,-0.005806411,0.0023438788,0.022321604,0.031895652,-0.05193128,-0.008064395,0.03302477,0.033809185,0.008451278,0.04149933,0.017756885,-0.010257367,-0.016574582,-0.0069714203,0.021147164,0.0068402523,-0.009461455,0.005231006,-0.033493824,-0.02815223,-0.011619497,-0.0049050464,-0.019300237,-0.01891208,-0.008904729
real,0.0069987215,-0.016068533,0.015832301,0.006539106,-0.025601726,0.007429562,0.027230205,0.008839391,0.014704412,0.08180303,0.025244996,-0.025301129,0.0737369,-0.015480142,-0.08229204,0.0041544475,0.074018165,-0.0440521,0.016869979,0.04872044,-0.014139054,-0.021576567,-0.0005850813,0.03741295,-0.003146584,-0.013529349,0.020068077,-0.003940472,0.02650894,0.043453775,0.0054751197,0.061201405,-0.0924464,-0.052845463,-0.052378275,-0.000364513,0.09513306,0.00074715744,0.032328293,0.0063450374,-0.0008355485,0.016736977,-0.05154631,-0.09696211,-0.039666556,-0.011313716,0.022824524,-0.010975589,0.06298055,-0.017892651,-0.0025727754,-0.067952186,0.054178804,0.009133342,-0.0017699847,-0.032978844,0.0057609775,0.10191979,0.0041936436,0.0326438,-0.019179538,-0.020662399,0.0034460395,-0.006698266,0.011925537,0.03889203,0.05199224,-0.03872622,0.0028267074,0.00491585,-0.03917829,-0.004584324,0.0409735,0.057263073,-0.033185747,-0.019105481,0.04324683,0.053872377,0.07008252,-0.027881827,0.01101432,-0.0018677957,0.032881804,0.03942515,0.005489153,-0.022230174,-0.029846227,-0.04260252,-0.013739529,-0.05232976,-0.008044152,-0.029839465,-0.0011017831,0.049607985,-0.03762353,-0.035766177,-0.019548187,0.012025539,-0.014106401,0.06646243,0.0038737566,0.02708759,0.020345196,-0.00917447,0.016103491,-0.04651665,0.017710375,0.058433723,-0.018938247,0.087598555,-0.071707316,0.012928359,-0.025622096,-0.043606475,-0.014946689,-0.007960155,0.084142655,0.00050645793,0.026798341,-0.056080867,0.08271867,-0.12444314,0.09456393,-0.02713256,-0.04048231,-0.022142902,0.0017244343,-0.057566177,0.001879894,-0.04405833,0.016260758,-0.03898223,0.0047799274,0.065103106,-0.016130907,-0.065080136,0.007284231,0.015073024,-0.013616507,0.042069763,0.031109354,0.040825207,-0.06677045,-0.0041497964,-0.037042964,-0.018248647,0.019910369,0.0068216124,-0.030159386,-0.04719074,0.024838349,0.068609424,0.012846595,0.005484238,0.080616675,-0.003090399,-0.006289427,-0.0020800764,-0.033848632,0.020257318,0.025940849,0.025457406,0.029494543,0.08300483,0.016675299,0.024142189,-0.016054315,0.029431777,0.0655943,-0.020210508,-0.027899023,-0.0124894865,0.038885485,-0.07679556,-0.06303017,-0.018338889,-0.050786514,0.01574502,-0.02185999,-0.01566432,0.0033276887,0.015841056,-0.028143467,-0.0096550435,0.0063834446,0.035471752,0.02182678,0.022460582,-0.02166268,0.035177536,0.027178787,-0.06318387,0.014907378,0.00880056,-0.010654702,-0.010469322,-0.084751256,-0.03401917,-0.044204693,0.046758574,-0.045234174,-0.016423345,-0.03486367,-0.09653724,0.0028878388,-0.0660156,-0.027877392,-0.0010084162,-0.033185873,0.025267253,0.0064793765,-0.023112355,-0.036341485,0.041341584,-0.018776445,-0.017129712,0.01431712,0.0024881645,0.027556393,-0.058075428,0.006254156,0.041568846,0.0014271581,0.014464419,0.07817389,-0.017802598,-0.07341947,-0.031076865,0.013713812,-0.038697455,-0.013796247,0.027529744,0.018524041,0.05334199,-0.076890066,-0.0067826635,0.0379501,-0.002336208,0.022344718,-0.094122455,0.06179634,-0.010637705,0.018395005,0.061204106,-0.038129713,-0.015440356,0.03671832,-0.0497653,0.08740209,-0.017346429,0.05357917,0.07772691,-0.022206798,-0.054657355,0.0715805,-0.007263242,0.034023117,-0.022781268,-0.01973807,-0.009996875,0.0053865705,-0.026512677,0.041186377,-0.0044028363,-0.02139127,-0.0049093114,-0.0021059904,0.041010547,-0.005509871,0.017540066,0.025323778,-0.005671228,-0.03735604,0.033875253,-0.013560079,0.004175686,-0.03254602,0.013786704,-0.042399757,0.045068067,0.0030995512,-0.017777348,-0.0020032926,-0.026455179,-0.0020285363,-0.005874099,-0.026957978,-0.0110322805,0.034758758,-0.005961355,0.0026559003,-0.029969916,0.030601893,-0.024473669,-0.031931147,-0.0010194178,-0.051678196,-0.004265747,-0.051175892,0.015523351,0.009525603,-0.005146632,0.06340178,0.049457453,-0.036024176,0.013744142,0.019584311,-0.002802953,-0.013532452,0.039873034,-0.013740271,-0.00012101491,0.032383043,0.04002644,-0.01486323,-0.0076226094,0.0117624635,0.003122362,-0.00910252,-0.022642218,-0.031789407,0.012580825,-0.017860483,-0.04256245,-0.025742086,-0.00681972,0.007967902,-0.0124691045,-0.009039185,-0.010232439,0.031071652,0.04080101,0.02294628,-0.0034431843,0.066885516,-0.013756583,0.011232172,0.04374886,0.004136578,0.025828212,0.0011486927,-0.012394771,0.020780532,0.026825394,-0.0090828035,-0.05012965,0.0077288128,-0.082618095,0.017180309,0.013067566,-0.0007343572,0.009201428,-0.034013946,0.017885795,-0.009888532,-0.04557499,0.034076005,-0.008068199,0.035205666,-0.0016006536,-0.011130765,-0.027362812,0.009111676,0.0025132352,-0.014838605,0.030479537,-0.027566629,0.0018102676,-0.0042029824,-0.008383371,0.012403367,-0.037096936,-0.0035704882,-0.006052097,0.01833502,-0.031753294,-0.026913673,0.04441411,0.0024373627,-0.0010235595,0.012037223,0.013741291,0.03153337,-0.046406273,0.0027822708,-0.010311616,0.018376254,-0.049071148,-0.02246493,0.06266424,0.03472062,-0.00839891,0.020210149,0.020599525,-0.030980045,-0.04445518,0.0044577825,0.045192458,0.013598342,0.012542044,-0.0317336,-0.0454268,0.015396493,-0.002865505,0.025446558,0.008359784,0.01005831,0.016766476,0.0025476622,0.010163229,-0.017118117,-0.0065935245,0.045276474,0.0077347313,0.02922645,0.03697894,-0.0017533232,0.010223772,-0.004248855,-0.005760165,0.0066293525,-0.006788981,-0.026969787,-0.03443251,0.06519476,-0.041565944,0.0028580213,-0.011256215,-0.0077593806,-0.0036981327,0.024199797,-0.03659821,-0.05762083,-0.014025717,-0.026542826,-0.054471795,0.0415277,0.020874035,-0.014979717,0.054823224,-0.018866787,0.010661064,-0.021795165,-0.015316761,0.040745616,0.044580627,0.02300605,0.009550198,-0.012613309,-0.044533636,-0.047937937,0.024905438,-0.023475328,0.0189917,0.019502092,-0.017196052,-0.005397882,0.023234537,-0.007465496,-0.055529453,-0.011895352,0.009787958,-0.037293028,0.003957514,-0.009861271,0.039277006,0.001933965,0.047747485,-0.018332325,0.023681693,0.012908033,-0.04007922,-0.025761766,0.0033169424,0.011263832,-0.0152370995,-0.011492917,0.021344211,0.011651923,0.006156663,-0.010205448,0.003082203,-0.04330347,0.039552473,-0.021081513,-0.02082097,-0.014101512,-0.002509848,0.03728563,0.024978787,-0.05778914,-0.00311846,-0.031171156,-0.025670573,-0.0022902123,0.03420383,-0.0047841314,-0.02801642,-0.038650416,-0.0009884296,0.027486341,-0.003440098,-0.03401681,0.013931139,-0.019361377,0.004604039,-0.040351745,-0.009669367,-0.03837858,-0.042287763,0.0049287574,0.009367721,0.03127436,0.04426104,-0.011681645,0.020566404,0.007577006,-0.010782575,0.025629949,-0.0025236218,0.016432464,-0.0015138561,0.0035868974,0.04789112,-0.024473198,-0.028148986,-0.06483064,-0.02744326,0.041394997,-0.023083651,0.035316203,0.009998042,-0.045405664,-0.0023123368,-0.008838779,-0.027071334,-0.031578504,-0.029752571,-0.022899179,0.06394608,0.06515998,-0.026952252,0.006547312,-0.004340265,-0.0014358676,-0.006233396,0.024783855,0.061955243,-0.013399177,0.010275145,0.0453113,0.024166455,-0.07128871,0.0170249,0.013305121,0.03984282,-0.06798445,0.039974317,-0.0155887045,0.002853453,0.015927725,0.0057805027,0.06724528,-0.048118223,-0.021506643,0.011732436,0.035297353,-0.0144217815,0.010080517,0.020820294,-0.011325467,0.062253945,-0.0046116067,-0.0029449442,-0.0020478696,-0.0006008498,-0.014556175,-0.0038899763,-0.044811457,-0.038399242,-0.007392831,0.003109079,-0.0044857496,0.014117744,0.0033143386,-0.01929394,-0.036223944,0.0026997929,-0.019445835,-0.007781095,-0.018466234,-0.0030688255,0.011067276,0.012883644,0.031632736,-0.05226007,0.00038917735,-0.034313437,-0.016170412,0.06681237,0.053845238,-0.006035584,-0.022410057,0.036232196,0.005940128,0.027045194,0.014489256,0.021246009,-0.016675282,-0.016865304,-0.01199278,-0.010777337,0.011066125,-0.0038724274,0.023451224,0.0005998454,-0.0026055216,0.07602759,0.00480534,0.0025782657,0.03483578,0.018249795,-0.009167274,-0.010724271,0.0039905664,0.032073963,-0.0005039298,0.011340074,0.013816121,-0.053160433,-0.010912239,0.013686983,0.038690384,-0.0047763456,0.014287242,0.009459825,-0.037964556,0.05955314,0.0042866147,0.013476808,-0.0058992445,0.0034417554,-0.010902337,0.038075346,-0.008114296,-0.016003346,0.023440514,0.0033220428,-0.0068943594,-0.0051010554,-0.009436415,0.026264155,-0.007631926,-0.00096629653,0.015934028,0.027094262,0.02107371,-0.014986257,-0.010009933,0.009714212,0.026096558,0.040114988,-0.036350425,-0.020309128,-0.0137475515,0.0075898943,0.060492616,-0.0514146,-0.0017784975,-0.0024054842,-0.00484282,0.051513568,0.0144773405,-0.03590863,0.0038757443,0.032368373,0.034739893,-0.016478553,0.01232916,-0.022893658,-0.014944877,0.0022766017,-0.011067472,-0.011866221,0.008527021,-0.03765267,-0.011527212,0.023784848,-0.0028923855,-0.04188429,0.037532683,-0.03842191,-0.032418355,0.03359613,0.018173976,0.056724813,0.01396132,0.0082311565,0.005353098,-0.021564448,-0.0011148127,0.012953529,-0.00028172878,-0.0014691248,-0.055978246,0.023390505,-0.0044913883,-0.033743385,0.014362399,-0.027355962,0.0075280233,0.021861905,0.033506915,0.028336704,0.0269047,0.00028113552,-0.054768275,-0.042136207,0.03259749,-0.030341353,-0.03144673,-0.010236543,0.0019058776,0.013663053,0.025768662,-0.0033692531,-0.008992987,-0.016917745,0.012367485,0.007523051,0.021727355,0.038922336,0.020818718,0.013227668,0.034131456,0.028501067,-0.0050875414,0.004212602,0.0064296257,-0.032572377,-0.023727942,0.007938074,-0.032437466,0.0010248495,0.008838775,-0.02819084,-0.016194422,-0.03720814,-0.01967871,-0.012700161,-0.004192096,0.0024883158,-0.013580111,0.017999154,-0.0025605839,-0.0031846853,0.045904446,0.0031277512,-0.021083929,-0.02963267,-0.026821254,-0.009351672,0.006515241,0.015487221,0.003247062,-0.0052961563,0.003995128,-0.01999597,0.0018316312,-0.0057254615,0.045905717,-0.018868692,-0.023460804,-0.0011828803,0.012684556,-0.034245893,0.006259562,-0.020719504,-0.026055444,0.011888457,-0.015059348,-0.008676846,0.0006011402,-0.06364907,0.016119694,0.021700704,0.038217284,-0.004515423,0.035522893,-0.013091717,-0.015025085,-0.051841013,0.002416904,0.0010484136,-0.044569034,0.013968487,-0.005729314,0.03422944,-0.0026983733,0.010430896,0.0063935793,0.034244504,-0.10160674,-0.010704318,0.0034695927,-0.007121561,0.04299023,0.06358105,-0.016509993,0.022519043,0.053420454,-0.05016069,0.024403518,0.023598468,0.022009622,0.048556317,0.0002741877,-0.017368251,-0.006875294,-0.069874264,-0.010215422,0.015612898,-0.018617434,-0.025053069,-0.020735273,0.015354177,0.023951527,0.026893714,0.0021756834,-0.037779916,0.0006855045,0.028393112,0.031567745,-0.014770554,-0.029685609,-0.012634929,-0.035926454,-0.006559366,0.049597453,-0.0048411023,-0.016158044,-0.013395121,-0.022350384,-0.05713054,-0.017144363,0.024904499,-0.05203806,-0.01431938,-0.0012330952,-0.028385587,-0.01620824,-0.005689233,0.0169683,0.021612905,0.0011711784,0.0064545176,-0.038870726,0.00049185986,0.026658788,0.034017555,-0.008593142,0.0060013765,-0.06303258,-0.014060035,0.028832035,-0.024151597,-0.00967194,0.034437355,0.051464006,0.047727007,-0.0068516987,0.02936122,-0.0638069,-0.034885257,0.03313704,-0.00815205,0.020618917,0.012039376,0.050991453,-0.008095649,0.03132476,0.026964752,0.011741508,-0.031777535,-0.008009567,-0.007307153,0.037342988,0.010526593,-0.04105551,-0.0029985148,0.026743844,-0.0017284253,-0.012731162,0.03422461,-0.03963446,0.010282431,-0.02490849,0.03626696,-0.027006133,-0.0015528926,-0.015920144,0.042727944,-0.007230307,0.0063932166,0.035473496,0.060739577,-0.021567808,-0.003485034,-0.006690972,-0.03802553,-0.015635418,0.031450357,-0.004875615,-0.0067980527,0.0092752185,0.050236255,-0.040732794,0.0022821177,0.020093145,-0.027102254,0.011251795,0.04649676,0.0037678466,0.019491622,-0.007417361,0.016022027,0.0010059926,-0.0023290196,-0.035335846,-0.02466332,0.038702957,-0.014516248,-0.028375966,-0.021404339,0.028958512,-0.00031517076,-0.031373207,-0.018661674,0.025627876,0.041185193,0.042247638,0.041288488,-0.0066426187,-0.0028134512,0.03620557,-0.032186404,0.005043023,-0.011817587,0.017788943,0.012650341,0.024913238,0.022909645,-0.020239266,0.034615073,-0.017691405,0.02365518,0.027969817,-0.026930405,-0.015946025,0.015682245,-0.0070043146,0.013127948,-0.03453136,-0.0327513,-0.01059826,-0.040734865,0.048458267,0.018511191,-0.013932611,-0.0056367144,-0.012810244,-0.03258689,-0.045630813,0.029788055,-0.015662933,0.02591968,0.0025502106,-0.01250265,0.03661719,-0.03336682,0.010779819,-0.004678146,0.008240892,-0.007925666,-0.0071212137,-0.03314802,0.033726487,0.060419288,-0.025067363,0.0044847056,-0.006548092,-0.008671818,0.04078392,-0.00156167,-0.022685578,0.015850453,-0.036467094,0.03970323,0.00654266,-0.034024417,0.013723958,0.018808626,0.013112294,-0.083979554,0.0101257395,0.007107839,-0.044403784,0.031559244,0.049339723,-0.035958305,-0.07940199,-0.009156594,0.008931125,0.017536256,0.062202018,-0.0035179064,-0.0011265451,0.012899665,-0.049844928,-0.025327552,-0.0043451176,-0.0010605168,-0.057531282,0.03054309
real,0.05147409,-0.0508364,-0.016831078,-0.027970716,-0.019484436,0.023540942,0.08854258,-0.010018125,-0.0032086107,0.050753433,0.0047302796,0.007842107,0.014228086,-0.021377927,0.021853775,0.028697755,0.06865132,0.029602116,0.032436494,-0.08901751,-0.05779756,-0.026262928,-0.0012780173,0.0443472,-0.03383663,0.016719619,-0.02293742,-0.06706538,0.015947493,-0.03446079,0.05369638,-0.02581781,-0.03305831,0.082531355,-0.05342331,-0.067929484,0.09610032,-0.043515403,0.022418985,0.041695762,0.03009513,0.007972328,-0.029585062,-0.050539672,-0.011481766,0.042420384,0.006073606,0.013959017,0.0030697745,-0.02212556,0.020496707,0.015085589,0.052415494,-0.023399998,0.03452742,-0.0012545247,0.025540054,0.034308825,0.013311197,0.047246188,0.044362202,0.0007122375,-0.008318609,0.02438135,-0.003610081,0.07759353,0.03655394,0.0061455546,0.07045312,-0.0148237925,0.044080615,-0.06092653,0.00054706377,0.02734074,-0.044993088,-0.0155618675,-0.028715452,0.08473515,-0.00990426,0.06897112,0.06343707,-0.054773945,-0.0018342827,0.024585461,0.046198957,-0.047851082,-0.037460107,-0.021093825,-0.023047445,0.009016934,0.021893313,-0.026804738,0.020828139,0.02880998,-0.0375492,0.0059734173,-0.012364892,-0.011221469,0.0059505124,0.053640977,-0.0011987977,0.020154236,0.043333635,-0.067960665,-0.054026235,0.1046729,0.00038983262,0.0509005,0.009331595,0.07452019,-0.015116889,-0.07232217,0.01361092,0.069235414,0.08338379,0.012613679,0.0048175324,0.036507633,-0.03472863,-0.059285134,0.043121047,0.029757382,-6.79922e-05,0.02611,-0.01639311,-0.040393054,0.015074663,-0.030840581,0.01893954,0.03150476,-0.006700518,-0.0546856,-0.06392532,0.0030678941,0.035654925,-0.001344843,-0.03303183,0.09622178,0.024588926,0.02235542,-0.030727755,0.03408673,0.06618438,-0.012278916,-0.02128689,0.059520666,0.10054596,-0.0011115663,-0.034797493,-0.0036626619,-0.012287536,0.03236748,-0.015753353,0.021797288,0.06673147,-0.011634279,0.015630348,-0.07899617,-0.017286595,-0.01854133,-0.0060588936,0.027306205,-0.061320275,0.07340495,-0.08881213,0.028086642,0.031724118,-0.038560618,0.06854227,-0.0059239413,0.060025014,0.05036996,0.010567886,-0.021084124,-0.03809015,-0.046856582,-0.006570105,0.070662595,-0.047107447,-0.0130246105,-0.0018432484,-0.022861619,0.014122928,0.032221127,-0.014512764,0.042513717,-0.07327488,-0.028580809,-0.037492443,-0.0033784702,0.026485175,-0.07689853,0.001836155,-0.023951985,0.014033334,-0.0055110436,-0.03316004,0.019411145,-0.0650816,0.04886128,0.05508083,-0.07094881,-0.018499324,-0.015118947,0.008884129,-0.019198393,-0.018369772,-0.012031882,0.009034044,-0.06982631,0.04230009,-0.015169821,-0.01943147,0.027978254,-0.0023044469,0.05511352,0.018298307,-0.014480168,-0.010379682,0.0028974959,-0.0058766566,-0.027271776,-0.07422448,0.035412602,0.0022153214,-0.004016633,-0.0036065152,0.026260685,0.008929147,-0.027258314,0.09924116,0.06558963,-0.03404765,-0.0060759378,-0.04602735,-0.04591346,-0.005573602,0.016782474,0.04575825,0.0069855964,0.0009374628,0.09864942,-0.018730974,-0.026850916,-0.0050945226,0.014193886,0.018786225,-0.046917483,0.036879547,0.02686968,0.038637385,-0.015482285,0.023060178,-0.045862116,0.017776232,0.01672908,0.036138188,-0.009447654,0.017429803,-0.0062935255,0.042377178,-0.01760309,0.0019561802,0.013046764,-0.0334327,-0.02530037,-0.022211894,-0.015243647,-0.04903309,0.014303036,0.056415685,0.018470906,0.0070424667,-0.031038119,0.027853945,0.0286544,-0.033861056,-0.0036078594,-0.01039275,0.0039528124,0.015929198,-0.034425482,0.0032150953,0.021562641,0.0037073046,0.061979074,-0.009494427,0.052458625,-0.016920475,0.002242245,-0.0009699338,-0.03662284,0.015682217,0.014686804,-0.030504826,-0.048001647,-0.006723283,-0.0040680626,-0.025643291,0.02575256,-0.0438484,-0.0058253603,-0.044445787,0.027352056,0.050864592,0.012220176,-0.062119145,0.021445302,0.00056493393,0.039112434,0.008346748,-0.012578522,0.03920902,0.01471595,-0.018499859,0.007007906,-0.019524055,0.01660526,-0.016330944,-0.0028876443,0.036640927,-0.0048444616,-0.03469178,-0.04197753,-0.034128997,0.011049109,-0.029347412,0.0034660588,0.053019356,-0.03485508,0.041499514,-0.014419613,0.04523737,-0.01954,-0.032236464,0.012025272,0.005614175,0.013814319,-0.048019875,0.012065099,-0.010651906,-0.020005599,-0.069329895,0.028465705,0.028344424,0.035956852,0.019358411,-0.006126327,0.017919745,-0.0066399905,0.027228836,0.015710207,-0.0153857805,0.017045708,0.013744686,0.00903151,0.031483263,0.014851265,0.017411532,0.02201264,-0.008642369,0.0038536363,-0.036428772,-0.00951407,-0.012347068,-0.042934574,0.050596867,-0.00095452875,-0.02683221,0.001013842,-0.030116025,-0.006130526,-0.01231719,0.025480729,-0.018478226,-0.0022559427,-0.04127012,0.039258618,-0.03265175,-0.037026335,-0.020842321,0.007078795,0.057273593,0.023039926,-0.031572822,0.05004054,0.0069107064,0.0074673067,-0.013092219,0.06332146,0.009377013,-0.041527376,-0.040279623,0.0017465445,0.016524695,-0.027441459,-0.013726495,0.007932792,0.00027452246,0.0151964035,-0.018888801,0.006590259,0.037406992,-0.036012992,0.00015708359,-0.0009379177,0.01355239,0.033418335,0.023409756,0.043989375,-0.025201006,0.00082520343,-0.001129756,0.037556607,0.023903674,0.013088994,-0.005074794,-0.021170132,-0.014432636,-0.04462557,-0.020338329,0.007569595,0.019143827,0.018071914,0.02620379,0.022582075,-0.060616426,0.031230345,0.0011940311,0.015230047,0.05392634,0.012182133,-0.033565953,0.014768715,-0.040573515,-0.023436893,0.0073529365,0.050844863,-0.05197845,0.0021892933,-0.06679086,-0.0046084286,0.0047476366,-0.010352001,0.024843423,0.07783169,0.0107682375,0.038749546,0.0015149616,0.0042994437,-0.013104777,-0.010786727,0.018016543,-0.04926812,0.037462585,-0.0038564336,0.020617064,-0.033629138,0.05423795,0.049427252,0.002386676,-0.012973374,-0.054611884,-0.052426606,-0.053925708,0.04210164,0.02315483,0.008665784,-0.008582755,0.02347354,-0.016667975,-0.006528435,0.01323705,-0.0062983064,-0.018646482,0.05302066,0.011507799,-0.009188321,0.028851107,0.02083517,-0.013427487,0.027075058,-0.02942599,0.026875017,0.015679,-0.028341537,-0.030965662,0.0056559304,0.020362023,0.016971035,0.009943472,0.014380572,0.018217316,0.042920522,-0.019558819,-0.006923872,0.02311506,-0.018611593,-0.018285315,0.020882256,0.038227644,0.03145456,-0.010194942,0.023871813,0.0036194457,-0.0034616932,-0.027774233,-0.03305429,0.027953932,-0.030349594,0.011639854,0.03938852,0.010959849,0.042826887,0.0019256409,0.01659121,-0.012298494,0.0069480985,-0.02286301,-0.02168494,-0.021858156,-0.033199217,0.024423996,0.012603591,0.025814887,-0.04766377,-0.015281261,-0.04099097,0.012929822,0.020460617,-0.023302183,-0.05019268,-0.038879044,-0.0028863885,-0.026264787,-0.0073513067,-0.013753618,0.009788673,-0.043060575,0.04944958,7.111964e-05,0.012842213,0.011657002,0.001248444,-0.011685954,-0.00416119,-0.04119961,-0.0008978402,-0.016932499,-0.0002805659,-0.0208017,0.07681708,-0.030192183,0.017595692,0.0034544193,-0.013084111,-0.015500975,-0.030820515,-0.0098006,0.03221368,0.038656954,0.07812285,-0.011281225,-0.03420136,0.0025637466,-0.0024424682,0.015461336,-0.009244018,0.0021609163,0.03925883,0.029310355,-0.009668988,0.03379481,-0.011258504,0.012410447,-0.0009804597,-0.032650657,0.019190772,-0.02624653,-0.053971983,0.034918755,-0.0092199845,0.02443808,0.032759894,0.015068147,-0.026552282,-0.033604104,-0.03266961,-0.02944306,-0.04974626,0.00854691,0.008924988,-0.03164725,0.0022316289,0.043409623,0.064443946,-0.027497841,-0.018985096,-0.0062599718,-0.031061286,0.0007885054,0.027093098,0.02233707,0.009634135,-0.033907607,-0.012396493,0.023610765,0.027458837,-0.005547415,-0.028278388,-0.01631415,0.0020010048,-0.011276241,0.018535603,0.0044195196,0.0269971,-0.0006098559,-0.017226867,0.0134179555,0.013843971,-0.019535216,-0.026707716,-0.015195502,0.030319272,-0.0054654256,-0.008279697,-0.032580454,-0.030539365,0.047752142,-0.029321924,-0.04497346,0.038666483,0.019436786,-0.000567077,0.00944369,-0.039376426,0.0074494756,-0.006863091,-0.015616579,-0.002435092,0.024812665,-0.025287718,0.013871227,8.227299e-05,-0.0139096,-0.006492253,0.029594956,-0.0061504077,-0.030758932,0.024058992,0.0012407321,0.015145578,-0.022228545,-0.034506064,-0.03266579,0.016825527,-0.032753784,0.013280416,-0.0031365273,-0.0039931023,-0.06407988,0.0210402,-0.007777561,0.009210035,0.021760063,0.03748692,0.021570107,-0.023037905,-0.022992909,0.0059533888,0.0032751989,0.0035160864,0.0140619585,-0.008068152,0.00034090786,-0.020957299,0.021052573,-0.07348571,-0.06713722,-0.025071783,-0.0358528,-0.03875838,-0.02417311,0.00426453,0.0024094358,-0.010460937,-0.019630196,0.04712352,-0.011972314,0.003342625,-0.00083569717,-0.02138178,-0.008070057,-0.01655156,0.03535576,0.05044047,0.001070024,0.0016602403,0.033846118,-0.01993457,-0.013150818,-0.0122567285,-0.00945978,0.02775784,0.0037350366,0.028282922,-0.03945385,-0.020445535,-0.04467084,0.032296643,-0.042942967,-0.043156758,-0.020680657,-0.06902339,0.021248143,-0.012991213,-0.074291736,-0.03772079,0.02860233,0.047424093,-0.019764887,0.0063045793,-0.0019374136,-0.0034732637,0.0017313353,0.0132166855,-0.03651643,-0.007022019,0.05605419,0.02035219,0.00079028384,0.010830965,0.020494804,-0.023015628,-0.042936113,0.020354658,0.01724546,-0.023214176,0.012246839,-0.016264325,-0.03288353,0.080303475,-0.002094718,-0.02593683,-0.0067948354,0.024416689,-0.03931984,-0.048775844,-0.012073786,-0.029949153,-0.032460976,-0.008893453,0.0029127274,-0.01794644,-0.061997917,-0.039170776,-0.006633064,0.023991516,0.011489681,-0.006884611,-0.032164093,0.03196353,-0.0358034,0.008620093,-0.0031707133,0.008575773,0.019125694,-0.022332337,-0.006795204,-0.024271032,0.08303713,-0.0041496702,0.005915924,-0.030133061,-0.008694822,-0.014586463,0.01757887,-0.0068501723,-0.0013598438,-0.0008196146,-0.012831208,0.024043065,-0.035739213,-0.034994084,-0.024549164,-0.012136939,0.015217269,-0.015815554,0.03364349,-0.013037388,0.00031170403,0.030551195,0.0106540425,-0.0039164596,-0.05229876,0.006025672,-0.004973371,0.02304766,-0.038398724,0.0035130605,-0.022362394,0.060426056,-0.012041891,-0.025161132,0.014575706,0.046389792,-0.02291166,0.0086897295,-0.027213618,-0.031404845,-0.031172113,0.011993453,0.0054259594,0.07276857,0.009865233,0.0016802489,-0.029875362,0.0043437625,-0.03306085,-0.040442873,0.031857684,-0.006889816,-0.0007813041,-0.02462664,-0.038559914,0.019916955,-0.013245598,-0.009506131,-0.004167743,-0.01588802,-0.018121514,-0.029012237,0.016517295,0.004569277,0.02946304,-0.005128227,-0.008414416,0.006831148,-0.024870593,0.007099693,-0.013125871,-0.0033477296,-0.04073743,-0.0035555686,-0.04555428,0.0047151404,0.0077975583,0.001598156,0.00041025592,-0.0046401722,0.0123733515,-0.0042143594,0.0058695734,0.009523494,-0.036045507,0.08818489,0.003987545,0.029737707,0.054969907,0.032589573,-0.026004242,-0.022502549,0.021114495,-0.052710213,-0.03804952,0.039951514,0.017891433,0.04807637,0.020185212,0.008626147,-0.012449076,-0.0011751696,-0.017968485,0.011754022,-0.011555784,0.0064409254,-0.005972402,0.004911232,0.0027557788,0.037572883,-0.011520141,0.03287519,-0.032240726,-0.027084911,0.028984021,0.05625056,0.003762207,0.030437032,-0.013757348,0.015317041,-0.03005221,0.021915454,-0.02991654,-0.014088002,-0.048479415,-0.0019177769,0.0005640379,0.049016666,-0.030156542,-0.012840698,-0.013994501,0.035836916,-0.024158865,-0.019577391,0.039316803,0.016759073,0.036084298,0.025601327,0.038568348,-0.0061415443,0.0037147875,0.012359581,0.007117754,0.012621053,0.015760224,0.018050464,-0.0053118533,-0.022823883,-0.013561993,-0.00091218675,0.019474946,-0.016903201,0.029112868,-0.027405016,0.02511081,0.054877095,-0.010484149,0.014119709,-0.07053548,-0.025908206,0.0058595906,0.042954966,-0.018801235,0.01399934,-0.019250438,0.0294258,-0.055634115,0.036690578,0.02334443,-0.012291958,0.060208544,-0.004743557,0.0078067277,0.017837789,0.008764515,-0.02379057,0.037444796,-0.029702798,0.0041907206,0.020683205,0.0059730546,0.04867009,0.005982249,-0.045364838,-0.037236888,0.026899382,0.020319443,-0.0577025,-0.001865618,-0.0038641805,0.0072212904,0.0057421722,-0.035680804,-0.007694585,-0.051364448,0.010396955,-0.00076999253,0.0164459,-0.027028583,0.024888791,0.015552514,-0.028975865,-0.014389068,-0.06635912,-0.047509976,0.037200265,-0.016323477,0.0006166581,0.021371165,-0.012020858,-0.0013318843,-0.03572347,0.026763951,-0.021817558,-0.008622523,0.029710518,0.03310797,0.038470473,-0.013248701,-0.005396727,-0.018044196,-0.03474471,-0.007872861,-0.019023748,-0.05631682,0.041965738,-0.04149021,0.00012488564,-0.019722871,-0.0314186,-0.010285469,0.0055125193,0.029318864,0.027526218,0.012064786,-0.004548145,0.03704649,0.012798565,0.024455158,0.042840835,-0.005517097,-0.0189128,0.010277226,-0.013563288,0.010573699,-0.014710887,-0.018166175,-0.011941136,0.0031096633,-0.04061114,0.016751666,-0.02228666,-0.047357045,0.018654162
falso,-0.05908356,0.042220328,0.010770793,0.013823639,-0.0803782,0.055662632,0.015369177,0.114600316,0.0065074638,-0.023361126,-0.03958798,0.029182713,0.0075158835,-0.02853509,-0.017863182,0.07186596,0.023286372,0.05820517,0.062034335,0.026633902,0.01271325,0.045886934,-0.009033626,0.094707765,-0.00079263625,0.03713768,0.050310668,-0.0048404583,0.03738233,0.09066067,0.026750175,0.0051229903,0.013318096,-0.025041234,0.003808769,0.057865467,-0.0050717127,0.0029219193,-0.0049175764,-0.0051412284,-0.037385315,-0.0070757647,-0.041204326,0.056131292,0.06322008,0.028756363,0.032789122,-0.016016465,0.012516783,-0.055955347,0.041136038,-0.025917437,-0.06814201,-0.0275871,0.026395375,0.022517478,-0.02690413,0.08633892,0.031201983,-0.018509572,-0.029308245,0.02343019,-0.02460649,0.05839663,0.08458426,0.018242983,0.014825208,-0.0045544934,0.00029318916,-0.0009668225,0.07880305,0.022229347,-0.008250834,0.011397572,0.042814426,-0.002334781,0.050539166,0.07430265,0.024956075,-0.008531174,0.023027401,0.020470556,-0.025234036,0.06465089,-0.07815746,0.010026254,0.04403478,-0.00728611,-0.045988265,0.020882748,-0.04870155,0.0268662,-0.04309518,0.05724792,-0.029589543,-0.0128785465,0.030296842,-0.022033358,-0.014062831,0.06746605,-0.01835217,0.082607366,0.02972539,0.009090339,-0.005635293,0.022325635,-0.032821707,0.0722814,0.024871122,-0.0064086607,-0.12157838,-0.025359482,-0.062240336,-0.048990563,0.013437967,-0.0627314,-0.008288293,-0.01503803,0.11436362,-0.046137158,0.042149696,0.02572701,0.016040064,0.013351658,0.03803359,0.017305434,0.03756422,0.012328005,0.030628184,0.059982944,-0.014991163,0.036154043,-0.013338169,-0.046190802,-0.010731186,-0.03815584,0.045208678,-0.017232185,0.07837605,-0.04672724,-0.03383986,0.025260292,0.0060164533,0.07924584,-0.009754972,0.013075258,0.03737234,0.035228077,-0.0061288993,0.047337957,0.015437736,-0.009591686,-0.0067551974,-0.097969845,0.01580699,0.014841845,-0.02476091,0.05587043,-0.0073007355,0.019113256,0.014772791,0.04517232,-0.057086192,-0.016389847,0.011888134,-0.07291787,0.037335813,0.05980586,-0.017444978,0.033554036,0.01682631,-0.018725695,0.01814891,-0.087772846,-0.011945313,-0.022113893,-0.044513136,0.0046444912,-0.026027016,-0.046931844,-0.0061598024,0.06643973,0.008959364,0.031347193,0.03807363,0.015214306,0.05790924,0.007704873,0.050104324,-0.037996124,0.014997269,0.0043397667,-0.0033879215,-0.0016128926,0.006549875,-0.029433968,-0.08533512,-0.045087595,0.02707578,-0.013326077,-0.07665598,0.0053656884,-0.03198498,-0.04437603,0.004403929,0.0048412126,-0.0054004993,0.006126686,0.071793295,-0.009937767,-0.04385678,0.051220533,-0.056302384,0.058178015,0.037047952,-0.0024576085,0.0044046207,-0.031853218,0.04679914,-0.014150284,0.014979653,0.063648224,0.028902816,0.053496458,-0.046929605,-0.0077277757,0.0105476165,-0.050988697,-0.07969163,-0.04230277,0.023779025,-0.01833277,0.015289663,0.050392415,0.017028358,-0.0030998606,-0.043460526,0.04530901,0.0033241077,-0.087492466,-0.008903652,0.0041845376,-0.043565374,-0.022468733,-0.07266332,0.011166134,-0.05953276,0.06555474,0.06164228,-0.011698346,0.01393909,-0.061193243,0.004007608,0.04895943,-0.050298013,0.0058496315,-0.0022196155,0.022127075,0.013007163,0.01673985,0.018705437,-0.019737586,-0.0010625263,0.0013733918,0.0062644235,0.005080079,0.004813707,0.0017902319,-0.046421006,-0.05264733,0.02730188,0.0006989745,-0.02382966,-0.007817733,0.05433711,-0.02099862,-0.026580604,0.011093022,-0.057258047,-0.0030378476,-0.001401904,0.02392188,0.0047987048,-0.05257626,-0.019847281,-0.0023781743,-0.021000791,0.010701477,-0.035539888,0.024486143,-0.036305554,-0.025248846,0.006263924,0.004369533,-0.027149362,-0.005430554,-0.03192764,-0.0009625,-0.01510441,-0.05024167,0.0199657,0.014225363,-0.0038205516,0.07675466,0.005021418,0.020724734,-0.035596,-0.0252946,-0.009060108,0.04440627,-0.0101453755,0.004184239,0.054493822,-0.014233927,-0.006727665,-0.019629259,0.033268865,-0.021545,-0.03090614,-0.017408026,-0.03240141,-0.024022661,0.041270267,0.010580929,0.006614356,0.036297504,0.024650203,-0.002912702,0.009705977,-0.025592616,0.030873274,-0.0009511069,0.050308567,-0.05007395,-0.03883427,-0.0037686198,0.017760726,0.04730511,-0.00884796,0.034882065,0.0070911516,0.014224375,-0.012205336,-0.0076983385,-0.014205201,0.0042011547,0.011404578,-0.07366121,-0.023373747,0.00049833563,-0.02419284,-0.0023917577,-0.008803353,0.043598775,0.013690513,-0.02379284,0.032100566,0.03205169,0.026217831,-0.012989789,-0.0030286051,-0.00846841,-0.026925417,-0.0033491263,-0.013487232,0.0021425935,-0.039057277,0.05020856,-0.020375814,-0.028095948,0.022230918,-0.041168794,0.017362757,0.013143592,-0.016048359,-0.011693035,-0.027355311,-0.02244925,0.017899508,-0.009366754,0.018877078,-0.011037708,-0.029282356,-0.018489202,-0.012597727,0.03225543,0.015777582,0.018101009,0.033618074,0.044131055,-0.041648295,0.03972118,0.01180878,0.0076289447,0.033801045,-0.006358186,0.0022060727,-0.02912366,0.00046710818,0.00065073406,0.0054641403,-0.024081122,-0.0671563,-0.0036534485,-0.0022431337,0.033039853,-0.003737464,-0.021194214,-0.0059325653,-0.0016041531,-0.00817005,0.007119686,-0.01979381,0.04825725,-0.005054131,0.0011246093,0.02850909,-0.011716876,0.009978767,-0.0025208597,0.013860321,-0.02316805,0.011426142,-0.019526953,-0.036238197,-0.00868518,-0.005649935,-0.008845176,-0.022654986,0.060153257,-0.048861977,-0.04809731,-0.08380022,0.012788286,0.0101352995,-0.0053792843,-0.020466786,-0.009646386,-0.011617905,-0.012043624,0.00580203,-0.029630747,0.03464127,-0.0003444594,0.016327642,0.055450622,-0.030750962,-0.022283124,0.040520288,-0.01762133,-0.009618442,-0.036979955,-0.017408008,0.012477702,0.003994832,-0.008798932,-0.020404944,0.024685508,0.010976849,-0.027149865,0.01004727,-0.02959547,0.004530902,0.039794147,-0.030738458,-0.019525053,-0.014010574,0.021031192,0.0070083896,-0.014292032,-0.007963682,0.012682375,0.016436521,-0.075460464,-0.03290458,-0.02287094,0.009584756,-0.0005936299,-0.025361512,-0.04108215,0.0063103833,0.045487177,-0.027343309,0.015311703,-0.055464756,-0.019122839,0.00503406,0.03372465,0.010359074,-0.019437844,-0.034451764,-0.028167805,-0.03441384,-0.021786762,-0.025050618,0.009800212,-0.0014247998,-0.04455223,0.018135332,-0.058280695,-0.005442381,-0.022671519,0.044380795,0.0071702586,0.082010746,-0.033405963,0.0053233206,-0.039896112,-0.012962615,-0.005908202,0.012265011,0.026791567,0.03311298,-0.019086443,-0.03409022,-0.022819279,-0.035746597,0.0042745136,0.024367651,-0.033648245,0.008276237,-0.0068215067,0.06524725,-0.039605316,-0.027639786,0.008270055,-0.033612892,-0.038049333,0.056612544,-0.008246284,0.0025166536,0.00045831542,-0.008796631,-0.023742303,0.0054746345,0.015311458,-0.010911863,-0.0057526664,0.08398771,0.0017574052,-0.053036984,-0.016667882,-0.0026398068,0.016910885,-0.0012322117,0.011993238,0.04691306,-0.0058207107,0.0028492901,-0.02181515,0.06218551,0.00979114,0.0025832257,-2.0532047e-05,0.0051380577,-0.013593497,-0.03520513,-0.022693377,-0.003296358,-0.015302241,0.0036175465,0.02689162,0.013254411,-0.0036763968,-0.010171754,0.012896937,-0.015329135,-0.04669857,0.00013543759,-0.0707019,-0.02427679,-0.01909992,0.021554932,-0.0050541726,0.03265543,-0.046406902,-0.02222869,-0.00046196024,-0.0134282885,-0.0042750924,-0.008958487,-0.023705374,-0.0077132853,-0.020296093,0.05680644,-0.012753391,-0.049335636,0.064065605,0.05487607,-0.01969815,-0.034329224,-0.004093058,0.016592333,-0.04158852,0.016776197,-0.0056703035,0.029141447,-0.029801674,0.049692307,0.061370134,0.026947683,-0.0033550384,-0.018759761,0.007665153,-0.03239093,-0.025558807,-0.019124143,-0.0074423337,0.012687237,-0.032495588,-0.03557146,0.020078,-0.007187387,0.01895224,-0.006495016,-0.0013882279,-0.003972144,-0.007665964,0.04230404,-0.019683272,-0.023605619,0.07241322,0.0037455386,-0.031106373,0.017113492,0.027105406,-0.020555636,-0.0018559503,-0.029028356,-0.01191498,-0.05325641,0.027785553,-0.037458505,-0.0028899403,0.039291494,-0.0037329015,-0.051793654,-0.04734719,0.0024499807,0.0029813182,-0.040483758,0.05087277,-0.013317046,0.0029235468,-0.0024057128,-0.009938512,-0.035254974,0.013167078,0.0058551724,-0.0092341,-0.028400093,-0.012377803,-0.002881477,0.0026623157,-0.0042247646,-0.014787027,0.05101314,-0.0036138268,-0.028645318,0.0012602019,0.0037427056,-0.022722295,-0.033681903,-0.028733818,0.025251586,0.049869806,0.028746886,-0.049692817,-0.05706417,0.006496693,-0.007851614,0.042863436,0.03000543,0.010650755,0.032469116,0.0051450226,0.008093413,0.0071889777,-0.030302502,0.033630427,0.025517387,-0.028946498,0.0056312447,-0.038563967,-0.0021957115,-0.014607742,0.00441012,0.008925448,-0.034359943,-0.011173919,0.009672104,-0.014482062,-0.026217276,0.011449367,-0.015938045,-0.03359543,0.039181266,-0.008732911,0.010643317,0.0131310085,0.006951732,0.031708434,0.039898913,-0.02251321,0.0028810697,0.01927663,0.015783876,0.017837614,-0.037043277,0.008419098,-0.04186716,0.05820377,-0.0007592928,-0.002159343,-0.02576081,0.0049079503,-0.0005383063,-0.0294192,-0.027439987,-0.0044930866,0.003611986,-0.038974617,-0.048395943,0.034087814,-0.031689588,0.028932627,-0.008218781,0.018798452,-0.013571418,0.005053797,-0.068611614,-0.0062039825,0.0038341328,-0.03972319,0.0044663586,0.005857788,-0.0066426406,-0.011087014,0.007263708,-0.019944163,-0.020775922,-0.025051735,0.0085244775,-0.005126934,-0.023266803,-0.005831368,-0.011761989,-0.017841578,0.005450156,-0.01613362,0.0034079647,0.018089235,0.0029327886,0.022279272,-0.014911029,-0.015551617,0.023887511,-0.0072065312,-0.032892548,0.013183817,-0.01759294,0.014506164,0.014769676,0.014824648,0.0032976796,0.010421061,0.0005119379,-0.031353932,0.017696861,0.021827446,0.040069357,0.017517084,0.019613355,-0.0029568577,0.06264883,0.0034148265,0.017461034,-0.054339673,-0.022511993,0.00084269664,-0.004656958,-0.071490854,0.027686466,-0.060831442,-0.0011247387,-0.008748361,-0.03708903,-0.013580601,-0.018508676,-0.011469475,0.005567001,-0.03626001,-0.00460944,-0.00276466,-0.03842283,-0.0033229573,-0.026721602,-0.00864138,-0.021370048,0.048157565,-0.014095655,-0.027345615,-0.03742913,-0.04905038,-0.015891869,0.056728385,-0.008130681,0.036218595,-0.03564194,-0.00755335,0.011709071,-0.027714096,0.021161025,0.030489156,-0.008270937,0.041309156,0.03646241,0.008230352,0.019771516,0.01096864,-0.018742276,0.0032256036,0.0054734936,-0.02689742,-0.026900593,0.04028773,0.03824428,-0.0011312509,0.025509506,-0.011203264,-0.040386334,-0.024690352,-0.010030192,0.015764553,-0.0047932556,0.059008766,0.055548668,-0.06072223,0.043275144,0.053598303,0.011589551,-0.01618584,-0.035068143,0.0017898487,0.008491803,-0.01843121,-0.06775149,-0.0048571383,0.0042468314,0.005915693,0.00819635,-0.008992965,-0.019023415,-0.026821451,-0.010079197,0.0053170854,0.008132622,0.037904724,0.0168914,0.026818572,0.052438863,0.017311314,-0.041285384,-0.10064046,0.02790066,-0.018056571,-0.012939768,-0.010384678,-0.01591573,0.06457468,0.0027416828,-0.035295155,0.006612274,0.039010823,0.025577206,0.0009946082,-0.009043847,0.028203594,0.010998726,-0.010690405,0.054296803,-0.03744806,0.03799148,0.009098453,0.024174878,-0.014744798,-0.007041537,-0.008809432,-0.026022032,-0.028472256,0.0345215,0.01359038,0.035518233,0.036262542,-0.035673857,0.023777947,0.014427126,-0.0014984776,0.030292595,-0.0023936094,0.0059504784,-0.022567352,0.02220967,0.023044443,-0.0043367464,-0.031803545,0.03162695,0.011494626,-0.023404513,-0.004033676,0.020781951,0.0018396161,0.022644812,-0.0481508,0.020450408,-0.018243585,-0.0051772865,0.0049576005,0.03420097,0.014146131,0.012175734,0.03569407,0.048418563,-0.0053905803,0.032400426,-0.001660272,0.016589927,-0.0114288945,0.016754244,-0.038716953,0.033567082,0.0268224,0.033413798,0.0014985033,0.036037125,0.019011052,-0.016232574,-0.020991297,-0.0065127444,0.015721982,0.01222282,3.354229e-06,0.012065295,0.03469883,0.026282754,-0.005546927,0.023842737,-0.004776439,-0.0028727995,0.029144892,-0.019413754,-0.048150267,-0.009630721,0.06383744,-0.032849073,0.0073414426,0.024582623,-0.011322907,0.017654749,0.02740454,-0.019702176,-0.008039226,-0.03421664,-0.03482893,-0.032609798,0.0071121403,0.0022921837,-0.0011308546,-0.016055731,-0.028812217,0.019248644,-0.024576949,0.036852922,-0.0019483278,0.007859951,0.03720092,0.0016153818,-0.031464346,0.01907134,0.0002715037,0.047905695,-0.008412906,-0.014050031,0.04064683,-0.026617702,-0.059728615,0.03199773,0.0050061997,-0.025136786,0.010408271,0.014684257,-0.010917093,0.0353533,-0.015954947,-0.02164509,0.008211863,-0.01469564,0.004121881,0.019731099,0.003995408,-0.005830281,0.0064668222,0.030892394,-0.02302754,0.008268505,-0.022162838,0.033971768,-0.013619219,0.032160033,-0.0070939846,-0.029354736,-0.005531806,-0.004981247,0.016029432,-0.036009584,-0.05095142,-0.0062964205,-0.020723864,-0.010320666,-0.0021847466,0.022239082,0.022079611,-0.018587403,0.0062462213
falso,-0.02875803,0.15933716,0.04512998,0.00027016524,0.022217726,0.05003487,-0.024737734,0.015852552,-0.039271045,0.004220244,0.046394017,0.03860758,-0.03656807,-0.014621197,0.009957235,0.031489853,0.03172598,-0.034260035,0.013909479,-0.014993737,-0.071801,-0.03214151,-0.03802404,-0.013567469,0.013486587,-0.01808947,0.01947786,-0.052963153,0.13128234,0.0012915378,0.024152223,-0.011321136,0.008061925,-0.013024225,-0.044543654,-0.024144968,0.052275613,0.004188529,0.045980122,0.07324001,-0.0026301935,0.01788121,0.012827268,-0.07359162,0.035989955,0.010576352,-0.002451708,0.007868373,0.063207164,-0.02042509,-0.005261939,0.035547633,-0.03643966,0.0138410395,-0.03563543,0.027931858,0.044187557,0.0011153681,0.051677357,-0.0026635465,0.06020002,-0.007371691,-0.0732591,-0.044825356,0.0022172316,0.06574022,-0.006465479,-0.022244612,0.03032661,0.014751066,-0.025236161,-0.053182464,0.027499598,0.07558315,-0.010925859,-0.026465844,-0.05605032,-0.07614175,0.08569257,-0.018186532,0.07252607,-0.031046167,-0.013935754,0.05199385,-0.017627696,0.022614108,-0.011879986,-0.057985708,0.06377891,-0.07555849,-0.023100123,0.029618597,0.049808554,0.038279098,-0.025654182,0.10417872,0.0019077238,-0.039833773,0.062233604,-0.0092034545,0.053867746,0.09609898,0.005478821,-0.018577095,-0.023854785,-0.023840684,-0.04241191,0.027846042,0.01961448,-0.013409681,-0.05460634,0.03825667,-0.020539911,-0.031857267,0.020663073,0.009611016,-0.0035553295,-0.020742923,0.038175493,-0.08600724,0.03929504,0.03979924,0.01859273,-0.016284265,-0.07219881,0.014511162,-0.027675683,0.015216481,0.032358095,0.012369794,-0.039971206,0.004549109,0.075467736,-0.031677496,-0.0048141754,0.011543034,0.02896657,-0.017007133,-0.008147542,0.012647234,0.059224598,0.01804122,0.040838424,0.026181614,0.047852125,-0.007832794,0.017354848,0.043346792,0.0025162988,-0.02752747,-0.019854998,-0.041984428,-0.010724431,-0.032470014,0.04079885,-0.031253967,-0.08738487,-0.01911497,0.042209633,-0.0011320853,-0.015991878,-0.009839778,-0.033474438,0.028555242,-0.048042636,-0.0040435106,0.03946915,0.024700118,-0.011971969,-0.031964455,0.046791285,0.0076100137,0.003380355,-0.07382431,-0.028664753,-0.01622125,-0.067459196,0.02136445,0.01660162,-0.02641431,0.044964366,-0.013348091,-0.014110072,-0.06047211,-0.0009619495,0.077650286,0.05246031,0.027134487,0.033829417,-0.052499,-0.04171093,-0.060794987,-0.0034197115,-0.03992899,0.020225681,-0.049851034,0.018352324,0.02205702,-0.015938452,0.060313746,0.01346834,-0.01572483,-0.05337185,0.008235673,0.034976747,0.029150648,-0.03490149,0.011860798,0.032043055,-0.0571718,0.050433803,0.016253214,0.060768086,0.033805605,0.076408476,0.04191423,0.09004932,0.021327052,0.037889063,-0.011778583,-0.044833627,0.014078863,-0.07334781,0.0207065,0.011265313,0.07336915,0.03777833,-0.02436705,0.025934678,-0.045524094,-0.006257832,0.041989267,0.010807007,-0.052851003,0.03420102,0.02191492,-0.00441554,-0.002067721,0.008242384,0.009762378,0.027026316,-0.058985133,-0.018154068,0.0010816407,0.026585061,0.024621442,0.009542645,0.02693442,0.06585118,-0.06050484,0.051980413,-0.016114622,0.053968087,-0.023601096,0.034989007,0.02635406,-0.009222009,-0.016874807,0.0102688065,-0.03315374,0.05512864,0.05039629,-0.0030333484,-0.009334403,-0.0014765409,0.056587115,-0.01199672,0.064335674,0.028911512,-0.079805695,0.015942141,0.03500147,-0.022763817,-0.024309212,0.015055986,0.004324877,0.012613409,-0.028853245,-0.050061077,-0.006751124,-0.008891195,0.006212754,-0.008007347,-0.00039665675,-0.0060551884,0.023081722,-0.0025911678,0.012283752,0.030331459,-0.03313507,-0.019760778,-0.017735379,0.018123176,-0.0305009,-0.021338407,-0.0046226587,0.021137165,-0.0024550958,0.007426343,0.017708618,-0.008413205,0.014936534,0.049834214,0.041661184,0.021326171,-0.02819411,0.025199642,-0.039605126,-0.02710077,0.04319959,0.0050315256,-0.0004833823,0.005064278,-0.0181554,-0.018276352,-0.021758437,-0.007199416,-0.009740027,0.02516116,0.019898389,0.016927747,0.013077586,-0.049301077,-0.027919397,0.0051659034,-0.00796028,0.0043314756,-0.05174509,-0.011856125,-0.020644624,0.0013476177,-0.041941386,0.061777126,-0.07731082,-0.0050942623,-0.036035407,0.03333954,0.062948406,-0.03749362,-0.02286465,0.0010131103,0.005272561,-0.060151134,-0.030050863,-0.012977057,0.01192719,-0.025678162,-0.031620603,0.037108213,-0.041697353,0.014111492,0.044974443,0.052927703,0.04102807,-0.014028409,0.01347949,0.029254053,0.013599116,-0.03748536,-0.0013630314,0.03359061,-0.028225893,0.023418972,0.008756123,-0.019313868,0.015425399,-0.02775258,0.034339633,-0.06128958,-0.0111000035,-0.018602036,0.03399754,-0.0026221243,0.01240347,-0.013693852,0.023079837,-0.055811293,0.019741043,-0.013978985,0.013181931,0.035821576,-0.031094652,-0.0025472667,0.03945744,0.016987668,0.004471449,0.022596236,-0.03336078,0.016205622,0.034389112,0.027847571,-0.018814083,-0.018064933,0.029152721,0.020184044,-0.06931526,0.015114625,0.02515799,-0.003555354,-0.012902753,-0.013012431,-0.02592517,-0.03617449,0.030476576,0.014701215,-0.030925272,-0.010963258,-0.0019790528,0.0010557557,0.0013629143,-0.013853807,-0.027295193,-0.016388344,0.062046427,-0.04398457,0.0024550748,-0.020322604,-0.026047383,0.007864304,-0.024713248,0.008898497,0.03267198,-0.013014553,-0.030417815,0.02169501,-0.005019953,0.01290616,-0.009263137,-0.0015692455,0.013875245,-0.007138642,-0.012188196,-0.010230311,-0.018912109,-0.016423142,0.035213083,0.0060270177,-0.008906739,0.01786611,0.024167836,-0.03171824,-0.0041894848,0.02232953,-0.019940222,0.04139389,-0.017999403,-0.025171014,-0.0026222852,-0.024993872,-0.02578003,0.0040674927,-0.005278064,-0.017060572,-0.015613777,0.031656552,0.019486697,-0.00012804338,-0.045625243,0.003730895,-0.027200978,-0.0061735185,-0.0074371165,-0.00990693,0.015518413,-0.016881146,-0.051153697,-0.016416159,-0.009234885,0.017687643,-0.0053355433,0.032916237,0.01806706,-0.0026443033,0.009071041,-0.028920505,0.021228148,-0.029375777,-0.0006426225,-0.058437344,0.01490289,-0.009864369,0.007000971,0.0068678074,0.042859603,0.02946667,-0.0067368248,0.08874254,-0.042408314,-0.022155402,0.022398736,0.00505434,-0.0012872345,-0.00038974476,0.013085061,-0.034158826,-0.0026043444,-0.01669418,-0.013677043,-0.015273239,0.03751074,-0.004930626,0.053264078,-0.0025459754,-0.0012800507,0.0021060575,-0.038052898,0.04199126,0.0022510723,-0.04697167,-0.00077901286,-0.019431455,0.03192056,-0.0499664,0.02684162,0.0076772133,-0.0056337733,-0.026211284,-0.01800108,-0.0013710022,-0.0075084805,0.029843217,0.044886608,-0.01802221,0.029452622,0.004305944,0.07153524,0.022540197,-0.002324292,-0.00062975136,-0.007209124,-0.03740557,-0.028191507,-0.022960939,0.019015383,0.00321456,0.017625313,-0.010504823,-0.037155475,-0.02634583,0.027959133,0.030782538,-0.0077032833,0.0032860306,0.048558164,-0.03552668,-0.019790653,0.009624115,-0.008200699,-0.024635343,0.023367275,0.030001529,0.029614704,-0.010123801,0.018604182,0.0038938257,-0.033659853,-0.0070843026,-0.034531023,-0.017779794,0.02972028,0.061555237,-0.022013027,-0.033657603,0.0049818847,-0.045055248,-0.057319853,-0.011544104,-0.042265218,-0.009448712,-0.01935358,0.035747893,0.01950159,0.0017635355,-0.018414753,-0.00015041305,-0.004429298,-0.034863222,0.0109028,-0.027422866,-0.017481703,0.038457517,0.0024763795,-0.020264443,0.026331784,-0.005873095,-0.010131436,-0.031227434,0.011656599,-0.0047278907,-0.010514061,-0.020692185,0.013278026,0.0036523729,0.022761801,0.014732469,0.016994406,-0.0087995855,0.011301215,-0.035633985,-0.009968892,-0.024822593,0.0062504667,0.00761615,0.013964914,-0.029840231,-0.02880543,-0.05669219,0.01401384,-0.010207401,0.017295828,0.03626664,0.017531127,-0.016079323,-0.024855774,-0.008654692,0.054263037,-0.0068055857,0.0049636913,-0.01532114,0.010375774,0.0057476764,4.195312e-05,-0.025748437,-0.008905592,-0.03013291,0.06144106,-0.06448483,-0.021690074,0.0068635265,0.019444823,-0.0021139646,0.04088249,0.052468527,-0.063493006,0.027192226,0.006516755,0.004312481,0.0143838385,0.05769349,0.014763758,-0.0031619878,0.00451178,-0.06863682,0.036062464,-0.0033620289,-0.05535161,0.015900388,0.009718029,0.01683106,-0.027775276,-0.054070745,0.022127552,-0.036349762,-0.051149793,0.024630692,-0.016694207,0.0144765405,-0.003781213,-0.042888764,0.017664695,-0.022164274,0.010836644,-0.06189751,0.04308704,0.041632175,0.014232128,0.0005449487,-0.0175746,-0.017217476,0.014565801,0.002943053,0.0266271,0.045177013,-0.05558038,-0.0013770649,0.04885186,0.02895491,-0.0368684,-0.011004562,-0.01272314,0.0029172588,0.018106211,-0.03134488,0.009253417,-0.016183881,-0.05570374,-0.017255366,-0.040446144,0.02173931,-0.024182165,0.0013615689,-0.01364519,0.005040698,0.04449674,-0.0028333205,0.016091758,0.04692014,-0.011363209,-0.020203011,-0.035128877,-0.01168429,0.0073277387,0.032828305,-0.020246774,0.035510674,0.015526811,0.04208188,-0.0048733023,-0.008145827,-0.014919631,-0.024937928,0.040145855,-0.03872327,-0.0027185201,0.008952835,0.020316614,0.014289754,-0.016840741,-0.018777166,-0.03240232,0.058112297,0.04295561,-0.041884996,-0.0007838534,0.038294557,0.019728463,0.0148253385,0.020894704,0.025837105,0.035748556,-0.015944209,-0.0021782212,0.018129583,0.010959718,0.0038888266,0.00026592438,0.023896227,-0.0017897075,-0.0006031378,-0.01161882,-0.019761514,0.034636125,-0.001435506,-0.07909339,-0.07527937,-0.01739596,-0.059043005,0.010427451,-0.0020993773,0.0430575,0.009723394,0.02523643,-0.01345446,0.015353886,-0.0012262634,-0.00870768,-0.0038024995,-0.0049449163,-0.007548306,-0.033474203,0.023925737,-0.02808882,-0.00038434315,-0.010946496,-0.0013995465,0.025470236,-0.0030016957,0.0595572,0.020260243,0.043546494,-0.009756794,-0.0019000358,-0.01777707,-0.011437026,-0.028094491,0.030202394,0.050360333,0.028245501,-0.0023466283,-0.037699435,-0.017454231,-0.038447198,-0.012962374,-0.017661285,-0.038827017,-0.03132302,0.014482487,-0.0857393,0.009861795,0.011572745,0.0429126,0.041151058,-0.0107120555,0.0020804293,-0.027853394,0.008268044,-0.008140937,0.009704179,-0.025411483,-0.044985652,0.00055339804,0.038810473,0.008376922,-0.0023238028,0.01448075,0.013327821,0.0017732863,-0.015515201,-0.0012916852,0.028743474,-0.05447915,0.015623554,0.0033420173,-0.010834554,0.01911357,0.017397141,-0.013909922,-0.000118882344,0.056384135,-0.07074152,0.003471844,0.024480218,0.022388328,0.01675207,0.026219092,0.049473103,-0.0019990033,-0.005624136,0.008629831,0.013072144,0.011424121,0.023077415,-0.022995269,0.003936655,-0.002752051,-0.004326512,-0.012027064,-0.051575072,0.021877741,-0.0023829157,0.034535974,0.032581933,-0.03383148,-0.037751667,-0.019661896,-0.027765995,0.042821165,0.017843189,-0.0020017324,-0.030160973,0.0041766786,0.02859307,0.003483809,0.007914809,-0.015770826,0.08026954,0.01693906,0.052956033,-0.024023505,-0.038029972,0.019858472,-0.04439255,0.0053940276,-0.08140914,0.055994637,0.001403402,-0.028178304,0.03186301,0.0002768702,0.000107994296,-0.036317952,0.04744793,-0.020819424,0.033762682,0.01605965,-0.008926564,0.017373882,0.0055725966,0.056102265,-0.036671028,0.014554142,-0.045257237,0.0076011666,0.0020746863,-0.01492487,0.0634852,-0.012890298,0.008149761,0.0057036863,0.024144592,0.019118875,0.0022702424,-0.022820486,-0.001321347,-0.0009724199,-0.004183123,0.004765305,-0.011259056,-0.0040624966,-0.0073970663,-0.008651469,0.015462626,-0.04464354,0.02672062,-0.036935024,-0.00060831767,0.0031902778,0.0020932776,0.022130128,0.032551724,0.01977832,0.011498593,0.008385356,0.009965732,0.011283628,0.0129320985,-0.040960386,-0.002266576,-0.019263737,-0.0034929093,0.043167662,0.011614476,-0.0033463757,0.008136108,-0.024905806,-0.015855787,-0.03088731,0.0022879837,-0.042627368,-0.039338976,-0.00079438323,-0.0072214995,0.003131171,-0.015643222,-0.011506613,0.0128612155,0.003633459,0.008554418,-0.008130503,0.04765883,0.017559381,0.01543601,-0.016902717,0.011184898,-0.011919608,-0.049647223,0.00087799964,0.023997374,0.03748079,0.013520332,-0.006603016,-0.03197144,0.0049757324,-0.025242755,-0.047419805,-0.009939365,0.014836476,-0.016309706,0.015853753,-0.0117440885,-0.026195278,0.041968264,-0.03964658,-0.04950297,-0.07415137,-0.009875269,0.034698065,0.014430231,-0.029910088,0.010204769,-0.036642198,-0.011150918,0.0034316035,0.001625185,-0.008935516,-0.019033043,-0.052635312,-0.03856219,0.013552246,-0.0334317,0.019070948,0.010284848,-0.035686158,0.029665675,-0.020479646,-0.0050995564,0.020069141,0.024517458,0.03593492,-0.023976326,-0.05226972,-0.0022076787,-0.016259637,-0.0074871886,-0.06061392,-0.022060668,-0.014146308,-0.009340626,-0.02421637,0.0024493984,-0.0033303562,-0.01204647,-0.0042207083,0.0021644784,-0.0014339463,0.013117433,0.025840297,0.01361546,0.005432068,-0.01955931,-0.023098342,0.029828914,0.023209285,-0.010870187,0.03968932,-0.044469196,0.043569356,-0.0078812465,-0.021805579,0.0043611904,0.024656745,-0.049315162,-0.032925308,0.017702017
real,0.1011331,0.012987501,-0.019818833,-0.0076699536,-0.0027991661,-0.04254956,-0.030757695,-0.033369843,-0.043910753,-0.0194586,0.022873955,0.01447586,-0.009951698,-0.034571685,-0.049750224,-0.008065111,0.08432439,-0.013313737,-0.046784543,-0.059881646,-0.071632855,0.0070370557,-0.01681713,0.035412632,0.011803082,-0.028951388,0.07601333,-0.0063255522,0.011641816,0.091395766,-0.013505594,0.01257426,0.00016049719,-0.03361436,0.01128282,-0.034855414,-0.03381771,-0.044911265,-0.0046101054,0.050157603,0.009939671,0.05207364,0.011192651,-0.0064101066,-0.037041858,-0.027004695,-0.007062329,-0.037229083,-0.007218369,-0.00096974714,-0.051851846,0.033562224,0.0016590107,-0.0022906577,-0.04651846,0.005466836,-0.043000583,-0.00659678,-0.008060765,-0.013962325,0.03700259,0.037754837,-0.010353617,-0.011290493,-0.084772505,0.013878688,0.026210234,-0.013520493,-0.03650231,-0.024155434,-0.03955923,0.042981938,0.08161505,0.043916196,-0.003612418,-0.0029724133,0.012729119,-0.055630237,0.0050673997,0.10580566,0.083869696,-0.06319609,0.021572163,-0.015525051,-0.031672783,-0.002279429,-0.05033262,-0.01292911,0.0353752,-0.031226674,-0.023957781,-0.013465413,0.016817342,0.024221761,0.022333985,-0.03976188,-0.028583053,0.02955478,0.011575033,0.009748678,0.09919398,-0.04315333,-0.029436972,-0.027984478,0.09081802,-0.047945496,-0.05300618,0.004016139,0.009177665,0.017587952,0.049851242,0.008732828,-0.014501941,-0.0029466634,-0.0084234495,-0.025231801,-0.029176755,0.038615294,-0.040019117,0.030323396,-0.024781974,-0.0060880603,-0.02572298,0.0055781486,0.03129825,-0.016423864,0.0063723004,0.008810756,-0.020602915,0.05730134,0.0054076947,0.03909871,-0.037608434,0.036531556,0.03119826,-0.038251113,0.012782361,-0.058293063,0.061056003,0.015095583,-0.060315486,0.0036102564,0.08572949,0.018391043,0.08831843,-0.006944057,0.07839521,-0.011034967,0.050185274,0.010736633,-0.009577269,-0.04458526,0.034019616,0.012339505,0.007956825,-0.015463222,-0.0501979,-0.0111351935,-0.027415292,-0.009412562,0.032703545,0.06863108,0.010670944,-0.021452462,0.039353337,-0.0016733428,0.05574024,-0.06296251,-0.035809062,-0.005420757,0.038353637,-0.019066693,0.00084107846,0.017391307,0.012545842,0.09105685,-0.04187804,0.023010755,-0.027044239,-0.037999146,-0.032102656,-0.0879995,-0.038187414,0.016056404,-0.02377791,0.012274782,0.020143794,-0.026113905,-0.046030812,-0.023211787,-0.05387977,-0.04061761,0.0638379,-0.038467757,0.04656284,-0.025414927,-0.06474609,0.042233326,-0.022594208,0.025872976,-0.018033233,0.0069905124,-0.03347225,-0.041348565,0.006526104,-0.032097515,-0.05823019,-0.042572234,0.0014236722,0.022017214,-0.043502044,0.021626698,-0.00902417,-0.033346877,0.01330785,-0.014232501,0.0424715,0.040505517,-0.012595151,-0.023312068,0.004337899,-0.04389979,-0.055406265,0.0439456,-0.032138713,0.046986904,0.07597953,-0.028917871,0.00937656,0.02776549,-0.02036471,-0.0043864828,-0.044873036,-0.010722436,-0.035388086,0.0010181535,-0.025083525,0.022907874,0.013198691,-0.013556567,0.01195024,0.02848019,0.10538219,-0.04789551,0.026039522,-0.050433822,-0.0034055088,-0.03449835,0.021980755,-0.01748334,-0.035500925,0.03783466,-0.021084836,0.014805241,-0.0034768952,0.021105165,-0.020110745,0.015097646,0.005155026,0.024860729,-0.008477241,0.017876323,-0.05444258,-0.022616953,-0.005550912,-0.042227656,-0.026302401,-0.022332374,0.02469132,0.0130819455,-0.0022246523,0.018559724,0.05095164,-0.0040505687,0.005498219,0.05595258,0.019264193,0.03035758,0.024695132,-0.044502404,-0.013562565,-0.0034661957,0.0123561835,-0.031758483,0.0031626623,0.021961499,0.021815166,0.04030071,-0.002389703,-0.018515496,0.030566428,0.021157032,0.04518761,-0.03569946,-0.06386961,0.03224003,0.057562526,0.004337415,0.017488416,0.030549353,-0.03347487,0.026438886,0.021482138,0.0034327188,0.008541398,0.008921725,-0.017754423,-0.00033307608,-0.002165428,0.012345968,0.04461851,-0.009729121,0.008849773,0.043446794,-0.008960866,-0.013842251,-0.019487623,0.012904633,0.0064442283,0.08762832,0.03515893,0.027450183,0.021057295,-0.042958144,0.028702307,-0.0009317377,-0.038574312,0.042931423,-0.023326416,-0.03803614,-0.0031080286,-0.019294543,0.0621721,0.03948784,-0.0016083951,-0.031616163,0.030889232,0.026987642,0.014901956,-0.023379738,0.021841716,0.0060470924,4.7960188e-05,0.0010884017,0.02371009,0.012071918,0.004170456,0.0075928285,0.0019755159,-0.031000454,-0.0020005105,0.01130955,0.0036349553,0.009622383,0.003614544,-0.040386036,0.03538697,-0.0060524754,-0.010195832,-0.021941677,0.024551496,0.010880697,-0.03174264,-0.032256037,-0.023371497,0.04048498,0.04034738,0.007776187,-0.014834294,0.029758373,-0.01932566,-0.03195881,0.011915971,-0.028159462,-0.025110278,0.029613815,0.023923721,0.00995615,-0.0006594581,0.014842287,0.030332994,0.02428125,-0.05256278,0.009072187,0.018912924,0.046712458,0.10336385,-0.009309824,-0.029355733,0.00061680435,0.006219501,0.006653418,0.019815683,-0.0023706893,-0.039111245,-0.010056934,-0.022117395,0.0013711111,0.0077021495,0.013252545,0.0300749,0.042979237,-0.009040233,-0.01934861,-0.02126991,-0.010605161,-0.032699894,-0.018612169,0.04735828,-0.027130295,-0.011253794,-0.011175749,0.030666512,0.008456688,0.021112593,-0.016707737,-0.05664785,-0.014767654,0.04211096,0.030125031,0.010520428,0.04469829,0.00063278497,0.0047036097,-0.014590643,0.049915276,-0.028677523,-0.0138402525,-0.037041366,0.021976613,-0.020828607,0.012835474,-0.0016929468,-0.013524138,-0.012902723,-0.0018781434,0.0318369,-0.009898585,-0.036033228,0.038283765,0.01746665,-0.00455398,-0.014261059,0.002251625,0.020890502,-0.031960998,0.0121880835,-0.020079691,0.015030852,0.037522625,-0.032012552,0.039308734,0.0035442759,-0.01986807,-0.01622143,0.024193948,-0.013148082,0.0026521825,-0.025094753,0.014994691,-0.038536284,0.051897105,0.033225335,-0.0065075485,-0.0018897136,0.018859696,0.04975876,-0.017828533,0.012128956,-0.017757045,-0.0007610561,0.024492942,0.012614774,-0.005051561,0.017223226,0.023983387,0.051939156,-0.011614271,-0.0013020782,-0.052214038,-0.014606867,0.005586458,0.015442329,0.016374791,-0.04304819,0.013970673,0.05977763,-0.072363086,-0.029912954,-0.023372935,0.08542851,-0.061308183,-0.012693517,0.029764049,0.029762235,0.0024408526,-0.008237731,0.0016531767,0.061923742,0.054321814,-0.0010400453,0.029893657,0.04632652,-0.00927345,0.033413872,-0.018117422,0.008865483,-0.003773638,-0.011332103,-0.005219111,-0.04992084,0.008973797,0.012830146,0.07090406,-0.019921705,0.01549833,-0.042967476,-0.033465926,-0.0513909,-0.07338225,0.04082477,0.02822861,-0.026256217,0.0372453,0.0027467802,-0.01365464,-0.0431866,0.040028214,-0.0056751375,-0.02746871,-0.023683004,-0.027799673,0.04491094,0.034651406,0.0012747966,-0.033513833,0.020139415,-0.03207901,0.018576326,0.048886385,-0.037602227,-0.0007286534,-0.05827428,-0.017495131,-0.023594491,-0.005374694,0.009365091,-0.012403029,0.022494571,0.016756091,-0.020144446,0.04870964,-0.012757879,0.04327355,-0.045888543,0.022421598,0.0034299085,-0.0649301,-0.03550809,-0.023318674,-0.029637331,0.010119096,-0.01721488,-0.045937907,-0.014530273,-0.036716346,-0.0202014,-0.0700549,0.040937565,0.027781058,-0.038939144,-0.00087380887,-0.021504873,0.002071356,0.020422043,-0.01128815,-0.038361747,0.03482362,-0.009586677,-0.021535343,-0.073455155,-0.022615938,-0.046679635,-0.015544193,-0.04926115,-0.020900618,0.005395994,-0.023227178,-0.03070091,-0.031901207,-0.0155085595,0.004075744,-0.042037927,-0.029253269,0.037979558,-0.028285028,-0.023025034,-0.015905943,-0.010176245,0.019746535,0.039288174,-0.008024087,0.014224298,0.016188515,0.019101165,0.025890082,0.0007029576,-0.027986474,-0.02697235,0.04351912,0.021293936,-0.032229368,-0.0058364263,-0.0029865676,0.01640503,0.011826647,-0.0035549966,-0.021310415,-0.023596147,0.04593754,0.0007125479,-0.0064953174,0.009301994,-0.014218404,-0.04053802,-0.031882122,0.039241955,0.003780096,-0.032727987,0.008302989,0.043714777,-0.0055956715,-0.030420234,0.00025231502,0.0024198364,0.03036261,0.014933928,-0.018108794,0.037267152,0.061100405,-0.02623887,-0.021718767,0.00020302414,-0.020413129,0.008438253,-0.017690422,0.029973898,0.011465857,-0.03978253,0.04470696,-0.04085225,0.0015379762,-0.008138946,-0.067923725,0.024540108,0.016693912,0.01235696,0.02644557,0.033026114,-0.055960026,0.018627752,-0.048562672,-0.02128564,0.01534639,-0.03774585,0.005720188,-0.0063674334,-0.06439799,-0.032329783,-0.027017958,0.030176155,0.0072903773,0.079578474,-0.0096999975,0.017482478,-0.014593196,0.012176275,-0.039323878,0.040204104,0.025215177,-0.0061066793,-0.032334313,0.014912082,-0.0007787584,-0.008547873,-0.030376181,0.013771784,-0.044631086,0.028941829,0.014124912,-0.011192219,0.0247224,-0.021623187,-0.0041221646,0.021094458,0.01766792,0.03852883,0.02522487,-0.017100403,0.026870303,-0.035199128,-0.0069401264,0.022397216,0.0018661197,-0.045858026,0.010259497,-0.0075020776,0.014108113,0.030631848,-0.021558011,0.021796277,0.0053140614,-0.026538562,-0.00048752327,-0.0140037015,0.028104428,0.031666018,-0.025014894,0.026728084,0.0013181965,0.077515855,0.022472678,0.010302161,0.016553229,-0.02099802,0.0025695488,0.013440105,-0.011097602,-0.043280505,0.016392233,-0.0066426103,-0.013133599,0.019124232,-0.013314678,0.0064662895,-0.011608388,-0.026307054,0.059852853,0.023090927,0.009415446,0.019631583,-0.012739415,0.02904395,-0.0323343,-0.014541835,-0.02148765,-0.012103625,0.00343581,-0.06264094,0.028905787,0.015177946,-0.018173223,-0.020038808,-0.004007355,-0.022680614,0.03608232,-0.012893047,0.027528733,0.011091834,-0.0077815056,-0.030218368,0.0093307495,-0.031156262,0.035209734,-0.014408676,-0.0043792776,0.023254003,0.021291392,-0.057007827,-0.03776943,0.016515814,-0.0172429,-0.018620636,0.0171938,-0.005995472,0.0023859679,0.020996941,-0.012998952,0.0065580118,0.004511337,0.0127376225,0.010493604,-0.002021541,0.051251568,-0.03792387,0.02915143,0.027502209,0.013581718,-0.0059858127,0.029902771,-0.0128879985,0.010819385,0.02692392,-0.017248133,-0.04707913,0.076725096,-0.013160142,-0.021736622,-0.0037783138,-0.00932447,0.019049441,0.017457532,0.046503447,0.0065928516,0.004542031,0.017582433,-0.07500969,-0.019309223,0.017712602,0.04644329,-0.00648913,-0.025380602,0.013141013,0.015136293,0.012597693,-0.011491132,-0.02708489,0.031128448,0.011278332,0.024828805,-0.025267908,-0.0022418608,-0.016313002,0.06815628,0.016251286,0.011610675,-0.00586592,0.062094543,-0.006127481,-0.030446807,0.018843677,-0.0022294433,-0.006994687,-0.01940543,-0.031078693,0.043739084,0.04907808,-0.050313555,0.025665833,-0.010304044,0.010631919,0.022845428,-0.016287748,-0.010693098,-0.0018797572,-0.001589145,0.01108452,-0.0022134332,0.010748065,0.061017826,0.0049770945,0.03597918,0.02360795,0.042622644,-0.0103328535,0.008402603,-0.06547155,0.03227792,0.015664823,-0.0060026534,0.025026543,0.029159332,0.00441376,-0.039693862,0.036018558,-0.00090415584,0.029837266,-0.018042468,-0.024591286,0.01706838,0.012479617,-0.010193969,0.033026498,0.05867122,0.0051605674,0.00024780128,-0.0107695125,0.023377579,0.0095354,-0.020392165,0.022471573,0.014782253,-0.014012347,-0.0011431084,-0.017717,-0.0038944178,0.004886278,-0.008445212,-0.048715632,0.02444674,-0.020632153,-0.003944153,0.0075046197,-0.01588333,0.014410032,-0.015425204,-0.024603177,0.0011481652,-0.008552755,-0.039450094,0.021467822,0.030241126,0.023949398,-0.091048904,0.054168027,-0.035729636,0.027991304,0.02539299,-0.03384467,0.013924235,0.035250336,-0.017613735,-0.0106540285,6.096975e-05,0.021520017,-0.006812087,0.01221039,-9.8994664e-05,0.008008311,0.012792473,-0.01687044,0.02864956,0.041435394,-0.03599572,-0.032084018,-0.0008825742,-0.0469126,-0.011112277,-0.016604083,0.05853529,-0.05437855,-0.02535465,-0.022853658,-0.0463739,0.0046444284,-0.01602386,0.010902408,0.027428944,0.022595096,0.053654555,0.050541826,-0.009176001,0.016312933,0.044985324,-0.050631955,-0.006752795,0.03710804,0.021617537,-0.003089108,-0.023927985,-0.015074366,-0.02476201,0.0067638704,-0.028877895,-0.004121112,0.0031895929,0.016349772,-0.07389024,-0.013083147,0.005057444,-0.010141703,0.020981245,0.028843932,-0.023390973,0.00030123827,0.035312273,0.046202555,-0.022017363,0.06081585,0.02393067,0.03633016,-0.010566979,-0.0048660026,-0.013611332,-0.05079874,0.025531197,-0.03444231,-0.007457563,-0.022734573,-0.04751835,-0.026577648,-0.015443745,-0.006010796,0.0211381,-0.039847862,0.00081731076,-0.022008648,0.044665538,0.0056594172,0.01525382,-0.02898746,-0.009707254,0.0037994864,0.024478834,-0.024717694,-0.055614088,0.05948952,-0.022795355,0.044059135,0.020865947,-0.052495144,-0.053431742,0.024398545,-0.01560959,0.0025539317,0.008799287,-0.026262837,-0.021678345,0.033270996,-0.06420466,0.008695741,-0.020716975,0.007312596,0.0061638374,0.024175256,-0.054059558,-0.0063342596,0.007935555,-0.007856585,-0.037856746,-0.039611388,-0.018562926,0.007870563,-0.04284691
falso,0.018677402,-0.025912661,0.03518435,-0.052286748,-0.044360843,0.029711403,0.013699834,0.058833204,-0.018583871,0.03459847,-0.043712582,-0.057963666,0.060007792,-0.015392544,0.060627256,0.07377676,0.05579528,-0.015757745,0.009776965,0.027757375,-0.014933439,0.03758016,-0.034613542,0.0117748175,-0.00735933,0.007557601,0.04641917,0.019099714,-0.018125392,-0.042540934,-0.04367858,0.0039188876,0.13991922,-0.036107913,-0.030112866,-0.02335914,-0.030990023,-0.038173217,-0.03456052,-0.009413381,0.042374555,0.02206569,-0.01425089,-0.07771416,0.013770617,-0.020868633,0.057475507,-0.020905005,-0.010706545,0.04653113,-0.0048488653,-0.035162665,-0.0025556698,-0.0014796505,0.00040403396,0.059968803,0.002646965,0.048168574,-0.027191468,0.0054925364,0.013569425,-0.034965657,-0.021658216,-0.024531463,0.010164401,0.022187958,0.06072411,-0.04643369,-0.016259952,-0.04066978,0.020729695,0.025523776,0.052844457,-0.0009689174,-0.056931444,-0.021449527,-0.07010959,0.0077289287,0.045865547,0.022714961,0.1173618,0.0067248964,0.13597307,0.024640927,0.0070533906,0.047317147,0.047355488,0.021640908,0.009766309,-0.027985226,-0.0007796053,-0.041134734,0.016915051,-0.010366896,-0.031604607,0.02535332,0.07053334,-0.046882205,0.024819802,-0.0053705107,-0.024993489,-0.056377996,0.046684843,-0.031509418,-0.00566723,-0.03401068,0.04120713,0.049347308,-0.03154691,0.076656535,-0.0043235426,0.038167704,-0.006952046,-0.0066616484,0.028198892,-0.02091675,0.017091641,0.033532724,0.022899646,-0.09879961,0.015659278,-0.046593897,0.003635705,0.0008176309,-0.0131961955,-0.03456522,0.012792758,-0.01588388,0.0052576866,-0.022653323,0.022233816,-0.024956776,-0.012185191,0.010844595,0.015614992,-0.02387752,-0.019527704,0.051085006,0.027235564,0.013277408,-0.07354541,0.088839225,-0.014465235,0.045396693,-0.072104454,-0.010635843,0.01172865,0.00013668605,-0.0043258443,0.0024411909,-0.05041858,0.019205943,-0.03476352,-0.063279256,0.05504688,0.077755235,0.029357687,-0.011448528,0.023830615,-0.01730352,0.024247581,0.03239786,-0.03833751,0.10543819,-0.012999846,0.07374949,0.040905662,0.010020434,-0.012730159,-0.046003375,0.01979863,-0.0031460081,0.05631073,-0.060952965,-0.036634058,0.09570827,-0.0163555,0.0144669,-0.08485811,0.024582563,0.0129482,-0.018843189,0.030405184,-0.032266043,-0.04422937,-0.020448182,0.05904082,0.051258657,-0.04858979,-0.012050613,0.033481196,-0.021476962,0.03278797,-0.021186156,-0.021914864,-0.039638642,-0.033402793,-0.025963958,-0.04216239,-0.042300396,-0.06448058,0.01985756,-0.01356753,0.027042469,0.020712398,0.053013176,-0.02534883,-0.03579491,-0.0031710726,0.060848106,-0.03661848,-0.023516778,-0.060148492,0.017447416,-0.03366719,0.048495576,-0.10361971,0.0061681205,-0.008683582,-0.03459574,-0.010039045,-0.006944748,0.00086515275,0.08932222,0.02009049,0.007543985,-0.018816678,-0.057394095,-0.040521845,-0.024114925,0.012117494,0.012340495,0.023706075,0.03292517,0.00460344,0.009937475,-0.07863668,-0.05171229,-0.062249925,-0.000927901,0.02807271,-0.021043556,-0.014057807,-0.08240347,-0.056397703,0.018223519,-0.05928074,0.028796881,-0.012884942,-0.074666634,0.0520177,0.03334467,0.045323618,0.021471476,0.013809276,-0.03433582,-0.0028128,0.0033635525,-0.02485597,-0.024184927,-0.0053556818,-0.031839058,0.036775067,0.003224429,0.039158344,0.023696607,0.012345484,0.032795172,-0.0034136886,-0.01742142,0.031509165,-0.005812308,-0.01404682,-0.007144642,-0.015660787,-0.005604855,-0.015529959,-0.0003401889,-0.028452657,0.03919672,0.04447571,0.024467357,0.0051393765,-0.03561208,0.036041573,-0.027283907,0.01316118,0.011900895,-0.038995296,0.0089037055,-0.008815155,0.04117073,0.041384526,0.020578183,0.00269786,0.017226294,0.025887484,-0.0012940418,0.025173794,-0.0010445031,-0.016810585,-0.013404632,-0.013538321,0.02215976,0.019822855,-0.030991893,0.012956948,-0.025744833,-0.022363238,0.006689664,-0.041969903,0.031142674,0.030363074,0.016332766,0.0063939015,0.014249037,0.0013322525,0.0027465317,0.009339097,-0.020350788,0.0074430224,0.010498548,0.019496934,-0.025034308,0.048986092,-0.008408069,-0.04386165,-0.003808813,-0.016442256,-0.03268873,-0.0053719836,0.021209953,0.02050616,0.023527177,0.011893561,-0.01502954,0.06318298,0.00016831077,0.00859566,0.001976035,0.00751245,0.03285196,0.01910567,0.033154435,-0.031183455,0.00031605718,-0.049114555,-0.063296564,-0.0023899535,0.0018210061,-0.012206442,0.0041620214,0.011850064,0.02043192,0.00870361,0.044047665,0.0040533105,0.03454885,0.037716415,-0.0022411963,-0.012103482,-0.02460475,0.08027714,0.013933975,0.0055796723,0.004110755,0.013169932,0.011747749,0.008155991,-0.033219583,-0.02508625,-0.075727515,-0.016136127,0.012838455,-0.02787873,0.016648307,0.009573592,0.025660427,-0.0130914375,-0.03131325,0.02094629,-0.021831295,-0.027343893,-0.009891547,-0.0021627664,0.043563973,0.0343715,-0.025767488,0.043355685,-0.010379742,-0.009795966,-0.014970221,0.053786814,-0.005096688,-0.00053533894,0.009694098,0.027148694,0.008899842,-0.007505048,0.02356375,-0.024511272,-0.019767694,0.0023048643,-0.009409196,0.02048566,-0.032791685,-0.004517099,0.02668749,0.030618712,0.013824747,-0.018258767,0.020933593,0.0018632357,-0.016968498,-0.013678302,-0.002554988,0.007066585,-0.06412518,-0.0030991111,0.012833818,-0.021260714,0.033859298,-0.005529944,0.00045621814,0.018669637,0.019102866,0.0042890226,0.029126158,0.0010715553,0.114214875,-0.026300954,-0.0025135255,-0.030821603,-0.007421519,-0.04386591,0.018619448,0.017671552,-0.011879575,0.003468615,0.038804427,-0.020518536,-0.021644792,0.032860685,-0.013807603,0.023992965,0.05212551,0.018790146,0.018720184,0.008417817,-0.00015364127,0.03883535,0.021703456,0.0032926511,0.012452702,0.013886703,-0.009903947,0.0020458023,-0.0016079088,0.023161208,-0.03792933,-0.010641292,-0.043605834,0.01749707,-0.0051587634,0.004333666,0.004694742,0.009100623,-0.033661123,0.029997537,-0.017239597,-0.03265636,-0.027333375,0.022592444,0.023498727,-0.01609378,0.00292315,-0.004807104,-0.03142762,-0.008206698,-0.03047597,-0.02821972,-0.033141304,-0.0312908,0.04591004,0.0077027753,-0.016550299,0.0006801761,-0.0046537668,-0.0037969074,0.0058038677,0.002878175,0.04398836,0.052653775,0.0015124578,0.018660637,-0.051269557,0.03659608,-0.0071073496,0.05264019,-0.013986396,-0.0053761587,0.014649534,0.0081563685,0.00340946,0.0149876475,0.028612832,-0.015031794,0.025180686,0.022319565,-0.014170502,0.03162161,0.0077449023,-0.040115356,0.032409735,-0.017625576,-0.009723428,-0.035930026,0.003487279,0.013451556,0.01163084,-0.024674853,0.018454138,-0.01120714,0.0027321933,0.019901065,0.011212069,-0.007846382,-0.009679138,0.033927124,0.0007428408,0.0010530164,0.042557914,-0.0267083,-0.046574134,-0.027069742,0.03386555,-0.025061548,-0.00334706,-0.018594394,0.018091133,-0.048175912,-0.012793949,0.005245077,-0.025192313,0.0014162533,-0.038562376,0.026934981,0.028927706,-0.045161832,0.02780214,0.03683659,0.014801536,-0.013744673,0.011093035,0.01641183,-0.022454413,-0.008500776,-0.022741538,-0.016235834,-0.0069980533,0.013694982,-0.023473572,-0.017669616,0.010386061,-0.020973153,0.052753463,0.003821916,-0.027918804,-0.005140665,0.01807855,0.04427226,-0.007831785,0.020512773,-0.010616699,-0.01557221,-0.015870003,-0.04274965,-0.00041127307,-0.04025437,-0.0069972845,0.016278442,0.01682325,-0.017285919,0.045503464,0.03905842,0.00042570118,0.0052445983,-0.03296384,-0.018636385,-0.03838904,0.020377113,-0.02912726,0.045159593,-0.019393101,0.020647023,0.024401868,0.041872013,0.06014957,-0.009575796,-0.0143092135,0.040319666,-0.016056474,0.0005777088,-0.024558252,0.014909077,0.00063208735,-0.047384683,0.036797557,0.0020833598,-0.005644206,0.0095153665,-0.025886148,-0.02129799,0.012640268,0.007018963,0.057800267,-0.0028971601,-0.016842982,0.02092389,0.033143006,-0.031370234,0.06438834,-0.029748764,-0.0020156447,0.0020483385,0.01708142,0.03218821,0.041927587,0.040615566,-0.035368398,-0.027182452,0.06065417,-0.01869176,-0.031106707,0.0141455745,-0.005790458,-0.029227259,-0.04213522,-0.009424389,0.0031435778,-0.008926966,0.043238673,-0.027598726,-0.004987449,-0.010722564,-0.043517027,-0.0005765081,-0.010278079,-0.04210703,-0.013726127,-0.017694013,0.079325154,-0.029472178,0.0042351093,-0.022829156,-0.03365643,0.069611154,0.0010333892,-0.029420959,0.025025181,-0.0043119267,-0.024930356,-0.042693518,0.002850139,-0.014508939,-0.011901289,-0.019929122,0.009730033,-0.09339326,-0.0039265538,0.025535712,0.015276698,0.019099502,-0.02671895,-0.03503569,-0.012235178,0.054083407,-0.028434502,-0.031950567,0.014171096,-0.015024889,-0.0010781848,0.00032496537,-0.04289696,0.029541679,0.0023977724,-0.021510508,0.058257792,0.014920758,0.033349946,0.023587657,0.011934934,0.012482897,0.039085355,-0.0151812835,0.033398945,0.0141471885,-0.0026102061,-0.026449386,0.04250316,-0.015860522,0.0066948,-0.018967252,0.017566532,0.018677874,0.027796714,-0.030894319,-0.005218216,0.0063245427,-0.005117943,0.035328873,-0.0041918145,-0.05124041,-0.019887337,0.0062442077,-0.05411394,0.0025908342,-0.026600448,0.018550575,-0.010485311,-0.011229856,-0.03403883,-0.03788913,-0.06998396,0.006485611,0.004916874,-0.0057613947,-0.05134056,-0.004259243,0.0020412824,0.008381336,0.031889662,0.010097876,-0.013444188,-0.001660782,0.006222099,0.048949167,0.010253533,0.03750542,-0.0021041543,-0.045763265,-0.0095033785,0.008546793,0.051470716,0.004930226,0.042483207,0.022092171,0.054071635,-0.03776123,0.05020523,0.013261762,0.015394601,0.0007055169,-0.0034677892,-0.011360449,-0.030613326,-0.0020389091,-0.01622361,0.0024703217,-0.00968971,-0.0045746923,0.036819827,0.0099749835,0.053986814,0.037167005,-0.007452954,0.0026042694,-0.012736726,-0.0077574393,0.026009532,-0.05341265,0.00537742,0.029764663,-0.028213399,0.02057157,0.0120175565,-0.016293393,-0.044555712,-0.017165883,0.017154912,-0.013552686,0.007877462,-0.003257748,-0.0077317846,-0.006138015,-0.015134198,0.053419173,-0.010047693,-0.008959195,-0.013759033,-0.029630974,-0.040821586,-0.044104677,-0.014806411,-0.041523065,0.010957769,-0.00980845,-0.0046649836,-0.021734037,-0.013280729,-0.001072449,0.0074151875,-0.0302975,-0.04361935,-0.0051186243,0.050997782,-0.023800045,-0.007918584,-0.008865416,-0.0052337265,0.03337633,-0.024149612,0.0072347033,0.013966431,-0.03636723,0.07804223,0.029977364,-0.016761042,0.03312433,-0.020904638,0.0054460145,-0.0016567843,-0.037496608,-0.015343446,-0.021923056,0.016745178,0.02980453,-0.014911455,0.011797341,-0.035607535,-0.007066415,-0.057660274,-0.04600986,-0.028987804,-0.00088098133,0.020909736,-0.039547633,0.018356336,0.0014219654,-0.009564891,-0.011665915,-0.008272325,-0.022203377,0.022535792,-0.041378237,-0.0058318796,-0.042218845,0.055148654,-0.011652682,0.0016392523,0.0071402933,-0.024282672,0.0050388984,0.0067331763,0.01959592,-0.027588762,-0.03215759,-0.0060205,0.012413145,-0.0227384,-0.08049355,0.044400133,-0.0202562,-0.021661622,0.011848396,-0.029774044,-0.0043784035,0.024606448,0.03730807,0.0047167684,0.017389964,0.017323539,-0.03611251,0.04025627,0.031546976,0.03174555,-0.011696786,0.0040475833,0.023939902,0.0046963994,-0.017040117,0.044338156,-0.0071063573,-0.059994224,0.052711133,0.032162186,-0.020725613,-0.0014467222,0.010868399,0.025350122,-0.006320513,0.02897702,-0.01139491,0.025132125,-0.065237105,0.0054983674,-0.02806139,-0.0323477,-0.010064803,0.005442334,-0.018667666,0.03150653,0.03989382,0.016352363,0.017376412,-0.05860784,-0.02900094,-0.0093138935,0.028937317,-0.07952846,-0.005640788,-6.790148e-05,-0.01209942,0.033828724,0.014504584,0.0148503445,0.09649674,-0.00041171585,0.04524228,0.010561389,0.008455828,0.009267141,0.00833555,0.038137708,-0.013900414,0.102313615,0.0053098514,-0.010526869,-0.0045343316,-0.0066087362,-0.01803592,0.025376707,-0.008937177,-0.05734043,0.008015645,-0.021642368,-0.013174681,-0.050703485,0.0063251443,0.05296086,0.010697865,0.06490413,-0.042262726,0.044335827,0.024511047,-0.013645458,0.041701365,-0.022796324,0.014303107,0.024840578,0.040109478,0.0037123293,-0.0024504466,0.011248752,-0.027325748,-0.041129712,-0.012059939,-0.0075910087,0.0066365264,0.008684416,0.021954052,0.018848035,-0.012107225,-0.049435943,-0.037594903,-0.006879014,-0.0012360687,-0.03252825,0.0020589246,0.020702992,-0.016428543,0.020913884,-0.0007842666,-0.047388155,-0.022094041,0.031416163,-0.010784445,0.0043517845,-0.015172142,-0.001289333,0.01842043,-0.01634924,-0.03230076,0.015360144,0.0005345977,-0.037537742,-0.043860212,-0.021724636,0.005454497,0.005892149,-0.040872205,-0.015774857,0.019191103,-0.014015408,0.0063623055,-0.016785158,0.008243995,-0.023086557,-0.010253672,-0.0006850756,-0.06054693,0.032410193,-0.025692306,-0.0051506185,-0.058504295,-0.0038493215,-0.010271189,0.068675324,0.044622105,-0.011237227,0.0059412993,-0.017203381,-0.0024144016,-0.0036306188,0.00031016523,-0.029234597,0.03323686,0.021763284,-0.0049607777,-0.014016249,0.019815205,0.014101777,-0.035064653,-0.045212522
