Rótulo,1,2,3,4,5,6,7,8,9,10,11,12,13,14,15,16,17,18,19,20,21,22,23,24,25,26,27,28,29,30,31,32,33,34,35,36,37,38,39,40,41,42,43,44,45,46,47,48,49,50,51,52,53,54,55,56,57,58,59,60,61,62,63,64,65,66,67,68,69,70,71,72,73,74,75,76,77,78,79,80,81,82,83,84,85,86,87,88,89,90,91,92,93,94,95,96,97,98,99,100,101,102,103,104,105,106,107,108,109,110,111,112,113,114,115,116,117,118,119,120,121,122,123,124,125,126,127,128,129,130,131,132,133,134,135,136,137,138,139,140,141,142,143,144,145,146,147,148,149,150,151,152,153,154,155,156,157,158,159,160,161,162,163,164,165,166,167,168,169,170,171,172,173,174,175,176,177,178,179,180,181,182,183,184,185,186,187,188,189,190,191,192,193,194,195,196,197,198,199,200,201,202,203,204,205,206,207,208,209,210,211,212,213,214,215,216,217,218,219,220,221,222,223,224,225,226,227,228,229,230,231,232,233,234,235,236,237,238,239,240,241,242,243,244,245,246,247,248,249,250,251,252,253,254,255,256,257,258,259,260,261,262,263,264,265,266,267,268,269,270,271,272,273,274,275,276,277,278,279,280,281,282,283,284,285,286,287,288,289,290,291,292,293,294,295,296,297,298,299,300,301,302,303,304,305,306,307,308,309,310,311,312,313,314,315,316,317,318,319,320,321,322,323,324,325,326,327,328,329,330,331,332,333,334,335,336,337,338,339,340,341,342,343,344,345,346,347,348,349,350,351,352,353,354,355,356,357,358,359,360,361,362,363,364,365,366,367,368,369,370,371,372,373,374,375,376,377,378,379,380,381,382,383,384,385,386,387,388,389,390,391,392,393,394,395,396,397,398,399,400,401,402,403,404,405,406,407,408,409,410,411,412,413,414,415,416,417,418,419,420,421,422,423,424,425,426,427,428,429,430,431,432,433,434,435,436,437,438,439,440,441,442,443,444,445,446,447,448,449,450,451,452,453,454,455,456,457,458,459,460,461,462,463,464,465,466,467,468,469,470,471,472,473,474,475,476,477,478,479,480,481,482,483,484,485,486,487,488,489,490,491,492,493,494,495,496,497,498,499,500,501,502,503,504,505,506,507,508,509,510,511,512,513,514,515,516,517,518,519,520,521,522,523,524,525,526,527,528,529,530,531,532,533,534,535,536,537,538,539,540,541,542,543,544,545,546,547,548,549,550,551,552,553,554,555,556,557,558,559,560,561,562,563,564,565,566,567,568,569,570,571,572,573,574,575,576,577,578,579,580,581,582,583,584,585,586,587,588,589,590,591,592,593,594,595,596,597,598,599,600,601,602,603,604,605,606,607,608,609,610,611,612,613,614,615,616,617,618,619,620,621,622,623,624,625,626,627,628,629,630,631,632,633,634,635,636,637,638,639,640,641,642,643,644,645,646,647,648,649,650,651,652,653,654,655,656,657,658,659,660,661,662,663,664,665,666,667,668,669,670,671,672,673,674,675,676,677,678,679,680,681,682,683,684,685,686,687,688,689,690,691,692,693,694,695,696,697,698,699,700,701,702,703,704,705,706,707,708,709,710,711,712,713,714,715,716,717,718,719,720,721,722,723,724,725,726,727,728,729,730,731,732,733,734,735,736,737,738,739,740,741,742,743,744,745,746,747,748,749,750,751,752,753,754,755,756,757,758,759,760,761,762,763,764,765,766,767,768,769,770,771,772,773,774,775,776,777,778,779,780,781,782,783,784,785,786,787,788,789,790,791,792,793,794,795,796,797,798,799,800,801,802,803,804,805,806,807,808,809,810,811,812,813,814,815,816,817,818,819,820,821,822,823,824,825,826,827,828,829,830,831,832,833,834,835,836,837,838,839,840,841,842,843,844,845,846,847,848,849,850,851,852,853,854,855,856,857,858,859,860,861,862,863,864,865,866,867,868,869,870,871,872,873,874,875,876,877,878,879,880,881,882,883,884,885,886,887,888,889,890,891,892,893,894,895,896,897,898,899,900,901,902,903,904,905,906,907,908,909,910,911,912,913,914,915,916,917,918,919,920,921,922,923,924,925,926,927,928,929,930,931,932,933,934,935,936,937,938,939,940,941,942,943,944,945,946,947,948,949,950,951,952,953,954,955,956,957,958,959,960,961,962,963,964,965,966,967,968,969,970,971,972,973,974,975,976,977,978,979,980,981,982,983,984,985,986,987,988,989,990,991,992,993,994,995,996,997,998,999,1000,1001,1002,1003,1004,1005,1006,1007,1008,1009,1010,1011,1012,1013,1014,1015,1016,1017,1018,1019,1020,1021,1022,1023,1024
falso,0.009244616,-0.0075386427,-0.016697444,0.04176255,-0.0014093603,0.003881624,0.0045559374,0.012186755,0.006939765,0.014615182,0.014100872,0.004928382,-0.0057398668,0.04990493,-0.00789333,0.03271073,-0.01646648,-0.013659704,0.032495104,0.030238414,-0.0038950674,-0.009038352,-0.020798901,-0.05338514,0.0013796772,0.015333774,0.00420606,0.0016350308,0.03133589,0.014759384,0.017436732,-0.009975667,-0.028571641,-0.04513931,0.011410455,0.020466048,0.002130736,-0.015988057,-0.0020741946,-0.035029642,0.013266396,0.02093577,0.0075701107,-0.056087513,-0.032535195,-0.037534893,0.01508397,-0.031580273,-0.017440863,-0.013931111,-0.009014648,0.014705615,0.01792108,-0.031780735,-0.0006681744,0.040656146,-0.06986339,-0.04453218,-0.02541871,0.046520755,0.05522683,0.0049046064,0.0032527645,-0.007324898,0.0021314835,-0.010305105,0.012360288,0.039695803,0.017908523,-0.04191306,0.0021871123,0.006396417,0.0013443675,-0.004492434,-0.03162102,0.015583499,0.0388263,-0.009314479,-0.021445842,-0.002198906,0.014300488,-0.04646929,0.01721303,-0.036402013,-0.015391786,0.023700552,0.008853366,0.01023864,-0.015656263,-0.013189701,-0.011080361,0.025604026,-0.059906416,-0.01974093,0.021454377,0.009833902,0.0124252355,0.026815971,-0.002302806,-0.013458432,-0.031396165,0.06521461,0.02700755,0.038910653,-0.0051876395,0.008199105,0.029740587,0.004405113,0.04032613,-0.055634707,-0.0044394187,-0.017463299,0.030704256,-0.00995336,-0.023350587,0.074643545,-0.04718449,-0.041652627,0.007641326,-0.05740851,-0.019788215,0.019542009,0.0025395663,-0.024502853,-0.03819355,-0.02074611,0.025572049,0.069475606,-0.03911859,-0.0037827685,-0.004258805,-0.036493693,0.021508543,0.0014754976,0.014482361,0.04574531,-0.0040860535,0.0277522,0.03968382,0.027930588,0.042091142,0.067137726,0.023787593,0.038202967,-0.01567598,0.048294753,0.013849477,0.051661536,0.009661351,0.009266103,-0.022635212,-0.0024439069,0.008937523,0.032956183,0.03441085,-0.021114916,-0.0046199583,-0.008388472,-0.03519413,0.005740079,-0.028151564,-0.0025462115,-0.051457033,-0.004091402,0.022808356,0.04576208,0.034065563,0.025336446,-0.014326999,-0.040654905,0.062155128,-0.051151164,-0.014210227,-0.008196226,0.039161075,0.0021601047,0.019539753,-0.005555209,-0.0022130029,0.009192015,-0.00411322,-0.0037884808,0.05724714,0.06538072,0.0448873,0.026596667,0.022750676,-0.04461841,0.01604024,-0.057599667,-0.012347083,0.03242637,0.010726064,0.022506215,0.019744093,-0.00049231393,-0.02823592,-0.006205012,0.011155641,-0.04838285,-0.016392889,0.025825178,0.0030208295,0.03179906,0.0135471225,-0.02026393,0.008012309,0.033300865,-0.01514021,0.03758313,-0.0012216849,-0.0011600169,0.014524231,-0.038643003,0.015691474,-0.009967603,-0.013128958,0.03791086,0.012778054,-0.0072367582,-0.02631795,0.021564068,0.010495649,0.033407375,0.015338714,0.026638675,-0.025553448,0.0788128,0.030976094,0.05451875,0.005999066,0.020097096,-0.011414938,-0.0022711535,0.022203011,-0.027669344,0.029480075,0.01772632,0.012597988,0.019903673,-0.0093891565,-0.02423919,0.032103702,0.0289713,0.016905349,0.051601686,0.057914983,-0.047317795,0.04875342,0.012556606,-0.008703942,0.025107974,0.002434924,-0.0026068804,-0.022640355,-0.01545398,0.06470317,0.004869814,-0.01372349,0.037649926,-0.02122951,0.055321395,0.011558927,0.025615616,-0.007007716,0.03659656,0.055997975,0.023350729,0.0025919196,-0.031001821,-0.056752943,-0.049257245,-0.063806124,0.004124785,-0.004150584,0.024856389,0.019742414,-0.028135983,0.0054825232,-0.02580461,-0.010620776,0.018660652,0.00045454773,0.03250035,-0.024482055,0.029824642,-0.038231738,-0.0074247783,0.015596857,0.009808691,0.0141578885,-0.012989032,0.013325487,-0.023414914,-0.0041916384,0.0079056,-0.0697736,0.011125905,-0.00838614,-0.024827387,-0.008644591,0.013894133,-0.017508013,-0.021725655,-0.030982897,0.023188703,-0.013068222,-0.020082965,0.024138754,0.010661372,-0.0055775046,0.041323133,0.04107258,0.016162772,-0.026431587,0.0219971,0.0010240359,-0.010191822,-0.032289393,-0.029101815,-0.021811768,-0.024206987,0.033579737,0.011776401,0.00638986,-0.038511038,0.023960121,-0.051579233,0.032412823,-0.048171118,-0.042361233,-0.04521871,-0.006949656,-0.03422806,0.00681257,0.014277046,-0.067335494,0.0036050056,-0.014639694,-0.047513794,0.063365854,0.0035160745,0.03801309,0.05134533,-0.027522286,0.019579012,0.007525859,0.014510085,-0.032478526,0.007572886,-0.032923725,0.016866805,0.015323868,-0.003307295,-0.018980812,0.0053544133,0.03182945,0.049985103,0.03539658,0.029521424,0.05846662,0.01865526,0.046975993,0.014969523,-0.04510709,-0.015743304,-0.048889127,0.050623115,0.032546677,-0.035001844,-0.002918807,-0.0049226354,-0.025192209,-0.020037906,-0.057768144,-0.024988787,0.042275578,-0.040884856,-0.003773007,-0.052971654,0.0111634275,-0.038639516,0.019891588,0.016580781,0.02313487,0.027685924,0.0055994443,0.052969202,-0.03037257,-0.030096246,0.012635076,-0.047632825,-0.0511044,0.008800989,-0.07185765,-0.04636522,0.010213141,0.039425105,0.030592537,0.0045743757,-0.005650776,0.0055291005,0.03275492,0.013182525,-0.0068888916,0.006733397,-0.014634883,0.05151522,-0.0013481858,0.027778331,0.022829352,-0.0077193915,-0.007842441,-0.0017728029,0.021233164,-0.047326025,-0.009949804,0.026454233,-0.028532567,0.02001971,0.014854964,-0.017946634,0.016177146,0.038046353,0.0036684982,0.0067252545,-0.00942457,0.023305977,0.034724828,0.07316529,-0.04807366,-0.008521011,-0.021002043,-0.036575746,-0.06616276,-0.021900624,0.05057992,-0.031606976,-0.007678545,-0.044970397,0.07523261,0.018492708,-0.023925696,-0.035108052,-0.015188597,-0.011961774,0.011102113,0.0026505715,-0.011798213,-0.021746542,0.027419442,-0.07084053,0.044529602,-0.018991837,-0.057901975,-0.0262472,0.0009728582,0.0019837343,0.037821773,-0.033416152,-0.04699877,-0.043338615,0.021638548,-0.016459128,0.0058462513,0.03111993,0.00951408,-0.010049376,0.03748415,-0.006908395,-0.0075740633,0.00968885,0.031196028,-0.067304075,0.0018865275,-0.026352271,-0.009751042,-0.042126376,-0.053479362,-0.0042971345,-0.009464495,0.063590586,0.0015896054,-0.0490035,-0.023685697,-0.04591181,-0.009111725,-0.015126222,-0.035713997,0.0057894294,0.0045709247,0.006851031,0.03522922,-0.05524374,-0.060158014,-0.008040313,0.006564997,0.014540803,0.016307028,0.034019124,0.025804996,0.015067771,-0.03453394,-0.031639677,-0.04201282,-0.01669793,-0.029872017,-0.006102827,-0.0073999404,0.00025227375,-0.014608528,-0.032285046,0.034647502,0.01742122,0.000561934,0.01312288,0.009258044,-0.013977013,-0.04480072,0.058284163,0.032220177,-0.038760252,-0.075372614,0.064900726,0.018176654,0.027663928,0.009863075,0.03901658,0.028860928,-0.10056929,-0.068252176,-0.02477289,0.010518333,-0.055548344,-0.045271616,0.008106059,0.019421916,0.021476863,0.007729214,0.0068172826,-0.08100169,9.090775e-06,-0.028238852,-0.034116365,-0.04870659,-0.032260027,-0.034173265,0.04339373,0.038172677,0.04622899,0.012414048,0.0021643161,-0.033649873,-0.0022290556,0.010994264,-0.01829405,0.032782547,0.0016530944,0.010668426,0.014669056,-0.021370191,0.023305051,0.011069168,0.004000473,0.02270745,-0.036644246,-0.038769722,-0.013224498,0.0207437,-0.03689832,-0.0064982963,-0.01301006,0.06202066,0.035030276,0.025592228,-0.07093348,-0.004800337,-0.04543326,-0.079676755,-0.005351974,-0.048751526,0.0017717337,-0.017378211,-0.0210722,0.024885274,0.023471281,0.068031,0.09228238,0.014680767,0.0051156636,-0.032516398,0.010434028,0.010607409,0.017617583,-0.061796427,-0.012337864,0.0048452863,0.03403446,-0.061814692,-0.07801261,-0.040404137,0.022831472,0.02702448,-0.0039686672,0.034464154,0.0074488334,-0.023355043,-0.06451947,0.053474396,-0.005012991,0.011101252,0.06617282,0.053660613,-0.01358217,0.067680515,0.00029992638,0.0014714797,-0.0051263077,0.087087296,0.0065029096,-0.034727417,0.00964621,0.01934994,-0.017462894,-0.019782519,-0.02426088,-0.031817675,-0.031925783,-0.009738553,0.018468762,0.0110643115,-0.06595853,0.025201786,0.025887292,-0.0038590578,-0.020872736,0.023660855,0.005388848,0.0016106033,-0.011980967,0.040210318,-0.042577405,0.01999569,-0.077757195,-0.0211632,-0.037870765,-0.019759942,0.059880763,-0.0040042433,0.031344242,0.03729286,-0.016493026,0.024504483,-0.043530844,-0.04963626,0.023256749,-0.004472026,-0.024195079,-0.007842408,-0.009804491,0.005328913,0.041684758,-0.019301722,-0.0074873194,0.028627278,0.046893623,0.025697457,-0.03796811,-0.032763924,-0.014331441,-0.018837733,-0.062456742,0.02206065,-0.011281847,0.09597374,0.0147481365,-0.041691367,-0.01542109,0.047200352,0.030879984,0.0077443495,-0.0100106085,-0.0324469,-0.017284004,-0.051091153,-0.033938605,0.0045773447,0.0027722134,0.00055227906,0.016472869,0.032223474,-0.0027757827,0.016257705,-0.0009786026,-0.016884169,0.023570454,0.013545295,-0.029126529,0.010021438,0.03613347,-0.018797863,0.016273418,0.030005096,-0.011184462,-0.016264042,-0.028408676,-0.066041745,0.0110507,0.037772004,-0.04279968,-0.015490482,-0.06119417,-0.0096718175,-0.017981337,-0.0018196657,-0.035210013,0.058671106,-0.033046816,0.021361582,-0.060426686,-0.010069307,-0.013850566,0.002029641,0.0042015645,-0.00752099,0.027725302,-0.042277247,0.0012655334,-0.0882479,0.029431876,0.0002727712,0.009363521,0.0596545,-0.026986174,0.019675707,0.0025798483,-0.016209206,-0.044739183,0.007424823,0.03347158,-0.004506305,0.0074952813,0.05461861,0.029216843,0.016066678,-0.013537233,0.0011980537,-0.011383826,-0.03546858,0.028292682,-0.01431829,-0.026086593,0.03429461,-0.008989458,-0.0034447787,-0.0048731514,-0.007280084,0.0075872387,0.06392455,0.0023376644,0.004797803,-0.032187104,-0.0522158,-0.017306691,0.04191971,-0.035009127,-0.07261765,0.036655284,0.036861483,-0.011299801,-0.016606908,0.005638883,-0.0218127,-0.024772665,0.037947755,0.017869849,0.050741106,-0.02818251,-0.013568801,0.022943951,0.039267834,-0.040000673,0.007996679,-0.020990303,-0.01939027,-0.05776346,-0.024683714,0.027305517,-0.02136804,0.022387257,0.023088738,0.024193153,0.011096076,-0.007869415,0.0009796539,0.034583814,0.030589977,-0.002563192,-0.032070942,-0.0082261795,-0.011537848,-0.0050399746,0.0005120344,0.05087011,0.048005544,0.032710552,0.0007785079,-0.037754755,0.0007684822,-0.004266349,-0.032228775,-0.026464984,-0.036721673,-0.00082045427,-0.00398951,0.0053748256,0.048751663,-0.020327583,-0.010894357,0.0070415083,-0.050352726,-0.011179944,0.027952824,-0.014704415,-0.02800165,0.013659348,0.018825002,0.006867569,0.025604162,-0.004700503,0.022217039,-0.02141321,0.02759313,-0.0037694222,0.026911944,-0.029936567,-0.031224852,-0.02745696,-0.0114646675,0.008071289,0.012697715,0.018136956,-0.021009738,0.030032499,-0.008572694,0.016370375,-0.036666453,0.015400287,0.0037132888,-0.02241235,-0.007311887,0.030778617,-0.0029030098,0.020236924,0.02358167,0.06983425,0.0033710648,0.007142827,0.0060292925,-0.042455487,-0.05147438,0.018756457,-0.029304747,0.0033456213,-0.02109422,-0.035550985,0.014048111,0.025981117,-0.004056796,0.03791323,0.03514553,-0.026937198,-0.025619563,0.005015802,0.027032478,-0.014305438,0.02166593,0.048825815,-0.0058959215,0.0033436161,0.016613083,-0.010355458,-0.03226714,0.022310248,-0.09953997,0.04424803,0.009883049,-0.058530185,-0.04412991,-0.011095744,0.023200367,-0.011233612,-0.00032834098,-0.04173329,0.04975067,0.027932165,-0.0129423,-0.007667212,-0.025424067,-0.043399837,0.019982964,0.059490558,-0.024997173,0.0023971112,0.013834817,0.027702937,0.0072016255,-0.0009625376,0.020207858,0.0067478213,-0.016675388,-0.029233268,0.0056907968,-0.04042769,-0.031312447,0.00030036256,0.031486064,-0.005877364,-0.011750199,-0.026819408,0.012283246,-0.02978809,-0.0021265508,-0.01182733,0.03669902,-0.04923209,-0.021921681,-0.031637784,-0.045678947,0.176906,0.027290195,0.012913635,-0.019600878,-0.01623613,-0.005200671,0.013646457,-0.006718161,0.053011756,0.011278574,0.05309292,0.03714922,0.026207158,0.021341924,0.008858343,0.028119734,-0.042031985,0.0005425196,0.06569341,-0.044092253,-0.061530128,0.027966524,0.022803936,0.032355268,0.010315917,0.062483426,0.017709658,0.007183028,-0.007155152,-0.0012585527,0.0033811969,-0.02368575,-0.009818473,-0.032136817,-0.012933401,-0.019139577,-0.03580626,-0.015024749,0.023098825,0.03248149,0.008337639,0.06337427,0.034147292,-0.02824225,0.02139001,0.0025994328,-0.006660441,0.032706033,0.0469215,-0.053147,0.019152008,-0.040974688,0.006012165,-0.0216304,-0.038407113,0.007451202,-0.013049791,-0.033225145,0.003594182,0.046787664,-0.01906585,-0.0017899424,0.0061244327,0.0016958539,-0.0037610594,-0.0012832124,0.012943396,0.035569515,0.009131311,-0.012255869,-0.005474294,-0.025499903,-0.032610554,-0.02193902,-0.029961752,0.06262034,-0.041958857,-0.002729864,-0.041435897,-0.026504057,0.019528924,-0.030208277,-0.026437331,-0.083175614,0.030783761,0.03926148,-0.013572943,-0.012645367,0.0025188376,0.06218152,0.0024764952,0.024453651,0.016584493,0.01050703,-0.009840121
real,-0.0017920242,0.008336855,0.0023159843,0.017016571,0.010090108,0.029012673,-0.03327242,0.003178368,0.013263736,0.023043424,0.02759036,-0.015151174,0.0007342158,0.040507734,-0.02447435,0.045226876,0.011592411,-0.012860467,0.011028109,0.04318313,-0.022008428,-0.026473317,-0.03241885,-0.03328591,-0.033442885,0.008633321,-0.032863386,-0.034840565,0.04225208,-0.010930486,-0.018583827,-0.035851087,0.039706416,-0.039857417,0.022583703,0.03903931,0.0073231775,-0.03123457,-0.019210843,-0.04097788,0.032891914,0.009473243,0.017647602,-0.04500428,-0.02454325,-0.0077652936,0.017970419,-0.019413045,-0.04308666,-0.016179023,-0.028658865,0.037462138,-0.02617179,-0.006803309,-0.010729219,-0.008176779,-0.017753813,-0.040183228,-0.005992629,0.04146541,0.03396251,-0.024928622,0.021346355,-0.0062300013,0.02588693,0.020215701,-0.0061534517,0.018253021,0.027587963,-0.020233216,0.023754656,0.051357374,0.028789602,-0.005643144,-0.030652361,0.037866812,0.008016368,-0.052439474,0.027182426,0.018408235,-0.01287294,-0.015279491,0.007578609,-0.021114942,-0.027965562,0.0011981141,-0.022184461,0.027466202,-0.030202068,0.020765102,-0.014395845,0.012407091,-0.052524276,0.030066656,0.05132309,0.04046757,-0.041757066,0.042253822,-0.004743346,0.012392981,0.0026081007,0.086731024,0.006684831,0.03219456,-0.0031157266,-0.0018297102,-0.0070139435,0.0022397898,0.04189719,-0.033890586,0.017105483,-0.026889138,0.055782825,-0.02015608,0.018268906,0.06212316,-0.061364643,-0.05088153,0.0131615745,-0.07898526,0.0035641731,0.035744783,-0.012096847,0.017319635,-0.024125632,-0.02359749,0.017809687,0.070921995,-0.035764433,-0.0037358871,-0.008097719,-0.012089456,0.023235947,-0.0007638781,0.07662496,0.05801721,0.013336222,0.008735248,0.07079269,0.028103957,0.0588395,0.03428728,0.0013279378,0.054405857,0.009629246,0.051210277,0.007775798,0.0035980786,-0.011942072,0.04112593,-0.067743294,-0.0025856353,0.039081886,0.045506172,0.037828382,-0.0066351537,-0.039834414,0.021680953,-0.011067888,0.022772916,-0.041547086,0.00018045232,-0.043031417,-0.013200018,-0.00016925798,0.023738692,0.014996395,-0.0024279011,-0.012416086,-0.063928515,0.06732731,-0.020475497,-0.040466104,-0.047481705,0.018574538,-0.009202051,0.009714361,-0.036141053,0.00420487,-0.00860166,-0.011171581,-0.0115250945,0.032998446,0.053312823,0.019984808,0.005666812,0.018248137,-0.011361339,0.010001092,-0.04801005,0.0073672365,0.026864002,0.0016891161,0.027693253,0.010506494,-0.0019776328,0.0042869006,0.028883977,0.0077462764,-0.0032897375,-0.046315785,0.025451556,0.012912433,0.049771704,0.009256183,-0.04795696,0.013095218,0.005737375,-0.00822688,0.026701959,0.035306603,-0.037120305,-0.004266628,-0.0406355,0.0017749055,-0.008493627,0.004456656,0.036321398,0.02146947,-0.021232659,-0.022518642,0.014148186,-0.009042066,0.009063562,0.015525688,0.019579306,0.0012771524,0.04683608,0.017231977,0.028941631,0.037064042,-0.003248325,0.043335177,0.024133034,0.009594763,-0.015234592,0.048415836,0.02456781,0.002578818,-0.011345157,-0.027088575,0.009928739,0.034208365,0.037010588,0.03614518,0.016144598,0.043420196,-0.05527603,0.04473984,0.034998145,0.008928452,0.01130233,-0.02411482,-0.008582353,-0.036497183,-0.0112543125,0.028382426,-0.013570454,-0.00084277906,0.021475455,0.036679167,-0.0032602944,0.008872373,0.008401515,0.03354174,0.03499807,0.049843863,0.07155242,-0.0011361751,-0.06043731,-0.03231971,-0.01453201,-0.024592394,0.018423717,-0.045250773,0.01279619,0.025653522,-0.046071548,0.042607028,-0.028375866,-0.010939957,0.00030385796,-0.008988135,-0.0026955525,-0.026470944,0.0119934855,-0.013786409,-0.02366282,-0.0025278933,-0.009789744,0.002050509,-0.01408189,0.015875382,-0.0009783928,0.024587478,0.027861783,0.0075555416,0.012455328,0.013813844,-0.013791628,-0.020956635,0.0093784565,-0.0074048527,-0.031391673,-0.015839681,0.02599242,-0.045624375,6.955057e-05,0.003370204,0.009756055,-0.0058531812,0.027064063,0.0417806,0.017280672,-0.04170779,0.03743036,0.00073553645,0.0092728995,-0.06600642,-0.051603265,-0.009090949,-0.047261957,-0.012021366,-0.0074075684,0.00282637,-0.008205114,0.04705717,-0.03732342,0.03223036,-0.04804022,-0.042995658,-0.018038947,-0.01462632,-0.02987848,-0.028805235,0.008976578,-0.052733187,0.025749357,-0.0064713564,-0.06140456,0.049714234,-0.02827413,0.004480002,0.041206058,-0.06439887,0.0063818,0.03147823,0.0140911685,-0.013575647,0.015417042,-0.061718956,0.019194832,0.013340034,0.041608844,-0.023230823,0.03444406,0.000115600575,-0.011690688,-0.009686889,0.02957175,0.05708353,0.014698892,-0.016601501,-0.00150333,-0.0063029123,-0.019184148,-0.05675631,0.03675272,0.018440487,-0.025628785,0.010717952,0.007981038,-0.025152419,0.017769646,-0.048637144,-0.035764903,0.050611097,-0.016492868,0.03241175,-0.021850346,0.025537869,-0.033213053,0.04586072,0.016598828,0.042779796,0.018103998,0.002911742,0.04923465,-0.0211376,-0.061807185,-0.013592398,-0.013683792,-0.013667678,-0.018774828,-0.032955907,-0.04279433,0.042619042,0.033041786,0.03466988,0.026807113,0.037349243,-0.00016858903,0.01784909,0.027871149,0.00316041,2.4489398e-05,0.010013085,0.05701784,-0.024907732,0.03358814,0.020542314,-0.060955178,-0.034230355,-0.008290311,0.0044128043,-0.03805316,-0.04700151,0.020189457,-0.0029490509,0.030856982,0.015909102,0.025105266,0.0066877785,0.054143824,0.06356279,-0.02456768,0.0059057497,-0.014227438,0.017469844,0.060248617,0.021502726,-0.006441528,0.0063861567,-0.004238458,-0.039208997,0.057223987,0.034246173,-0.038430866,-0.012691507,-0.058352455,0.0486395,0.039274037,0.0028475346,-0.05281331,0.008431624,-0.0054127015,0.017107788,-0.018242057,-0.010391681,0.0016228218,0.02837209,-0.047872357,-0.0017435703,-0.06783546,-0.043293804,-0.021024073,-0.015150631,-0.008699922,0.034891702,-0.022315426,-0.0137874205,-0.051129352,-0.0016346386,-0.0054481407,0.0052649416,0.04705124,0.02161126,0.010082832,0.03704544,0.035613593,-0.0467476,0.052586548,0.029142817,-0.010088871,-0.016243208,-0.027080614,-0.014673191,-0.03568241,-0.014549994,0.015634261,0.0034803979,0.041406058,0.009896208,-0.043034717,-0.009037509,-0.013226337,-0.019375212,-0.0047092135,-0.041375846,0.0012091406,0.00928183,0.0009173414,0.05184379,-0.02804176,-0.013845566,-0.018307889,-0.023863614,-7.246482e-05,0.031332493,0.0348665,0.036067557,0.03164532,-0.044471163,0.004773456,-0.022866113,-0.03353116,-0.035955667,-0.0062511475,-0.025600964,0.015525907,-0.010774149,-0.028197208,0.06086471,0.014545586,-0.0025015085,0.013930121,0.021715917,-0.023966655,-0.028460857,0.020835591,0.03525166,-0.037655957,-0.043776903,0.055943877,-0.0019972913,0.0037620259,-0.018802432,0.03985923,0.0028743974,-0.10272623,-0.055305194,-0.054821953,0.023321785,-0.03778595,-0.0064356504,0.038751125,0.004345764,0.0367763,-0.018194282,0.022044366,-0.075578116,0.030048477,-0.011173446,-0.044554077,0.005418466,-0.034475386,-0.023667978,0.041819014,0.033204984,-0.02348785,0.021345284,0.02026813,-0.011484298,-0.020322274,0.008626316,-0.0058414023,0.028979627,0.014414384,0.013988026,0.0036319958,-0.024929984,0.024767369,0.028237635,0.014999594,0.029156331,-0.031343464,-0.06773398,-0.03441138,0.049800187,-0.02559974,-0.031506024,0.016457355,0.016414192,0.020434855,-0.001941493,-0.015574779,-0.012557688,-0.022480968,-0.07700952,0.0199313,-0.018948598,-0.05243664,0.019111257,0.0079624625,0.012997227,-0.011269141,0.029262258,0.07943265,-0.00101019,0.00015474038,-0.06023335,0.051353525,0.010472711,0.044399414,-0.06258181,0.008872447,-0.0030732986,0.01286791,-0.04115778,-0.08254929,-0.04696148,0.016353903,0.023486234,-0.010675827,0.05312532,-0.0062842905,-0.027117318,-0.031721912,0.03509022,0.0204699,-0.03579794,0.05786352,0.014827197,0.0037222577,0.04724886,0.012619649,-0.020865338,-0.04507455,0.07375471,0.017521352,-0.010392901,0.0037836528,0.0414798,-0.04739472,-0.0147002265,-0.052792374,0.023115002,-0.06724157,0.003425007,0.027508134,0.030752787,-0.08093207,-0.0030600573,-0.0008251804,0.0070185573,0.011976394,0.0068135834,0.043108728,0.01858583,-0.039141275,0.01591147,-0.02887532,0.021222027,-0.03833536,-0.02178739,-0.031572264,-0.005186563,0.02415849,-0.02004266,0.02384369,0.014795115,-0.006763869,-0.0011967059,-0.0028589196,-0.030969787,0.012384044,-0.00094285427,-0.0173286,0.012843339,-0.020334342,0.033179708,0.022059862,-0.022180278,-0.011298136,-0.00079078367,0.008807824,0.017074019,-0.032177318,-0.04820874,-0.018393062,0.00032253878,-0.028981155,0.000982086,-0.054851152,0.056741044,0.0072131893,-0.069149785,-0.0006669879,0.014781159,-0.018282315,0.011324048,-0.0021426105,-0.04151204,-0.011877683,-0.03698947,-0.051712934,-0.021418054,0.024653133,0.024980355,-0.015957233,0.03438181,-9.652273e-05,0.033326615,-0.004035903,0.007262493,-0.004326861,0.0030207692,-0.04899549,0.030390037,0.048092283,0.004387716,0.045476586,0.040707972,-0.014111525,-0.017353222,-0.0053626015,-0.027705776,-0.017236657,0.034459118,-0.054453287,-0.021699639,-0.07504058,-0.003067494,-0.016479641,-0.011944448,-0.043434713,0.07695974,-0.07015209,-0.0047462275,-0.06433624,0.00030041186,-0.02500005,-0.03587922,0.0034897178,-0.0056685843,0.014234937,-0.047206372,0.03193228,-0.062831715,0.041691456,-0.020997575,-0.0062414864,0.08452363,0.019484257,0.010674253,-0.029575797,-0.01121242,-0.02185227,-0.05230373,0.06362084,-0.0029226944,-0.019683866,0.008282949,-0.023687627,-0.033035353,-0.007119699,-0.008706428,-0.0027955219,-0.048475217,0.042783443,-0.04202727,0.04397533,-0.006068687,-0.0140101295,-0.033744723,-0.013083157,-0.030356955,-0.0013460697,0.05398196,0.0023418486,0.008681197,-0.011195412,-0.041855723,0.043955933,0.029772349,-0.071402766,-0.03148809,0.021938149,0.052733194,-0.029231546,0.020900944,-0.04823483,-0.0018509995,-0.041584667,0.042794652,-0.01251695,0.033573173,-0.012610846,0.006194655,-0.008417041,0.017536482,-0.0036429623,0.04924217,0.0130703505,-0.0059911935,-0.07146518,-0.012417008,0.03498495,0.0036149204,0.039269138,0.010962638,-0.0044669528,-0.016918248,-0.02101796,-0.00025105904,0.032187678,0.022369789,0.0031392053,-0.00030506618,-0.00024657213,-0.0057680714,-0.033475723,-0.013293121,0.03224047,0.032889713,0.030918252,0.008011399,0.0017873832,-0.030661337,0.017048093,-0.03474076,-0.0009754533,-0.024647564,0.009439978,0.031987134,0.004120866,0.047940955,0.010400426,-0.015870893,0.0050113313,-0.03660799,0.010718928,0.010685194,-0.009572285,-0.03693644,0.034467388,0.04064877,-0.018164465,0.03252381,0.026483845,0.040949866,0.003562339,0.008041341,0.013022572,0.008394688,-0.046373438,-0.036547855,0.003917653,-0.003414092,-0.00035470547,-0.027509816,0.0041957134,-0.022039367,-0.02600963,-0.05197378,0.025322381,-0.018690057,0.043317586,-0.021177087,-0.02345891,0.013952535,0.01720161,0.019248622,0.0024269808,0.024813665,0.06220113,0.020831004,-0.05436848,0.014945007,-0.03996997,-0.022469642,0.021125827,-0.052099094,0.010300578,0.009542636,-0.028097859,-0.004077376,0.033053983,-0.032420825,-0.0070662345,0.041004978,-0.02313841,-0.014324627,0.024674626,-0.0008491362,-0.010826133,0.01779265,0.006126203,0.0100486055,0.0010455993,-0.012154271,0.0145529425,-0.030730015,0.022519663,-0.044217538,0.031582437,-0.0050900136,-0.07125104,-0.03902228,-0.019750373,0.018545788,-0.019077852,-0.021551583,-0.040916827,0.029640218,0.008485692,-0.0039510336,-0.035220474,-0.0102722505,-0.011272914,0.014040404,0.09038953,-0.0019679528,-0.009237889,0.012240949,0.035480656,-0.010061275,-0.018130483,0.021534543,-0.0005575726,-0.034667943,-0.0082614515,-0.023707805,-0.04747485,-0.07400406,0.0016125333,0.026222942,0.04284232,-0.008844175,-0.010491104,0.005587429,0.0065914546,-0.0121673,0.021272408,0.002833668,-0.064335465,-0.044827003,-0.009344611,-0.054815985,0.2286515,0.031886213,-0.008686876,-0.010669383,-0.03648993,-0.0010879803,0.002757465,-0.0086490195,0.02348447,0.010596224,0.02172323,0.01879766,-0.011630778,0.012945085,-0.013635825,0.033597782,-0.031303372,0.040318772,0.028345527,-0.055838823,-0.018147375,0.035761632,-0.01012751,-0.015493573,0.0051538013,0.028174559,-0.0015099004,0.037592735,0.008459452,-0.024814155,0.0006645013,-0.038902026,-0.005514083,-0.010982424,-0.041428838,-0.0053964043,-0.007126099,-0.0031659142,0.009629449,-0.0049929875,-0.0049795164,0.058890183,0.023631709,-0.019071344,0.01773777,-0.03669364,-0.024168635,-0.0019917602,0.045011457,-0.047403373,0.062054932,-0.050755538,0.026183952,-0.0104481075,-0.04621997,0.016696176,0.009926957,-0.04099951,-0.027237039,0.017069077,0.008394639,-0.016080434,0.055969805,0.003791518,-0.00514126,0.026746918,0.031039624,0.00018193256,-0.017093027,0.01875301,-0.020379832,-0.017806554,0.007427422,-0.03719956,0.009142064,0.025000805,-0.029725492,-0.010223648,-0.031739064,0.006479485,0.043781217,-0.024191743,-0.017538583,-0.07091115,0.04220409,0.03397135,0.011545132,-0.011345208,-0.028215429,0.013914636,-0.00885379,0.009688158,0.020110443,-0.030175837,0.011863761
real,0.0035752703,-0.018999148,-0.0037599867,0.0054955566,0.0200595,0.021050697,-0.01794473,0.028895393,-0.007491193,0.03982114,0.012944111,-0.02889001,0.023634909,0.019692048,-0.021530213,0.011630194,-0.014774186,-0.022348864,0.0026337502,0.025710141,0.0014302596,-0.02197665,-0.022177795,-0.02305237,0.024882646,0.0061810575,0.030274497,-0.023399089,0.04886814,0.0055244644,0.02128779,0.022339873,0.022987297,-0.015132218,0.030367255,0.029947152,0.01956541,-0.047160655,0.027137851,-0.025912367,0.03530854,0.008646103,0.0045915106,-0.03596643,-0.025441585,-0.028833888,-0.026839448,-0.015173656,-0.023997728,-0.027171092,-0.0041524093,0.021261316,0.037278965,-0.0059560845,0.014478501,-0.027281806,-0.036887802,-0.06610232,0.01031301,0.055325232,0.016406914,-0.035852857,-0.0024107704,-0.030373953,0.038557984,-0.008793315,0.022906732,-0.005319301,0.030718012,-0.051526297,-0.003865272,0.037769113,0.012034572,0.0011198872,-0.009069377,0.027040392,0.025359225,-0.02276765,0.018600516,0.043702167,0.02983957,-0.0044273986,0.037846934,-0.007923928,-0.021339204,0.0037974026,-0.018792432,0.016869623,0.0146612525,0.002573197,-0.02594303,0.04345627,-0.05484482,-0.02184806,0.027447265,0.0029802665,0.0027333559,0.023005728,-0.022822507,0.00012489341,0.0076415264,0.04313029,0.026195297,0.053285163,-0.002784923,0.028004672,0.015191088,0.031424142,0.018770274,-0.044377297,0.019352278,0.009802092,0.028057836,-0.032953523,-0.031285133,0.012822433,-0.047736716,-0.018814871,-0.0015699016,-0.045442108,-0.036350887,-0.013576777,0.026469711,-0.004109161,-0.008882827,-0.060386945,-0.016498704,0.094436854,-0.029131224,0.03219769,-0.0051347157,0.008194889,0.040887464,-0.016323123,0.03981116,0.03843897,-0.028469052,-0.017683024,0.0611875,0.043669704,0.05430854,0.04562034,0.0040661762,0.035444655,0.00259969,0.03518242,-0.009355458,4.2275202e-05,0.00092479616,0.047749426,-0.066114515,-0.019207822,0.03203456,0.0497732,0.022936864,0.016320132,-0.013312252,-0.0022652932,0.008884018,0.015804615,-0.06719327,0.0011476143,-0.028464863,-0.009649555,-0.0017079571,0.0197923,0.044185277,0.03291477,-0.010337318,-0.07698145,0.05352512,-0.014548969,-0.022258349,-0.003355219,0.03532712,-0.041822642,-0.000838722,0.017208766,-0.014465035,-0.030622842,-0.0031476608,-0.032021213,0.034408487,0.0616155,0.01211744,0.0059008896,-0.017204821,-0.042793628,-0.0063928342,-0.03670174,-0.011662864,-0.002925565,0.009441658,0.014056164,0.020222975,0.0007367707,-0.050201908,-0.0034401435,0.02240425,-0.049714245,-0.041510444,0.05167937,0.009469288,0.053051364,0.028240452,-0.010838922,0.0038703869,0.02477447,-0.00029228078,0.0010694884,0.04782526,-0.0024478238,0.04667431,-0.103910215,-0.003784339,-0.032805704,-0.0014141896,0.051060576,-0.0019404677,-0.0063624396,-0.004523687,0.018176675,0.013232254,0.0042896066,0.024871955,0.01790612,-0.028077215,0.06202857,0.020177454,0.010533366,0.016114429,-0.012266037,-0.028674956,0.025408747,0.0036047283,-0.017469158,0.04971228,0.008660816,0.020778079,0.010967903,0.032279726,0.032914493,0.051069684,0.047578845,0.026935453,0.008880819,0.042698484,-0.0357461,0.0071244934,0.008348611,-0.027446467,0.010563766,-0.015464946,0.016585998,-0.020780317,-0.009774293,0.022271294,-0.0044291047,-0.004508894,0.0022674731,0.0016837255,0.024082515,0.005830842,0.026351504,0.009880024,0.02796321,0.052229784,0.04353667,0.0014941489,-0.054733176,-0.03522703,-0.02404449,-0.0495594,-0.020457963,-0.018839275,0.003669026,-0.01839443,-0.027840111,0.032214217,-0.02383232,-0.027589854,0.03901866,0.013686476,0.0023356287,-0.06307466,0.030987857,-0.024262669,0.011270427,0.0015972406,-0.032659777,-0.0033798623,-0.010374796,-0.014492122,-0.012151021,0.034504548,0.029222539,-0.017077038,0.047881994,-0.032495793,-0.026260648,-0.025896003,-0.020252645,0.006038659,-0.03252016,-0.009264497,0.031397726,0.007202275,0.023021782,0.023120785,0.025100904,-0.012260032,0.015088682,0.04353381,0.036341038,-0.058211684,0.068002544,0.015890734,-0.019947527,-0.06353386,0.0018319234,-0.018780047,-0.017837582,-0.021330107,-0.0007927522,-0.0034425578,-0.021658817,0.013817086,-0.017289631,0.06372368,-0.039490853,-0.0353962,-0.03527542,-0.029518338,-0.035729382,0.013717879,0.006299187,-0.05251529,0.012021278,-0.004962604,-0.031618875,0.01770635,-0.02670336,0.04222781,-0.0035788754,-0.04535708,0.011607091,0.0196184,0.02644693,-0.009118347,0.0073622838,-0.024766706,0.0004082204,-0.0026617455,-0.0064123455,-0.041009445,0.044170115,0.00997117,0.009552763,0.014886653,0.036425304,0.047485113,0.005302886,0.042710286,-0.0100778695,-0.027127733,-0.044703726,-0.026368566,0.04565996,-0.0038583495,-0.02691533,0.022550242,0.0025498362,-0.036457647,-0.0044293953,-0.061001405,-0.04032637,0.016508786,0.0003417491,0.016141541,-0.055718366,0.022760667,-0.031191291,0.043473158,0.014928043,0.02707718,0.0005532788,-0.012358066,0.09530026,-0.012885638,-0.042357177,-0.0027137185,-0.004285857,-0.029997794,0.011166882,-0.061569583,-0.016235907,0.003025068,0.04236114,0.055943254,0.034917235,0.04383678,0.024548851,0.019859232,0.017268006,-0.040476117,-0.048545685,0.002895915,0.037865017,-0.02278809,0.0045089563,0.010522345,-0.033914953,-0.006599769,0.052420676,0.0025368328,-0.020220682,-0.024277741,-0.01113174,-0.03837786,0.0177728,-0.023889108,0.009021259,0.024148595,0.046587538,0.052532434,-0.0010142719,-0.0015021731,-0.008190117,0.060047854,0.015219393,-0.012477953,-0.020632114,-0.010338453,-0.03173132,-0.00174926,0.0031525386,0.02714247,-0.023857914,-0.017207589,-0.011885531,0.046292216,0.03835635,-0.018026965,-0.037541937,-0.005177255,0.021056807,0.032953486,-0.012488,-0.028818334,-0.016948147,0.023685304,-0.057892423,0.047856115,-0.0074627325,-0.05507826,-0.017822705,0.025767433,0.009820135,0.02161288,-0.002085515,-0.03743398,-0.035436355,0.010057197,-0.0048843785,-0.0036272656,0.0026573932,0.013576045,-0.00051644444,0.026944207,0.015632067,0.029770898,-0.009346484,0.019273408,-0.05482044,0.006249739,-0.04691037,-0.012273742,0.024935307,-0.029289197,0.027657295,-0.016314084,0.0042688865,0.0032799453,-0.034349866,-0.0038963098,-0.04774122,-0.030435355,-0.018027505,-0.034791097,0.011412411,0.011553257,0.019407703,0.023129858,-0.040429078,-0.03322806,-0.015003161,-0.0058746953,0.0035716943,0.02047071,0.0017366266,0.056285057,0.017512921,-0.009083954,-0.014694898,-0.005022471,-0.034709025,-0.007187848,0.019816855,-0.010371849,0.024338014,-0.012082304,-0.007664024,0.033699185,0.018997569,0.0012405089,0.021545663,0.037483398,-0.028305192,-0.021407092,0.026759755,0.040698525,-0.04408934,-0.06763844,0.06875534,0.04360199,0.00074611406,0.019962344,-0.02811053,-0.010271661,-0.096640155,-0.057157326,-0.056679703,0.009948901,-0.05728486,0.0023033088,0.02654882,0.016661229,0.033993334,0.023583978,0.04687981,-0.062533475,0.006192114,0.0031078274,-0.066652216,-0.01349179,-0.024337612,-0.030838631,0.04034779,0.064452395,-0.0152511895,0.024429463,0.0073011573,0.034745198,-0.049153894,0.003342638,-0.065955944,0.00044939722,-0.008683342,-0.0012601787,0.02457779,-0.022408336,0.06794413,-0.031749308,0.033916704,0.012888963,-0.03814409,-0.037409328,-0.01632136,0.029367026,-0.024394283,0.0024168135,-0.0071227322,0.028262392,0.014928401,-0.010741488,-0.031516258,-0.0012211752,-0.035648644,-0.07138514,0.03709868,-0.03816902,-0.034826804,-0.020042915,0.0051093153,0.034099422,0.02660767,0.033843055,0.09869136,0.0016930314,-0.050072838,-0.031798445,0.056828626,-0.0066594537,0.017449465,-0.019472167,0.019634552,0.018120736,0.031884283,-0.017331013,-0.0675427,-0.034701377,0.0033125114,0.0069682775,-0.007717822,0.037392423,-0.02341069,-0.007652433,-0.03558022,-0.0006789632,0.02077769,-0.00013290581,0.04297617,0.01761095,0.012320263,0.05375512,0.02082637,-0.019925125,-0.015960827,0.065828286,0.03019428,-0.082771055,-0.0013210232,0.06092227,-0.035038304,-0.07204941,-0.027524428,-0.019218206,-0.021856962,0.038324125,0.025973361,0.02404145,-0.11065072,-0.018016042,0.011362692,0.02571431,0.010282388,-0.009720734,0.051963177,0.027480077,-0.03170623,0.035663053,-0.038882364,0.015864378,-0.0626266,-0.020181041,-0.051801708,-0.0070983204,0.046240672,-0.015489914,0.012226887,0.013922698,-0.012489866,0.008836576,0.015165696,-0.026480252,0.018014237,-0.013678246,-0.020453168,-0.00868572,0.009388751,-0.008509029,-0.009288169,-0.05948527,-0.028768541,0.05554593,0.042433556,0.00036992578,-0.061195828,-0.07014443,-0.028924005,0.02695966,-0.071625054,0.024500985,-0.01786615,0.052942377,0.025731858,-0.04889496,0.009794921,0.01857443,0.00045943836,0.034434337,-0.029130831,-0.031953316,0.0017149941,-0.06499018,-0.023453506,-0.00070481387,0.022761116,0.016466992,0.016801892,0.03453972,-0.03792262,0.01860463,0.005908913,-0.0012974114,0.011450537,0.0010240598,-0.046702236,0.011091126,0.012147963,-0.010475544,0.03817418,-0.0181269,0.0035025368,-0.0023494435,-0.0027276543,-0.026260786,-0.030713161,-0.021017056,-0.019895688,-0.01615574,-0.02604742,-0.03167352,0.0027534976,0.0008305263,-0.040381886,0.042978585,-0.071322486,-0.0041484856,-0.042935904,-0.017949872,-0.040351685,-0.012581417,-0.009663728,0.04201888,0.0048697703,-0.03158574,0.037760496,-0.04233859,0.016525501,-8.580066e-05,-0.0034794076,0.094950505,-0.00595948,-0.0009158002,-0.00026415833,-0.002297149,-0.03051529,-0.035825558,0.031885136,0.0100251315,-0.0033321695,0.027453206,0.006483162,-0.0019386349,-0.026496608,-0.018102663,-0.021072315,0.02859805,0.020217843,0.0021761714,-0.015985202,-0.03367311,-0.03807583,0.0113368025,-0.016219284,-0.004574362,0.0018224246,0.033286687,0.0107913595,-0.024707902,-0.0091383215,-0.04042595,0.011244211,-0.0027203043,-0.059436526,-0.039311044,0.020204946,0.06204893,-0.024291513,-0.02869682,-0.03286164,-0.0109286085,-0.029487893,-0.0011942525,0.03150321,0.030004505,0.002063245,0.026261033,-0.0062454916,0.0040321825,-0.035306774,0.0009832368,0.0015297518,-0.0050066863,-0.055295408,-0.04757285,0.0240995,-0.014996579,0.031048555,0.045648847,0.0064932653,-0.032288894,0.0064906366,-0.014361117,0.0028340307,0.051798753,-0.0016907323,-0.0003736105,-0.0018368309,0.033923835,-0.009206489,-0.015237387,0.028306896,0.015570877,0.024297364,0.02136868,-0.020053811,0.020826397,0.019519113,-0.053021207,-0.029914469,-0.04882504,-0.010046927,0.052085202,0.020283716,0.079390734,-0.0065562865,0.011298682,-0.035976194,-0.03159396,-0.0010266542,-0.009691151,-0.028839717,-0.04405439,0.04708291,0.015440662,-0.03906475,0.0009199955,-0.022075513,-0.02615438,-0.02981964,-0.013011056,-0.0068129846,-0.014337367,-0.05240551,8.9998875e-06,-0.0071960813,-0.009293657,-0.0051146215,0.035849813,-0.0006149501,-0.014213966,0.03624477,-0.01490158,0.022952273,-0.013743757,0.01819012,-0.0031354383,-0.0033663136,-0.009631864,0.022193717,-0.014920598,0.03000152,0.016011726,0.05559608,0.023317054,-0.0074922913,-0.017019296,-0.05376804,-0.038567405,0.002226622,-0.014438541,-0.03171029,-0.02189039,-0.06290429,0.015037788,0.013939142,-0.03557317,0.0063427286,0.05613176,0.009562278,-0.020314299,0.033998333,0.038228802,-0.001512621,-0.002275246,0.03412376,0.042213712,0.029651282,-0.019049155,-0.030603293,-0.009279949,0.023314917,-0.082338825,0.06612885,-0.040470216,-0.045112077,-0.07154839,-0.0005019227,0.007608438,0.010489506,-0.0330486,-0.04950892,0.009363872,0.029632786,-0.0073199263,0.0024896031,0.00090588775,-0.017252173,0.028580975,0.06148223,-0.039332036,-0.025587413,-0.0019269405,0.0038739452,0.011219529,0.0034012366,-0.013789292,0.033274986,-0.021938195,-0.01160868,0.008511464,-0.032363825,-0.024066003,-0.012318486,0.047237284,0.04126608,0.004363035,-0.023571216,-0.012742442,-0.023835456,0.015622753,0.01608906,-0.0009919272,-0.05168215,-0.049683247,0.009504554,-0.060695324,0.24385928,0.016136266,0.0027911304,-0.0075051845,-0.004333108,0.022266347,0.0043933284,-0.012459111,0.05482002,-0.024334876,0.04357054,0.010208748,0.02434907,0.012588615,0.0037331474,0.060533676,-0.028607098,0.015853982,0.030118437,-0.027830414,0.001374666,0.020877603,0.0043172883,0.025839152,0.020320902,0.022516053,0.00024621727,0.00010206432,-0.0133462325,-0.033158757,0.0124325715,-0.0126479445,-0.00022004533,-0.029607277,-0.018154943,-0.022585586,-0.009203558,0.018729461,0.008269185,-0.00092001667,0.005140857,0.047022156,0.046365134,-0.026900036,0.010837508,0.0049481397,-0.050161142,0.038183868,0.054892547,-0.043608617,0.03485418,-0.055984695,0.017742772,-0.0043672463,-0.053033415,-0.013821652,0.036625266,-0.021292329,-0.007392938,0.024458801,0.01108104,-0.005239915,0.055601284,-0.024573011,0.01551155,0.013142251,0.07128209,0.039573956,-0.0032463393,-0.017852763,-0.015205204,-0.02227532,-0.007643084,-0.01689912,-0.013582595,0.052358743,-0.009736619,-0.019810207,-0.010166142,-0.004292168,0.004263293,-0.01703311,-0.017426094,-0.05584345,0.023605522,0.012892208,0.011062977,-0.03141897,-0.02931517,0.026269779,0.012624941,-0.033739597,0.00346324,-0.008540075,0.008432131
falso,-0.022093061,0.004861327,-0.024219822,0.03188566,0.006087458,-0.0046993177,0.015574089,-0.0016710348,0.023960503,0.015898604,0.028343687,0.0011042075,-0.0078113186,0.038570408,-0.035630595,0.066959694,-0.02409512,-0.015484556,-0.0064433715,0.054254092,-0.011871214,0.01787376,-0.012555039,-0.04390839,-0.0063292785,0.012734863,-0.020887237,-0.0278142,0.006857796,-0.014107891,-0.013042976,-0.011007469,0.0026904135,-0.03700422,0.036072794,0.0197375,0.0035384898,-0.06319015,0.045478255,-0.038510576,0.043962788,0.022833316,0.010484919,-0.036455896,0.0012325518,-0.029708723,0.037803512,-0.022890918,0.013132642,-0.016084854,-0.033371676,0.03827932,0.014303225,-0.034125876,0.023781547,0.013442205,-0.022125913,-0.074323766,-0.025369955,0.04746909,0.015161607,-0.038212974,0.015006995,-0.022274315,0.015494877,0.01804075,-0.0054652104,0.024916617,0.003748108,-0.03094745,0.016329786,0.06447877,0.0005578295,-0.015215556,-0.007366025,0.007220428,0.024426775,-0.03247488,0.047708154,0.034410533,0.029426705,-0.03068882,-0.026867943,-0.029620426,0.0065649315,0.007915685,-0.0119983265,0.035230804,-0.032014534,0.01178585,0.0022399486,0.056958113,-0.02665592,-0.018308595,0.031618856,0.037713476,-0.019135889,0.03486727,0.014159188,-0.016200775,0.010410463,0.036604144,0.049040653,0.0646293,0.06320065,0.016644122,0.012575472,0.02751688,0.00052930386,-0.034732826,-0.019492855,-0.0411625,0.020858077,-0.0030495792,-0.062229782,0.075955085,-0.042507175,-0.0069703762,0.0071262056,-0.024778768,-0.018184315,-0.01742308,0.024106914,-0.0009672502,-0.0074340412,-0.031189173,0.03002395,0.09241668,-0.0155221,0.011446649,0.032000914,0.013414958,0.016342806,0.012346995,0.036088582,0.043788143,-0.0012996023,-0.00091290625,0.100017995,0.035912517,0.0059892177,0.040109813,0.002445423,0.02908119,-0.0037930037,0.04188399,0.018811155,0.006251708,0.04173566,-0.002191853,-0.028973436,-0.03753933,0.044001304,0.052844945,0.0017961137,-0.03634207,-0.03896088,-0.015366076,-0.0240168,0.011898392,-0.010565225,-0.028962439,-0.024807502,-0.0026818786,0.029484836,0.02895542,-0.019317178,0.0107323015,0.0048531913,-0.027432432,0.067236096,-0.019664653,-0.037419144,-0.031041164,-0.0032070633,0.009484771,-0.006510052,-0.015377967,0.026484687,-0.026243338,-0.030673854,-0.007380009,-0.021872455,0.06707535,0.04839963,0.0107308505,0.0020347515,-0.0570366,0.014333199,-0.03960849,0.018462686,0.030868238,-0.0028267517,0.031900648,0.026662897,-0.018899512,0.013072991,-0.0016978636,-0.006055453,-0.026541822,-0.04116144,0.0050459914,-0.0032633175,0.08942313,0.043260958,-0.029165393,0.022061722,0.019574052,-0.018911613,0.01597832,0.032507364,-0.032010864,0.019314673,-0.042063396,0.0030826116,-0.0014071477,-0.023052838,0.047112472,0.0058557414,-0.0075114323,-0.030560829,0.011570853,-0.0655249,0.004602407,0.008775562,-0.008702257,-0.0037401668,0.043551095,0.023076996,0.05321993,-0.0069836867,0.013977285,-0.041857056,0.014671203,0.02135519,-0.035908896,0.0028843724,0.03560205,0.0112190815,-0.010248783,-0.031070933,0.013013503,0.007379765,0.02247147,0.015150687,0.041648008,0.048942685,-0.04209848,0.018358495,-0.0073840767,-0.018526658,0.01743105,-0.015645305,0.016924176,-0.0062039206,0.0012867767,0.050777093,-0.005671143,0.012497415,0.0073443973,0.021393472,0.028662922,0.031776138,0.02610349,0.024570856,0.004181204,0.046272706,0.049487226,0.0073319296,-0.028085897,-0.03686005,-0.036755204,-0.06973836,-0.00047636524,-0.00015647007,0.003669884,0.006960039,-0.022814162,0.029582838,-0.029015535,-0.029688802,-0.035057187,-0.025339747,0.030768907,0.0060878107,0.008761672,-0.023156233,-0.025854515,0.0165099,-0.0038977147,0.053047027,-0.042660993,0.02709032,-0.023195755,0.0019196081,0.011502124,0.0019969693,0.073559895,-0.008415778,0.0014415234,-0.016735295,0.01835408,-0.03936833,-0.02235406,-0.017465914,0.05271253,-0.019067833,-0.008656483,-0.0048010303,0.0016329392,-0.027813662,0.033156145,0.0266805,0.02034906,-0.021522075,0.023514898,-0.027745023,-0.030614823,-0.031060211,-0.03323101,0.013262499,-0.01991039,-0.018377863,0.0100793345,0.003088929,-0.035320353,0.048291907,-0.019549951,0.04180116,-0.057307247,-0.019575907,-0.043629557,0.009621223,-0.019687744,-0.013975778,0.01847835,-0.08034811,-0.0018718608,-0.031955466,-0.083228484,0.058950447,-0.043925744,0.023397604,0.018449903,-0.036534384,0.03569602,-0.021308012,0.042379037,-0.01506857,0.025924295,-0.05400379,-0.018054094,0.008368229,0.054702245,0.012456074,0.001609644,0.017956778,-0.004252397,0.012448145,0.030269591,0.043173347,0.02912978,0.014947438,-0.005407921,-0.013640674,0.013516297,-0.03729415,0.010225276,0.02429912,-0.017186524,0.013409431,0.007084165,-0.05105176,-0.028715447,-0.038366746,-0.024363318,0.02519108,-0.049354915,-0.02050642,-0.05013469,0.008530169,0.013611852,0.022133822,0.027997863,-0.013783729,-0.026749743,-0.0028540066,0.04684256,-0.017699692,-0.034828745,-0.018781025,-0.015328978,-0.02344443,-0.00443297,-0.036102727,0.0071703815,0.046308015,0.0016078459,0.032938994,0.0059884354,0.02331772,0.031086065,0.04222332,0.012241892,0.005208984,-0.03133261,0.019303888,0.07578868,-0.039807703,0.0130840875,-0.019993173,0.005690654,-0.031383608,0.013169641,0.03455482,-0.04248412,0.011316296,-0.012807372,-0.014579051,0.01797039,0.032469235,0.017489476,0.021936934,0.058272615,0.06571684,-0.009541778,-0.007945163,0.01613255,0.006032122,0.03308035,-0.03139882,-0.028093444,-0.013491403,-0.010189641,-0.0102311,-0.00041422943,0.017975856,-0.06310473,-0.04058323,-0.05159192,0.072732456,0.053518213,0.00073704985,0.009941926,0.011956388,-0.038219366,0.006172049,-0.017066546,-0.013895422,-0.011517883,0.0305216,-0.057758402,0.020309715,-0.018862383,-0.026211752,-0.053786106,0.025135772,-0.015697135,-0.03020398,-0.025587792,-0.026310269,-0.02411419,-0.005222461,0.0013696912,-0.0076899747,0.047290172,0.011654201,0.025036685,0.04556549,0.033074047,-0.014225671,-0.005586665,0.036096733,-0.06117893,-0.00970436,-0.019993292,-0.033750072,-0.022734784,-0.0024548261,0.031276446,0.00597359,-0.025425415,0.030268919,-0.004602356,-0.01320135,-0.005118191,-0.010298948,-0.025088517,-0.060147908,0.027973523,0.025724927,0.0090324115,0.030468665,-0.038893692,0.0036156324,-0.050232816,-0.0014634462,-0.037637204,0.014549467,0.007931211,-0.0036289743,0.05036364,0.005259576,-0.049817536,-0.022855423,-0.03527003,0.012520035,0.006827661,0.014155928,-0.01622559,-0.04812466,0.016359633,0.012986078,0.03143293,0.010323491,0.026933217,0.0325768,0.0074684797,0.006931321,0.010186776,0.022646865,-0.02156402,-0.044793773,0.06755594,0.022157831,0.0036824737,-0.028500844,0.027875377,0.031483214,-0.049633726,-0.06763998,-0.016344618,-0.021714466,-0.0752444,-0.034166746,0.003032536,0.010190848,0.0165906,-0.0058973483,0.045803744,-0.06519885,-0.00565089,0.029319633,-0.03177097,0.010161191,-0.017842704,-0.001640839,0.05754495,0.03058155,-0.028605934,-0.00015088546,-0.016422758,0.028489914,-0.012482185,-0.009235346,-0.021173883,0.043219,0.021927916,0.028713522,0.011663449,-0.01681612,0.052568693,-0.0032331652,0.007362009,0.018505655,-0.035072118,-0.054909725,-0.038633645,0.012342197,-0.010107313,0.010419014,-0.026719652,0.0068432055,0.022338148,0.024933377,-0.042884134,-0.03384671,-0.061634257,-0.060313143,0.018036028,0.0041019595,-0.001815664,-0.024192814,-0.007652464,0.0039204424,0.012268719,0.023628058,0.10697681,0.019063164,0.010455018,-0.032714285,0.048596364,-0.0058224574,0.011574092,-0.04746786,-0.008067806,0.010619615,-0.00012240077,-0.012430296,-0.0402736,-0.052888494,0.03174477,0.02140058,0.020193946,0.02427955,0.009884307,-0.026135853,-0.03769712,0.021901365,0.013816779,0.030436145,0.04884609,0.057178337,-0.03972552,0.044467643,-0.009724784,-0.05788809,0.0073483763,0.061493076,0.019000541,-0.03331574,-0.018093528,0.025742827,-0.044505566,-0.007973462,-0.06300309,-0.025078893,-0.059394527,-0.03362175,0.019380048,0.05464355,-0.07962227,0.014937097,0.001166622,-0.0024421373,0.020105334,0.041816104,0.0032585436,0.004776616,-0.023677643,0.009306894,-0.022603473,0.031454287,-0.02176056,-0.036222495,-0.012321947,0.009703753,0.043138,-0.03382423,0.029118089,0.009131046,0.0199622,0.009788356,-0.01680837,-0.0041630785,0.032358397,0.006191621,-0.038282715,0.008858085,0.0100493,-0.0054216324,0.0644021,-0.0067387475,-0.019449905,0.002848781,0.046561997,0.011193025,-0.029127331,-0.01645819,-0.028243667,-0.02201777,-0.08845682,-0.0021959727,-0.014728961,0.043670285,-0.0042715045,-0.037413925,-0.025821209,0.012885337,-0.017184367,0.013982777,0.023166459,-0.038409647,0.024209036,-0.089703746,-0.006648115,0.013663277,0.009661345,0.001387754,0.0168142,0.048124444,-0.054712232,-0.021067882,0.023498923,-0.041219812,0.021780333,-0.024416244,-0.045535065,0.03419643,0.047217123,-0.049363174,0.015740972,0.026915234,-0.035850145,-0.0022848297,-0.0074007814,-0.035749186,-0.020696186,-0.035664313,-0.0013056346,0.01611427,-0.08672217,-0.008799099,0.023753742,0.014995443,-0.049371473,0.041940913,-0.016778909,-0.017763197,-0.033523887,-0.00483561,-0.03151042,0.004975806,0.0015655411,0.017440226,-0.010301146,-0.019951105,-0.0033396664,-0.088776685,0.0028793765,-0.02114633,-2.2862318e-05,0.071573466,-0.00539006,0.046259698,0.00018020775,-0.041987278,-0.008536789,0.008727566,0.025458476,0.019859705,-0.007743118,0.01675687,0.017852943,-0.031649623,-0.0034921716,0.010571292,-0.014019356,-0.016108539,0.021809423,-0.03857226,-0.0082843,-0.02421854,0.0061278204,0.011873455,-0.0021833067,-0.019744603,0.04676512,0.050017998,0.00043110343,-0.014213486,-0.028898332,-0.0186872,0.028788514,0.0151957115,-0.063417464,-0.059873544,0.020039728,0.053754445,-0.029710775,-0.026895221,-0.010267287,-0.024903212,-3.4996383e-06,0.038848188,0.027773175,0.02930187,0.0017850987,-0.01051704,0.020216787,0.0290715,0.016462883,0.027066687,-0.0047637164,-0.018140242,-0.073952965,-0.021258848,0.011302544,0.0018797518,0.0074171494,0.0263416,-0.007216054,0.018735396,-0.009262421,0.007489437,0.03829128,0.030972859,-0.023198541,-0.033082113,-0.033786092,0.008319539,-0.021693984,-0.026787031,0.05270416,0.020440185,0.049485996,-0.0052112923,-0.021124562,-0.024569524,-0.003473588,-0.023659505,-0.030109456,-0.024733627,0.02420085,0.02185498,0.005225852,0.06703214,0.015996825,-0.04282349,-0.0013726342,-0.035741612,-0.013924348,0.023849478,-0.006026166,-0.044999536,0.056366067,-0.038425915,0.0005857236,0.010893576,0.00242183,-0.026533233,0.039389797,0.019303309,-0.030882305,0.022872813,-0.0076157264,-0.022582946,0.011414219,0.0010349348,0.005566052,0.00633517,-0.01730585,-0.008190143,0.0149666,-0.008031678,0.04140546,-0.021144874,-0.01377206,0.013596036,-0.016673984,0.003665829,0.023849528,0.049426988,0.0021485693,0.023886617,0.0780395,0.054524347,-0.021136047,0.007526061,-0.06859219,-0.036489468,0.0065067606,-0.008308787,-0.022378437,-0.027537236,-0.01296693,0.020777382,0.01427936,0.01066913,-0.0156393,0.005630444,-0.00091813493,0.015523479,-0.00757951,0.023705328,0.019154329,0.036725454,0.027867198,0.050096855,0.04131722,0.029165953,-0.022484083,0.0035326714,0.010260712,-0.0065047415,0.08943207,-0.009651531,-0.060316972,-0.030711047,-0.02491027,0.0072630886,0.007511686,-0.018460482,-0.04120561,0.030647779,-0.02630645,-0.0064562727,-0.010214801,0.021021966,-0.081201166,0.048105385,0.036460012,-0.07168879,-0.015381532,0.052953213,-0.001576497,-0.012012009,0.02352996,0.032374907,0.0034845383,-0.020324443,7.143927e-05,0.016121184,-0.03870461,-0.014178031,0.0033238411,0.0077178846,0.032462064,-0.007565395,-0.057576172,-0.041454177,-0.028657736,-0.004384979,0.013031891,0.0046292976,-0.04396408,-0.031008823,0.0063832905,-0.050359476,0.18822351,0.03571398,-0.0042511974,-0.0507897,0.0122065,-0.010755344,0.006651154,-0.013470259,0.004838575,0.013206644,0.025525805,-0.0057642767,0.022251265,0.03610612,-0.00020226068,0.021484055,-0.028458828,0.006268218,0.026437221,-0.035990804,-0.05979341,0.02200417,-0.0009577325,0.028146116,0.018529337,0.03673148,-0.030441869,0.0042778696,-0.0017907934,-0.021588411,0.00027123358,-0.049184896,-0.006283815,-0.032685712,-0.044541027,-0.070136406,-0.031957988,0.020880997,-0.006188025,-0.008229199,0.0034041223,0.08993471,-0.001767792,-0.021206265,-0.009843278,0.034106515,0.0012355814,0.026842289,0.006043539,-0.039027367,0.024018105,-0.04548661,0.008577126,0.022156073,-0.06186073,-0.004475394,0.02804525,-0.013163791,0.04083306,0.046855785,-0.0036027592,0.021015761,0.062363524,-0.039532986,0.009907469,0.020937694,0.0103976885,0.040938247,0.0061865845,0.02207337,-0.006910603,-0.06526749,-0.016047064,-0.040452998,0.012303831,0.02186832,-0.08510059,-0.04107332,-0.053948462,-0.047367487,0.025689531,8.693658e-05,-0.032668725,-0.06563301,0.012214038,0.024064802,-0.0069334954,-0.025715847,0.006894764,-0.019584239,-0.018919375,0.0065608094,0.01870158,0.009151082,0.0143953515
falso,-0.006673941,0.0044048014,-0.025332872,0.0099641895,-0.016639026,-0.05451874,-0.022362143,0.016420132,0.03442887,0.02328735,0.015026717,0.0022402296,0.059773445,0.002578816,0.006670073,0.011295517,-0.016454266,-0.024677936,-0.009433857,0.063582145,-0.0051881094,0.0079158675,-0.027107492,-0.028500127,0.0055639474,0.0020266874,0.039580524,-0.014533643,0.027394278,-0.020244176,0.0047975904,-0.018431818,0.008570469,-0.04348046,0.015528776,0.029489025,0.013901761,-0.04908371,0.036775455,-0.056289293,0.029088713,-0.01662295,0.008759148,-0.045033615,-0.020038245,-0.008440742,0.037282456,0.00027144497,-0.0003436481,-0.032964103,0.0020436137,-0.016848238,0.041131493,-0.0113917375,-0.0080127185,-0.0070321397,-0.02389534,-0.06019632,0.006930023,0.052756187,0.010495886,-0.02631468,-0.0072468664,-0.028375149,0.041059777,1.7218405e-05,0.02563713,0.028904349,-0.02318481,-0.03885222,0.029203722,0.023527848,-0.003183603,-0.020981934,-0.0333796,0.018142195,0.0042939167,-0.0049774917,0.029055972,0.014508002,0.015588782,-0.039473027,0.022502586,0.010484755,-0.035654813,0.00900355,-0.021069737,-0.011714142,-0.038863454,0.013009422,-0.013705185,0.03125834,-0.033005897,0.013073174,0.016170943,0.027276656,-0.01727597,0.016349223,-0.02703097,-0.029411385,-0.0039809183,0.06850651,0.02350765,0.024610616,0.009740642,-0.00542082,0.022508632,0.01879306,0.06865999,-0.029801995,0.03068463,-0.020413361,0.029461158,0.0021012388,-0.012622583,0.02943297,-0.07230222,-0.034436923,-0.009335695,-0.079920925,-0.039744847,-0.0008382587,0.016290404,-0.03662298,0.012550182,-0.009838495,0.036987472,0.07327259,-0.015447452,-0.011265702,0.023258071,-0.0031926448,0.018240787,-0.019747848,0.026614748,0.07886193,0.039880782,0.025004257,0.06998121,-0.004499995,0.024692588,0.06956085,0.02416544,0.05277867,0.00038676398,0.058436133,-0.007433349,-0.0060034697,-0.019561661,0.006533338,-0.028024552,-0.03877513,0.036354978,0.05661462,0.056509927,0.01278527,-0.038286295,0.034106407,-0.008540402,0.022682298,-0.023958312,0.008120725,-0.044365745,-0.015794171,0.0055252765,0.03546501,0.01771279,0.070369676,0.0032210276,-0.073406205,0.06424464,-0.011879753,-0.030754589,-0.015063305,0.036469962,-0.0018121379,-0.017011581,-0.0008355598,0.0037398161,-0.038595106,0.017236292,0.008632076,0.038093455,0.06446182,0.015840333,-0.0127966115,-0.021781653,-0.09424353,0.009523604,-0.04650243,0.039605133,0.034701858,0.0074220016,0.020416165,0.006582994,0.015865384,-0.0130572105,0.0066506,0.015788134,-0.06626672,-0.043207247,0.048480436,0.025925456,0.022753794,0.045314282,-0.041908093,-0.032912854,0.023075698,0.0013803756,0.0014659481,0.052548483,-0.008032334,0.0066361814,-0.02611371,0.0043039457,8.380646e-05,-0.020423776,0.041694313,-0.0037132148,0.005697534,-0.045302372,0.010570859,0.0033001273,0.009788338,0.015286921,0.04637655,-0.017938433,0.023634303,0.015809037,0.008557817,-0.015149016,0.016273724,0.0058263773,0.017795887,-0.006139786,-0.045169767,0.02037714,0.015083458,-0.005629521,0.039077986,-0.00029376263,0.029300427,0.029552076,0.024466285,0.007466545,0.032058746,0.043390892,-0.040522538,0.015588596,-0.005490561,-0.021115646,0.027526334,-0.035080545,-0.010137089,-0.04080863,-0.020109696,0.029439848,-0.027370805,-0.017805887,0.012907872,-0.012793507,0.035491534,0.012054372,0.027690371,0.038609475,0.043919124,0.055050433,0.038770486,-0.050104305,-0.030476367,-0.07047068,-0.013331732,-0.06280525,0.012036142,-0.012636026,0.028169924,0.024447145,0.016623659,0.036657106,-0.0023417303,-0.041579433,0.010104219,0.008077535,0.03499604,-0.020905044,0.00982086,-0.051001403,0.0025205947,-0.017210709,-0.032958113,0.022335002,-0.033545032,-0.012628855,0.00015853618,0.038135745,0.012808733,-0.0130175045,-0.0016174461,0.0039056637,-0.03924706,-0.028384555,-0.045091953,-0.019658543,-0.06286237,-0.005566061,0.06985578,0.012056898,-0.004292371,-0.0045347973,0.014086492,0.002344391,0.03953905,0.04500406,0.020924238,-0.018694924,0.051156703,0.0038872873,-0.008921948,-0.05284329,-0.021910386,0.021206837,-0.024501665,-0.026386702,-0.020655455,0.00028067146,-0.019743305,0.041271117,-0.03902378,0.043202028,-0.018419301,-0.061372768,-0.0028729995,0.0040623783,-0.021029614,0.022161564,0.04951617,-0.06305543,-0.011327591,-0.06819671,-0.07126903,0.03789956,-0.016950145,0.012557287,0.034989472,-0.08471294,0.015317455,0.008593257,0.015765177,-0.024945674,-0.0023521672,-0.055325456,-0.0027548734,-0.0050946455,0.019133352,-0.021392127,0.027422583,-0.016889231,0.028607864,0.028468534,0.056430478,0.06950322,0.028852936,0.016350957,-0.006664275,-0.052919626,-0.004768282,0.007550182,0.016708966,0.034986928,-0.020045556,0.023241503,0.022604486,-0.04611435,-0.027551113,-0.017145969,-0.034136828,0.055729948,-0.016052071,0.0025691164,-0.028600972,0.059182785,-0.037023176,0.027784726,0.015111419,0.019883148,-0.0038378616,-0.0035046707,0.033653073,-0.007346954,-0.040370848,-0.024310827,-0.028474959,-0.010444874,-0.026022535,-0.052532032,-0.054288805,0.007868652,0.029408986,0.05345303,-0.0137816,-0.0095453635,0.014245563,-0.011283678,0.01003479,-0.0041436767,-0.006682068,-0.008685795,0.042041607,0.0009883149,0.0010905563,-0.014565093,-0.022496939,-0.021432519,0.039595548,0.021085227,-0.003812669,-0.03853192,-0.012326682,0.0066498956,-0.015728567,0.044841867,-0.0015899485,0.06004927,0.06700878,0.06840293,0.009160587,0.0062022004,-0.030014437,0.029264282,0.05133476,-0.027446004,0.0006440664,-0.0023181995,0.0005460642,-0.017085189,-0.0034672483,0.0023449336,-0.0076768207,-0.032529444,-0.054796956,0.05225058,0.017504832,-0.021627383,0.020187087,0.006781236,-0.02009631,0.008544007,0.013586843,-0.039963488,-0.043492973,-0.031667657,-0.047244146,0.034923162,-0.03305831,-0.0153017985,-0.027050937,0.0047423863,-0.011832398,0.02688551,-0.019151295,-0.05637764,-0.017533032,0.022788849,-0.016036814,0.0327409,0.020434862,-0.0053819027,-0.023495851,0.023553208,0.008675682,-0.026352068,-0.027717989,0.021020513,-0.056825403,0.023471637,-0.035143584,0.0028945014,0.0015995702,-0.009382858,0.03393418,0.0021770615,0.027909996,0.03185576,-0.008263326,-0.013645827,0.016304709,-0.022137525,-0.0084053455,-0.025101857,0.002538861,-0.01018583,-0.020793784,0.031891815,-0.042313233,-0.017505921,-0.015249734,-0.0011406377,0.006896946,0.02365346,0.013424579,0.04921537,0.026833683,-0.023861393,-0.035358984,0.016303655,-0.040394183,-0.041549016,0.031227153,-0.008240426,0.031530015,-0.024688281,0.0005562603,0.021909542,0.0109370155,-0.0043668016,0.041861944,0.052629672,-0.058077004,-0.029905854,0.0042539844,0.007775752,-0.025718536,-0.026967496,0.04420871,0.051522795,0.026828868,0.01945448,0.017206883,-0.006426594,-0.076909415,-0.06498018,-0.057935964,-0.011795462,-0.06243921,-0.03598672,-0.008998207,0.030590195,-0.016786894,-0.0026794316,0.030384686,-0.067219615,0.011572785,-0.012793129,-0.05081464,0.00022222199,0.013044161,-0.0318189,0.04202984,0.04415449,0.013669097,0.019184712,0.0049294154,-0.0015305462,-0.014911348,0.0017820974,-0.044020813,-0.00038899368,0.0057275686,-0.013492613,0.026667023,-0.04094735,0.01566435,3.163348e-05,0.008690547,0.0034142775,-0.029113155,-0.018931558,-0.015884168,0.03278965,-0.030088047,0.016030332,0.035764802,0.021372993,0.0071199723,-0.0066305418,-0.04072052,-0.018131198,-0.040909857,-0.038004432,0.04030647,-0.013854319,-0.015573394,0.0011151473,0.01531949,0.033693284,0.0042819255,0.03466426,0.094039604,-0.04069693,0.010328988,-0.02880829,0.04981872,0.042847443,-0.0031479863,-0.030032776,-0.018788954,-0.03101315,-0.007581364,-0.06761268,-0.08195301,-0.061541848,0.01752453,0.022712627,-0.0242285,0.06483102,-0.004653843,-0.007980067,-0.048192866,0.030240491,0.002535266,0.0072207944,0.0695882,-0.018301573,-0.0055410457,0.061110877,0.035005085,0.009652276,-0.012459862,0.057675805,0.03891033,-0.036560837,-0.011712029,-0.024581118,-0.03423857,-0.03485772,-0.050517723,-0.020584371,-0.046039265,0.001454676,0.03739252,0.016377302,-0.06110276,0.05673598,-0.026943192,0.040844083,0.019260481,0.01804967,0.013243814,0.020192984,-0.042727396,0.017707461,-0.0029800292,0.013214241,-0.04484184,-0.023532957,-0.039788123,-0.0007530243,0.038777627,-0.041166853,0.032770313,0.012588699,0.01644413,0.0016076651,-0.012981525,0.017617706,0.00863964,0.015218566,-0.009243399,0.0014882907,-0.009940391,-0.005045181,0.050741486,-0.032268442,1.6204265e-05,0.034893658,0.029894939,0.032492157,-0.00984102,-0.058127236,-0.037268493,-0.0045175105,-0.047524806,0.0034685389,0.0061558015,0.027201926,-0.002994513,-0.06812706,0.0047653634,0.06869792,-0.021769121,0.021776604,-0.011833072,0.005106779,-0.024798946,-0.041552003,-0.01993611,-0.0017354029,-0.0014580308,-0.0142665915,0.03576199,0.035020046,-0.035134092,0.012771061,0.021946996,-0.012183988,0.04231779,-0.023645908,-0.031888865,0.021209538,0.022298248,-0.022395121,0.038970005,-0.003457621,-0.013846211,-0.008259448,-0.032451797,-0.035929136,-0.016191399,0.010396666,-0.044986837,-0.026118355,-0.035586588,0.009869165,-0.0130472835,0.013146391,-0.029133921,0.040082343,-0.07198537,0.008649968,-0.04683843,0.0038262908,-0.017844938,-0.033797313,-0.030855654,0.0057725515,0.016024893,-0.013753161,0.030472485,-0.069314264,0.022464512,-0.020078907,-0.0076195435,0.064089894,0.0004962624,0.020661024,-0.045695104,-0.03030187,-0.0018546722,-0.0035227924,0.057013247,-0.02446839,-0.04413507,0.005973406,0.022511167,0.012374273,-0.03707989,0.024084013,-0.03528555,-0.012828191,0.018240578,-0.0030446413,-0.004585919,-0.05495206,-0.03761338,0.011946825,-0.041520152,-0.011110137,-0.0012700733,0.044059064,0.024499662,0.027364865,-0.027106134,-0.044659346,0.012891776,0.011731249,-0.03851083,-0.06072029,0.02676603,0.054207023,-0.012428938,-0.01938301,0.01391913,0.018352693,-0.0346855,0.020345295,0.020126687,0.044629414,0.013308613,0.028973255,0.035767805,0.02485818,-0.009917959,0.031071974,-0.0038794086,-0.021688042,-0.036723323,-0.020729624,0.0033584295,0.0049647503,0.03496023,0.015863623,-0.0023890329,-0.022559024,0.008902491,-0.019307168,0.02361303,0.03696509,-0.020518625,-0.020306075,0.009558572,0.033053722,-0.049548104,-0.015070964,0.041629717,0.049058974,0.034124963,0.01127373,-0.05284805,0.0033424592,0.031618062,-0.02165603,-0.04995236,-0.010937117,0.01964959,-0.010114885,0.009388054,0.06312162,-0.01714833,0.011447425,0.007850475,0.007072577,-0.0071493047,0.0078048385,0.001934599,-0.020847468,0.014772547,0.026840078,-0.008359305,0.021607162,-0.017932734,-0.022570746,-0.030744392,-0.0021629478,-0.011639655,0.016728332,-0.013229643,-0.03580801,0.033647276,-0.019228956,0.011273267,0.0010907548,0.004296867,-0.00075737707,0.014043977,-0.021939263,0.011541424,0.00083471823,0.02331178,0.007172167,0.030858884,0.029556027,-0.018949144,0.038215335,0.02320234,-0.0040574353,0.06565474,0.020900827,-0.038156454,0.024838144,-0.059286963,-0.027413815,-0.0062588644,-0.025617482,-0.030322134,-0.028011948,-0.026819238,-0.009045081,0.012671212,-0.011810845,0.007543497,0.03993731,0.00040109694,-0.020658681,0.027310703,0.05785848,-0.03175723,0.02905626,0.051904995,0.019755278,0.03186954,0.008763098,-0.02948015,-0.023056446,0.018911023,-0.07975204,0.08599682,-0.006085614,-0.05719942,-0.06809299,-0.018796226,0.04568705,0.030434066,-0.012670253,-0.015028503,0.009189377,0.008829006,0.005961637,-0.0021217908,-0.0040485156,-0.05125321,0.026904864,0.025013931,-0.026306892,-0.010901784,-0.016833533,0.010288821,0.007350045,-0.041933388,0.0051036943,0.0048691216,-0.02867629,0.0013825063,0.00075953506,-0.032208033,-0.035157956,-0.01769013,0.014241498,0.011062499,-0.001577117,-0.018552348,0.005928635,0.010153928,-0.01901619,0.022171287,0.037205867,-0.04601951,-0.044819765,0.013249645,-0.061367467,0.24690029,0.021207727,0.014292141,-0.011285668,0.004964009,0.022166273,0.01791337,-0.001299243,0.046467986,-0.0022807387,0.0007483043,0.030833034,0.04334808,0.016334154,0.037518505,0.03448141,-0.0210131,0.03110814,0.022979613,-0.049718935,-0.041417252,0.013724918,0.022047386,0.01777544,-0.0010134593,0.046247635,0.004804274,-0.008070326,-0.05355109,-0.05618045,0.02391892,-0.017926088,0.004152658,-0.026849004,-0.016336815,-0.008720558,-0.03203203,-0.0028670125,0.025721077,-0.01244891,-0.039909814,0.051869754,-0.0028096393,0.0050789276,-0.0037383195,0.006151332,-0.029611329,0.028620617,0.051236145,-0.025108296,0.014974087,-0.04573195,-0.014774839,-0.033635292,-0.07970015,-0.017940734,0.019821467,-0.018027186,-0.04753556,0.028579105,-0.00042902524,-0.025603797,0.052043773,0.01236953,0.012603988,0.009439779,0.016502045,0.008937999,-0.019438535,-0.0384044,-0.019503217,-0.011427125,-0.014895748,-0.008126571,0.021741165,0.018590815,-0.021865135,-0.02197058,-0.01936022,-0.028885243,0.002679489,0.0059065437,-0.009665735,-0.02861526,0.015213688,0.02876011,0.015673205,-0.039925642,-0.012596655,0.022548428,0.0172145,0.0062236516,-0.021250576,-0.02468925,0.0039458843
real,0.0031849323,-0.0077243894,0.0060259043,0.033992052,0.038392697,-0.016091617,-0.03146472,-0.027022805,0.023254175,0.03692477,0.036341056,0.014285187,0.03239612,0.014957302,-0.036509894,0.00850777,-0.0036338666,-0.0032304572,0.035532907,-0.001753539,-0.011166191,0.0023204728,-0.061024025,-0.024844235,-0.03074163,-0.018087406,0.004616409,-0.033330865,0.06531238,0.02042628,-0.005761732,0.0179058,-0.01577159,-0.05853749,0.026591554,0.026807502,0.02508244,-0.0696219,-0.0108095715,-0.04108117,0.029440844,0.00011545675,0.032361954,-0.06458022,-0.0201262,-0.04177965,-0.009258419,0.015818786,0.0026609895,-0.024752742,0.0056993766,0.0196019,0.028744815,-0.003137943,0.0016237415,-0.003732568,-0.055497225,-0.025109163,-0.0014937628,0.06433877,0.022670252,-0.011024573,0.0073870234,-0.041220613,0.033154994,0.0026919234,-0.026041092,0.031920925,0.012468476,-0.011530874,0.006119717,0.035493407,0.009292864,-0.012284324,-0.03464383,0.02203544,0.007215601,-0.03833532,0.011653386,0.014393793,0.022751229,0.0014180606,-0.022744725,-0.007611856,0.00033082906,0.00927701,0.026814787,-0.008955237,-0.020759389,0.0031274469,-0.01980692,0.00983701,-0.07212767,-0.009956441,-0.0014621497,0.01877785,-0.02083741,0.04229959,-0.06332395,-0.0006212016,0.033335175,0.038497586,-0.013676577,0.022573119,0.021001343,0.03308698,0.0511153,0.024519447,0.03628428,-0.061217926,-0.0026480565,-0.0031892748,0.03634808,-0.011397927,-0.019762494,0.033482973,-0.043453153,-0.01582191,0.0008130777,-0.066922426,-0.07378021,0.022246597,-0.018153002,0.01949367,-0.022962399,-0.015206073,0.022001516,0.06673675,-0.043816358,0.031828586,-0.01675964,0.025976954,0.008723773,0.04593231,-0.0027885423,0.01689676,0.07060562,0.009861775,0.054513928,0.019285448,0.023257608,0.0013046511,0.04078055,0.088903375,-0.018251017,0.05619276,0.027879551,-0.005685853,-0.0028877056,0.01077041,-0.024588743,0.02050438,0.02682037,0.042858478,-0.018204441,0.020206992,0.001352012,-0.013886853,0.022005692,0.016472679,0.010138266,0.034804933,-0.06691536,0.009142858,-0.00952501,0.03812495,-0.023047702,0.0107224425,0.0017792021,-0.04146254,0.05359283,-0.02741512,-0.03292003,-0.011558561,0.00771218,-0.015247261,-0.049774777,-0.009493149,-0.011977868,-0.022415834,0.002387779,0.0037270426,0.0072285635,0.06537581,0.022212476,-0.009400454,0.028353097,-0.0537733,0.009886964,-0.04423247,0.028204523,0.026643516,-0.010508139,0.028864954,0.0055610137,0.0042647626,-0.028050963,0.009352197,0.04706306,-0.08275838,0.004078635,0.027061243,-0.005684496,0.010809866,-0.023305237,-0.033464603,0.005627109,0.040570006,-0.020755028,0.028020991,0.033503313,0.036103882,0.018796252,-0.051315863,0.016364489,-0.030509597,-0.015049861,0.02636553,0.037025254,-0.0070577483,-0.034988906,0.0083322525,0.0106779635,0.010077233,0.031726558,0.011020878,0.011640496,0.055378623,-0.02412007,0.0016587358,0.011456606,0.025639221,0.0009990811,0.011087335,0.0012976947,-0.008112014,0.05757477,0.01738923,0.04769511,-0.011550778,-0.020091949,0.02611421,0.0309409,0.019460388,0.039833456,0.030818691,0.08441399,-0.036296226,0.03784205,0.034627385,-0.015773974,0.026524251,0.003573363,-0.008616305,-0.059798714,-0.038087122,-0.009055045,0.022849381,0.021622911,0.010885222,0.01541693,0.03589595,-0.008236283,0.04899727,0.023227597,0.0033619534,0.040368386,0.03230745,-0.013591495,-0.041603,-0.051906,-0.053088002,-0.052327387,-0.01712124,-0.025646806,0.0152647365,0.0044499715,-0.049566533,0.054819185,-0.023722215,-0.016919116,0.020391796,-0.017079799,0.024184966,-0.0066761114,0.03660112,-0.044759143,-0.0062019457,-0.010707365,0.016475525,0.0320582,-0.011630673,0.005438512,-0.044503912,0.029449457,0.0100703,-0.007453499,0.018375156,0.00022015705,-0.010955497,-0.031287078,-0.0024511614,-0.01995896,-0.04249631,-0.005114178,0.032259423,0.014115899,-0.0038448174,0.03077519,0.007068785,-0.00014884445,0.020933442,0.016132327,0.0058887536,-0.035842173,0.027425453,0.015707377,0.017827652,-0.039895356,-0.0050708726,-0.022606578,-0.034770828,-0.013251117,-0.034068864,0.0037603609,-0.009850063,0.022513002,-0.07886438,0.04283099,-0.04900027,-0.07475318,-0.031399816,-0.013477206,-0.0067053046,-0.00703455,0.036619708,-0.009279432,-0.0070151244,-0.0021135479,-0.021238841,0.023111315,-0.023219502,0.004291295,0.048471738,-0.040948268,0.016602661,0.025071917,0.016665973,-0.017799417,0.009930318,-0.039392207,-0.00031155528,-0.008582989,0.005778882,0.022249294,0.018166073,-0.00753551,0.01968691,-0.027980814,0.025397265,0.012044152,0.023088545,0.0311283,-0.018984387,-0.03471108,0.015631476,-0.02542992,0.0215656,0.039910495,-0.03675266,0.010225492,-0.009802535,-0.060401786,-0.022552377,-0.02952583,-0.02208689,0.037757836,-0.040066667,0.012097368,-0.017468823,0.007814191,-0.05003863,0.048972227,0.0070909983,0.02910975,-0.01479126,-0.018707197,0.07620203,-0.00038607942,-0.056106847,-0.013966371,-0.034545477,-0.016880006,0.0029542856,-0.081903085,-0.0564967,0.030174332,0.029084083,0.0483576,0.027355364,0.050605148,0.038375217,-0.026554855,-0.007745565,-0.004548717,-0.03813474,0.030238096,0.057470247,-0.018658299,0.019413037,-0.013793986,-0.008142567,-0.0065865843,0.0018547664,-0.03367477,-0.011161045,-0.033989888,0.0013649378,0.007957379,0.029206531,-0.0017794606,-0.029357819,0.011970434,0.06713123,0.0831605,0.012915786,0.0172135,-0.0050730384,0.011986731,0.054506723,-0.013171774,-0.0056062434,-0.028454052,-0.016581345,-0.037518665,-0.0018184279,0.025846938,-0.031947453,0.0024737946,-0.05760017,0.0540288,0.041988067,-0.020534806,-0.0027634776,0.009989643,-0.022011071,0.07168873,0.0063843885,-0.033728663,-0.026478648,0.0135217635,-0.038696796,0.05107038,-0.050622165,-0.04020483,-0.02798735,0.017233398,-0.0005817302,0.0152163785,0.01394307,-0.0009839628,-0.0020160775,0.03577814,-0.0128003955,-0.0269288,0.07349155,0.03604229,0.005296035,-0.013638617,0.01200017,0.01568744,-0.020905405,-0.025493145,-0.03164745,-0.028343538,-0.04570528,-0.0145985335,0.0076142214,-0.05333618,0.019368475,-0.01629676,0.018871425,0.020640526,-0.042451356,-0.03294699,-0.00020367953,0.02513266,-0.00484091,0.015965696,0.03593074,-0.01755711,0.0022062364,0.0010192774,-0.021891847,-0.026726274,-0.02171712,-0.021982761,0.019190416,0.029283859,0.023637325,0.058993578,-0.006478211,-0.020429272,0.0073805195,-0.002922833,-0.0021108568,0.0001808852,-0.030519566,0.010611192,0.013600602,-0.0077004163,-0.03376228,-0.014847812,0.021647505,0.0033168362,0.035926517,0.017482506,-0.00019529383,-0.0073549044,0.030926991,0.02940901,-0.034374826,-0.06180857,0.051557675,0.003485489,-0.022366473,0.05113673,-0.031869818,0.041064873,-0.07364683,-0.04788189,-0.05878154,0.011737203,-0.07336357,0.009457678,0.009472446,0.023080202,-0.0011421306,-0.016063122,0.034568705,-0.05527615,0.023594491,0.0041880594,-0.049833816,0.028432375,0.016570313,-0.007321406,0.060834154,0.013597574,-0.02990212,-0.009126015,0.014715371,-0.005490879,0.014354861,0.025499757,-0.03259764,0.043445054,0.0035347068,0.0072202813,0.057067085,-0.016287697,0.032582633,0.007394817,-0.029636113,0.01228661,-0.042881288,-0.065282345,0.0027633703,0.008659841,-0.0395076,-0.031389233,0.028573543,0.01960566,0.01865532,-0.0052136076,-0.029530158,0.0026763184,-0.05864332,-0.054476254,-0.008859655,-0.004990936,-0.035193652,-0.013599686,-0.00399468,0.013749675,-0.016369922,0.0153463995,0.099381916,0.027246946,-0.001361912,-0.04251814,0.031061403,0.03482666,-0.02163295,-0.014417585,-0.007259789,0.009131533,0.00065522187,-0.033824176,-0.06444748,-0.03818805,0.01343964,0.050749112,-0.095702454,0.015880043,-0.020360008,-0.03463385,-0.044977736,0.034936097,0.030761695,-0.0057098866,0.047373794,0.009939218,0.0009627209,0.05978232,-0.0022585352,-0.028528944,-0.051117502,0.070561506,0.0152074825,-0.027559489,-0.007423633,0.039442085,0.006000015,-0.0024307226,-0.02327314,0.01717011,-0.017087363,-0.0067540705,0.03378611,0.012386948,-0.072447546,0.010451003,-0.0051167724,0.050235096,-0.016640484,0.018448569,0.033716667,-0.0029420927,-0.00825786,0.061094303,-0.023985345,0.02011169,-0.08443953,-0.026327025,-0.075677834,-0.027518125,0.042163335,-0.021639768,0.033127397,0.027592959,-0.039963093,0.0044560195,-0.020396318,-0.02008005,0.039209273,-0.006305409,-0.03375755,0.008291374,0.030751608,-0.028179824,0.0062659914,-0.041103754,-0.00728723,0.030845001,0.0028886055,-0.02412543,0.011240805,-0.015490727,-0.051063,-0.028615423,-0.06182723,-0.009058759,-0.023302773,0.043496307,0.0025360945,-0.017583966,-0.022104034,0.03977837,-0.011292807,0.0026288044,0.008847864,-0.01943829,-0.034119815,-0.03396786,-0.031711057,-0.0069279433,0.015420629,-0.012409193,-0.014877195,0.027489172,-0.06463288,0.0052731927,-0.011303269,-0.0022595804,-0.022433637,-0.034469254,-0.06697848,0.06801831,0.013223348,-0.044407032,0.02424026,0.00384409,-0.016462946,-0.015659627,-0.013252979,-0.05702194,0.0031737497,0.020578666,0.035385247,0.006029162,-0.07000343,0.019029753,-0.02959538,-0.029330011,-0.01901172,0.073989734,-0.035384055,-0.040227655,-0.06374116,-0.009586187,-0.010881106,0.0356124,-0.0062315846,0.037037104,0.034861043,-0.0216794,0.041026123,-0.09977142,0.019669507,-0.035385553,-0.0038224107,0.07613187,-0.017324435,-0.0023341223,0.011305141,-0.012821756,-0.06520313,-0.020715218,0.039981686,0.014689887,-0.022224773,0.023315348,0.008103994,0.017450497,-0.006892956,0.022932697,-0.01756417,0.019449346,0.016274117,-0.0024829558,0.028737467,0.0024660905,-0.020108635,-0.015910778,-0.018532604,-0.01364342,0.022353387,0.018677995,-0.0037628135,0.039092056,-0.04558224,0.0044180793,-0.019704709,0.0048786914,-0.0076367427,-0.062757865,0.029470228,0.058101933,-0.023399077,-0.023938928,-0.03162385,0.03912672,0.01104836,0.031765327,0.028746188,0.037404034,-0.02814468,0.012136878,0.033347476,0.04217731,-0.025560316,-0.0010097787,0.019068409,0.004692586,-0.055462874,-0.022700692,0.056003336,-0.008691197,0.009637141,0.0058564944,-0.010980176,0.03560425,-0.012899898,-0.06982958,-0.0026543464,0.024350325,-0.038905792,-0.031506483,-0.022789191,0.039313495,-0.035589714,-0.003359511,0.02880809,0.018199096,-0.013359683,0.03750548,-0.03548306,0.031833217,-0.0070718615,-0.036506135,-0.012788805,-0.036051836,0.0066472674,0.025605757,-0.0009746063,0.011694239,-0.051073752,-0.011746704,0.0024491225,-0.0386367,-0.0066749547,0.0344363,-0.00038354046,-0.035708796,0.024343561,0.0068607675,-0.0010452224,0.056142747,-0.014253933,0.017483028,-0.0091219535,0.009087859,-0.002996818,-0.01325614,-0.0011525986,0.012550008,-0.014022413,0.009254132,-0.025093284,-0.00909615,0.009425275,-0.033190988,0.003424425,-0.036562264,0.019172402,-0.0016311354,0.023303611,0.014269466,-0.034068987,0.002339803,1.2241496e-05,-0.003515377,0.0046274546,0.004913794,0.03811181,-0.0027263926,0.002519319,0.0052623623,-0.01564071,-0.031082295,-0.007288857,-0.044602845,-0.023497751,0.02227307,-0.03084077,0.032763276,0.007546276,0.012292965,-0.026948955,0.019098211,0.005385225,0.010085504,0.007907048,0.028577076,-0.017174017,-0.012995458,0.0068531055,0.032069206,0.017131995,0.007106041,-0.0060368106,-0.009351704,-0.016259842,-0.0664677,0.04045665,-0.0037779862,-0.047340017,0.022763047,-0.014731342,0.006418852,-0.018563874,-0.02660397,-0.015461804,0.03353889,0.013755624,0.0064780763,0.026259905,-0.012294926,0.01637273,0.033530667,0.07006256,-0.023447527,0.022021597,2.9092918e-05,0.042851336,-0.006844752,-0.033168234,-0.006845546,-0.011491786,-0.013702834,-0.03645641,0.012220567,-0.01376412,-0.049787853,0.005127404,0.05122668,0.05956451,-0.0015008835,-0.032429244,-0.019026237,-0.020764282,-0.010750312,0.021162715,0.03493079,-0.021577451,-0.040924683,0.031182978,-0.048621226,0.24824023,0.05137304,-0.021976855,-0.00950322,0.015567628,0.017791333,0.024544971,-0.01638166,0.026424075,0.025823016,0.05204,0.0075319195,0.012622079,0.018023038,-0.029552778,0.028630963,-0.04073615,-0.016795686,-0.024085771,-0.022112133,-0.06057551,0.017107217,0.0008385396,0.0025348999,0.007721908,0.035205238,-0.0054725967,0.027711483,-0.024680449,-0.008904686,-0.004894526,-0.012473371,0.0015490251,-0.054251406,-0.009512128,-0.00077635393,-0.011726121,-0.008212595,0.0045489827,0.010109454,-0.0020612585,0.020101495,0.0034990476,-0.011458525,0.03335791,-0.013018942,0.020721087,-0.010921442,0.022910878,-0.03294742,0.014920319,-0.059949756,0.04113178,-0.03188424,-0.022251213,-0.0026343197,0.0287339,-0.010879957,0.002322354,0.05188521,-0.0023441399,0.00561779,0.048186053,-0.0110048205,0.0028678055,-0.0066117374,0.025785254,0.048503842,0.028532768,-0.0146492105,-0.032252625,-0.032349113,-0.033451993,-0.03627698,-0.016473498,0.037146993,0.012455311,-0.039778765,-0.014058976,-0.03878794,0.04008772,0.027002547,-0.048482284,-0.04886029,0.03411383,0.036509257,0.013900683,0.009281602,-0.006739569,0.04246444,0.0006189582,-0.0078043807,0.0072449846,-0.040560342,-0.009144189
falso,-0.038072467,-0.008322915,-0.014292646,0.016488163,0.053480074,-0.009246323,-0.011433099,-0.031570744,-0.004091071,0.012830461,0.0007012215,-0.015277961,-0.009171602,-0.0059237173,-0.015412325,-0.04025143,-0.043345775,0.02081323,-0.021899672,0.015084236,0.013543115,-0.0024109876,0.026523756,-0.03165889,0.0078115454,0.01463446,0.02146101,0.030680764,0.04299851,0.033356044,0.0058505535,0.028205872,0.014482333,-0.040133957,0.051271882,-0.007360108,0.04539834,-0.058427736,-0.013691322,-0.0080383625,0.028843895,-0.04407195,0.049270134,0.004313744,-0.02884418,-0.021767946,0.04305408,0.026887182,-0.01944181,0.019568605,-0.012982046,0.025505243,0.046952043,0.034514334,-0.025011167,-0.012712057,-0.041239243,0.0032767395,-0.043132268,0.061036896,-0.002940909,-0.04038522,0.049407568,-0.045006104,0.016493969,-0.018886808,0.0013012215,0.01162324,0.021464225,-0.029642923,0.050227355,0.013183467,-0.010650147,-0.0071666413,-0.019203521,0.017751718,-0.056124955,-0.04499743,0.04202776,0.050151333,-0.023931794,-0.033886958,0.01714935,-0.008515259,-0.01144456,0.007839836,0.03627248,0.030375954,-0.024682434,0.025736405,-0.019885011,0.037192423,-0.109738156,-0.018681465,0.014546836,0.021307975,-0.011134424,-0.008463879,-0.06180348,-0.03174281,0.057929225,0.07162099,0.005316161,0.09589696,-0.0028564176,0.026633129,0.018232761,0.031527348,-0.02896808,-0.00834197,-0.019315306,-0.0053652534,-0.0038814826,-0.024230719,-0.017298298,-0.02375132,-0.027668292,-0.022011774,-0.029484497,-0.014430323,-0.016997952,-0.011990696,0.021613088,0.0016576122,0.027704101,-0.010966012,0.018056015,0.04280156,0.0057046125,-0.0018240793,0.033201497,-0.013516011,0.027819578,-0.017006418,0.012433974,0.0506648,-0.014779301,0.019862257,0.059448164,0.017617097,0.032674976,0.038566217,-0.025778793,0.046582315,-0.0021233177,0.0069601797,0.009770913,0.022795847,0.016279394,0.013071624,-0.004869035,-0.033792928,0.050997417,0.019649068,0.008839782,0.021454899,-0.02265689,0.015616367,-0.0004049874,0.02161432,-0.029809061,0.059768893,-0.03847688,0.011176775,0.022715155,0.03125096,-0.037436288,-0.0063223345,-0.0020158417,0.0104658725,0.031487502,-0.035816357,-0.0066450574,-0.01451206,0.03790484,-0.00094707427,-0.0151637355,-0.017864129,0.015965985,0.036764394,-0.002796187,0.030937167,0.035522144,0.025162345,-0.057227768,-0.020081805,0.03005243,-0.050159946,-0.04308861,-0.03479848,-0.011498389,0.0063627614,-0.001602868,0.017680518,0.025554342,-0.015331867,-0.06104121,-0.021721886,0.086392,-0.09019626,-0.0440394,0.015570275,-0.043420568,0.07357015,0.021577314,-0.078748465,0.016739942,0.02813833,-0.0136882095,0.025730032,0.057599746,0.0023225893,0.031815793,-0.0136994505,-0.006531807,-0.024318468,-0.019280259,0.03122346,-0.018039744,0.02069019,-0.014987622,0.05151479,0.0039739106,0.012512405,0.04851455,-0.014210654,0.0480558,0.05296811,-0.002558782,-0.007342311,0.02212135,0.00920225,-0.0035607826,-0.014444978,0.027592834,-0.028366331,0.056682512,0.0042843646,-0.0038920704,0.01992437,-0.03262099,0.037684347,0.045475215,0.047791675,0.0088830795,0.049014665,0.017075358,-0.021048306,-0.012211338,-0.0148000615,-0.003599403,0.030608024,0.028457543,-0.0030591637,-0.07554432,0.02726582,0.03458851,0.005774132,-0.0039042342,-0.011996865,0.0051846174,0.046806175,0.019811308,-0.064419396,0.050427426,0.0021527482,0.005695813,0.030600175,-0.02713636,-0.049134746,-0.03759521,-0.02117766,-0.052190546,-0.04626058,-0.015169253,0.011961023,0.020296812,-0.008348232,0.05121832,-0.04373167,-0.038863916,0.0466619,0.03778056,-0.03431965,-0.028119171,0.012227895,-0.060247052,-0.0061774566,0.021174304,-0.014679955,0.029347379,0.015159592,-0.029801281,-0.018663798,0.02667495,-0.0032105562,-0.011469556,0.04004291,-0.0077491044,-0.03402182,-0.009693435,-0.016152756,0.010165213,-0.009227264,0.010665181,0.06699874,0.04870583,0.03641539,0.026080647,0.004907304,-0.042989794,-0.017350301,0.007365949,0.040468253,-0.016775815,0.031197885,0.013262657,0.009726622,0.017615981,0.015112235,0.020188808,-0.050330773,-0.03473437,0.012784467,-0.020857796,-0.006572484,0.045747798,-0.05844619,0.040861703,-0.010741426,-0.0055879364,-0.006174894,-0.035652857,-0.026486099,-0.011405831,-0.021638997,-0.021858811,0.03308354,-0.07735964,-0.03152778,0.020561269,-0.02748784,-0.028701466,0.004799454,-0.049985647,0.050642066,0.0074424148,0.047980428,0.007112393,0.007036714,0.003671613,0.019486645,-0.01089464,0.058825582,-0.060498465,0.0014462837,-0.01085391,0.044388264,-0.01366655,0.02434486,0.058597643,0.011390408,-0.004455611,0.0024874639,-0.0008531151,0.027915753,-0.00016818108,0.04577984,0.03479786,-0.008095911,0.0013929502,0.023031784,-0.032902926,0.020167693,-0.018106123,-0.025676705,0.018778129,-0.021184646,0.07156971,-0.036898106,0.03123783,-0.009771746,0.07436888,0.031338837,0.03976238,0.0040512965,-0.05399506,0.029480623,-0.0049948473,-0.0450105,0.00051681785,-0.021920672,-0.02699368,-0.020808632,-0.047555603,-0.031941503,-0.02428264,0.036025234,0.09658181,0.02020466,0.05263605,0.023884105,-0.011386029,0.016455203,-0.024416309,-0.020911131,0.048451804,0.073236406,-0.012655115,-0.03134158,0.00440868,-0.028268397,0.020415077,0.016752202,-0.02014724,0.026540777,-0.020424683,-0.03543802,0.040857,0.032591335,-0.049823247,-0.0016699336,0.016645448,0.084160455,-0.033180006,-0.027165806,-0.008603861,-0.0067587644,0.057317253,0.037291758,0.043778792,-0.037663657,-0.024847632,-0.021728989,-0.055191237,0.022106277,0.016726388,-0.005640741,0.012472867,-0.043857533,0.029554812,0.0647906,-0.0023756253,-0.029390424,-0.01237002,-0.04095786,0.060331833,0.022651175,-0.0150973145,-0.0006535167,-0.008269521,-0.06824338,0.036578316,0.00060051604,0.0019920976,-0.047046542,0.010558779,0.02963065,0.018252658,0.004237927,-0.029651297,-0.022671439,0.029678084,-0.0010142233,-0.058152597,0.02471278,0.044143595,-0.018540714,-0.023148727,0.042529676,0.00499954,0.008161945,-0.013586421,-0.010765827,0.015153712,-0.06437139,0.009631537,0.004226759,-0.061683115,-0.008044833,0.0057971347,0.012747014,0.019648358,-0.07305788,-0.032873463,-0.025049739,0.031040464,0.0119868135,-0.03576131,0.0128524555,0.01803772,0.022045644,0.010500441,0.00063021434,-0.017165897,0.0023975195,0.02213389,-0.027374398,0.041370794,0.04134421,0.051138133,-0.029517451,-0.0042579263,0.010341325,0.007608083,-0.042820964,-0.03080842,-0.028614964,0.027056789,-0.0020104668,-0.0042954455,-0.011653602,-0.0157922,0.0024572448,-0.012202289,0.053985976,0.015876357,-0.042125143,-0.018813917,-0.011280055,0.016620547,0.017186675,-0.028143756,0.035132512,-0.007251638,-0.035908263,-0.04040832,-0.018673401,-0.028240122,-0.056962475,-0.01667477,-0.058354393,-0.010223274,-0.032873843,-0.04110222,-0.0037863585,0.0043149516,-0.021673597,0.018661598,0.00070960796,-0.039197735,-0.0087493,0.007017608,0.006895464,0.006114527,-0.055733133,-0.03517328,0.041201036,0.040358115,-0.023631116,-0.008285659,-0.0062542995,0.0036583552,-0.039111283,-0.010052428,-0.031777732,-0.01611089,0.0118305525,0.023684314,-0.0035138142,-0.052893132,0.011356884,-0.013687384,-0.007812493,-0.023199057,-0.011938706,-0.035801165,-0.014736547,0.033753425,0.020416401,0.031122454,0.021700442,0.0005341288,0.019721035,-0.02291639,-0.007731017,0.018877938,-0.010371458,-0.057451036,0.011717726,-0.009326804,-0.056931306,-0.002813582,-0.008131914,0.04206455,-0.032382723,-0.007785667,0.07052494,0.004761728,-0.0129858395,0.009127633,0.03709406,0.0144919995,-0.040508397,-0.05311476,-0.016170599,-0.039370887,-0.030127198,0.027611272,0.008892062,-0.07108337,0.0010424176,0.064703576,-0.024425501,0.055935826,-0.015571818,-0.015177217,-0.021893088,-0.013680016,0.043410584,0.03321818,0.06603637,0.020545492,0.005255436,0.07229018,0.04467744,0.03311139,-0.013988239,0.010671843,0.00643114,-0.067404754,0.0078232605,0.039205354,-0.040810194,0.0028194478,-0.036960334,-0.035849933,-0.017420996,-0.027555939,0.03373187,-0.012461929,0.018575246,0.01930291,0.0017917259,-0.008731112,0.0038726884,0.022665283,0.039383925,0.004090484,0.0148721775,-0.007123339,-0.04019994,-0.014541842,-0.041513436,0.0010831892,0.0011713003,0.0026495103,0.04751024,-0.01297237,0.021768874,0.0015906827,-0.012928742,0.007092032,-0.027077544,-0.023864219,0.03199545,-0.017993834,0.006638778,0.006666298,0.03496998,-0.0035928402,0.023949295,-0.06467173,0.037156053,0.018863354,0.0044019925,0.0027745003,-0.0076629366,-0.0060686716,0.003977824,-0.0008101269,-0.022636361,0.01021442,-0.052423574,0.026945433,0.008726309,-0.028190885,-0.027108626,-0.015794333,0.008569124,-0.005059938,0.016921375,0.004369648,-0.0062310062,-0.0455227,-0.012298872,-0.023963524,0.025369843,-0.035201818,-0.0067927265,0.040249523,-0.041832194,-0.0049802247,0.013701503,-0.018146928,-0.01950304,-0.013270933,-0.0055114315,0.009980706,-0.020502368,-0.029265134,0.044380993,0.00496759,-0.029230135,-0.011053226,-0.0025094163,-0.047736768,-0.02662292,-0.031395912,0.018781075,-0.029918619,-0.043561276,-0.02062028,0.017476566,-0.0031529102,-0.070027374,0.017321942,-0.06377204,-0.045658376,-0.004863503,-0.015046628,-0.06855651,0.043780062,-0.030941857,0.024452096,-0.011578836,-0.0536498,0.06680112,-0.027902238,0.031802956,-0.0116363885,-0.035615,0.05486265,0.0037985176,0.00022777979,0.017881276,-0.05282294,-0.043430533,-0.03758146,0.042173587,0.037414208,-0.03801026,0.013013672,-0.020492096,-0.015556342,-0.031338334,-0.007111953,-0.04428168,0.040954724,-0.0185536,-0.0018238575,-0.0006013349,-0.023825394,-0.07381339,0.019386053,-0.014038229,-0.017307362,0.03108608,0.0001120767,-0.033995476,0.025676763,-0.011225677,0.010607389,-0.0066200574,0.002539778,-0.008993561,-0.0020903111,0.0040877033,0.036984697,-0.03412515,0.0074169184,-0.038316783,-0.04955544,0.00175113,-0.018034652,0.02790485,0.007266764,-0.049181774,0.01144414,0.03716429,0.049416088,0.008103319,0.009560396,0.032717753,0.020004641,-0.039044175,-0.0063523296,0.0121520115,0.016998632,-0.0027920655,0.034946352,-0.0040771523,-0.030861918,-0.008845464,0.0067495573,0.04930358,-0.024606273,-0.030470338,-0.008877467,0.006762,0.01664481,-0.024559185,-0.032621324,-0.020139407,0.0027406663,0.0060403855,-0.033287797,-0.10162132,-0.01216416,-0.0069964775,-0.013673245,-0.0049409475,-0.045929383,-0.0066784564,0.016313912,0.023169527,0.06716036,0.002735929,0.028379831,0.017573144,0.011481498,0.0033190371,0.039590087,-0.015950052,-0.008937794,0.008763405,-0.054559026,-0.023058444,0.058484968,-0.016449068,0.009459709,0.00078367203,0.046555694,-0.032561883,-0.009531972,-0.008344259,-0.004915129,-0.0143139325,0.0073828185,0.027930476,0.019524466,-0.013551284,-0.02009345,0.007765546,0.009530258,0.0702653,-0.04337952,-0.025704252,-0.013171295,0.010229012,0.0155449,-0.043162357,-0.0059967013,0.016511617,-0.05536875,0.052010152,0.032033022,0.013024202,-0.022247829,0.020873154,-0.0068363976,-0.013912934,-0.009934254,-0.02419841,-0.06433354,-0.024239916,0.02648047,0.024423044,-0.0316199,-0.010913647,0.017378828,0.010769423,0.002660732,0.029267533,0.0031913125,-0.0048541664,0.019280659,0.0057432116,0.0046812915,0.031489406,-0.013071822,-0.05205403,0.013659921,0.0076607033,-0.06660274,0.047572248,-0.021329006,-0.058058772,-0.037800472,-0.027861636,-0.00786164,-0.023361767,0.032502647,-0.007962463,0.03719367,0.02818292,0.01162089,-0.015239701,-0.012642346,-0.029083878,0.05437916,0.051471006,0.006037509,0.020478886,-0.02600359,0.003955955,0.033861846,-0.015427495,0.04959689,0.016051317,-0.02670369,-0.029447284,-0.024374276,-0.0057829176,-0.0186942,0.015381528,0.016925637,0.02345932,-0.018507829,-0.061008263,-0.005884155,0.023813464,0.040647734,0.01842602,-0.0041947234,-0.038990088,0.03630302,-0.0061122053,-0.042463727,0.20947504,0.011732549,-0.004374125,-0.033766955,-0.012936593,0.0057368386,-0.018864363,-0.028169684,0.02293618,0.016717367,0.021427764,-0.0017643934,0.007311135,0.056002952,-0.059868075,-0.0048959833,-0.0077591836,0.041870516,0.049257677,-0.01768967,-0.009006361,-0.0010826798,0.0005340392,0.021999799,-0.015080913,-0.02701726,0.015711756,-0.016515544,0.040129136,0.0031558373,0.028446961,-0.053341772,0.028522383,-0.05023866,-0.033520762,-0.04319313,0.027125703,0.012880227,0.025519403,0.0062218322,0.0070289713,0.011694909,0.02028437,-0.0270281,-0.0042156447,-0.0053505474,0.002574481,-0.006132517,0.04995697,-0.010830604,0.02564386,-0.07126123,0.037919708,0.011216878,-0.010217149,-0.018554779,-0.03554876,-0.030585548,0.0033923276,0.02263764,0.0012898475,0.0013956977,0.06610728,-0.008738885,-0.024587547,0.009943495,0.047902435,0.027799875,0.037369967,0.0156566,0.0008644824,-0.024871593,-0.028263353,-0.021012329,-0.026578695,0.027690455,-0.036424976,-0.0073627154,-0.04622591,-0.027614897,0.0020112114,-0.022526177,-0.033014845,0.022793414,0.033795893,0.0038888045,-0.009249423,-0.0091135,0.027266795,0.014056544,0.01103359,-0.0036603059,0.01796099,-0.019171394,0.04748589
