Rótulo,1,2,3,4,5,6,7,8,9,10,11,12,13,14,15,16,17,18,19,20,21,22,23,24,25,26,27,28,29,30,31,32,33,34,35,36,37,38,39,40,41,42,43,44,45,46,47,48,49,50,51,52,53,54,55,56,57,58,59,60,61,62,63,64,65,66,67,68,69,70,71,72,73,74,75,76,77,78,79,80,81,82,83,84,85,86,87,88,89,90,91,92,93,94,95,96,97,98,99,100,101,102,103,104,105,106,107,108,109,110,111,112,113,114,115,116,117,118,119,120,121,122,123,124,125,126,127,128,129,130,131,132,133,134,135,136,137,138,139,140,141,142,143,144,145,146,147,148,149,150,151,152,153,154,155,156,157,158,159,160,161,162,163,164,165,166,167,168,169,170,171,172,173,174,175,176,177,178,179,180,181,182,183,184,185,186,187,188,189,190,191,192,193,194,195,196,197,198,199,200,201,202,203,204,205,206,207,208,209,210,211,212,213,214,215,216,217,218,219,220,221,222,223,224,225,226,227,228,229,230,231,232,233,234,235,236,237,238,239,240,241,242,243,244,245,246,247,248,249,250,251,252,253,254,255,256,257,258,259,260,261,262,263,264,265,266,267,268,269,270,271,272,273,274,275,276,277,278,279,280,281,282,283,284,285,286,287,288,289,290,291,292,293,294,295,296,297,298,299,300,301,302,303,304,305,306,307,308,309,310,311,312,313,314,315,316,317,318,319,320,321,322,323,324,325,326,327,328,329,330,331,332,333,334,335,336,337,338,339,340,341,342,343,344,345,346,347,348,349,350,351,352,353,354,355,356,357,358,359,360,361,362,363,364,365,366,367,368,369,370,371,372,373,374,375,376,377,378,379,380,381,382,383,384
falso,-0.036766224,0.063965894,-0.07451572,-0.018775102,-0.09752701,0.057587456,0.062903084,0.13875179,0.0063558994,0.028081954,-0.01687996,-0.028937457,-0.023249244,0.03240807,-0.09509355,-0.08913549,-0.031191394,0.019141704,-0.05553117,0.051588167,0.0010421249,-0.0999368,-0.01823813,0.04466852,-0.036698405,-0.010459792,-0.068593465,0.036363944,-0.036385637,-0.07581189,0.018723939,0.14318831,0.048686124,-0.020253405,-0.018793972,-0.019372813,0.012438679,-0.025473796,0.048468597,0.052215282,-0.05543462,-0.03779199,-0.029837979,-0.071406536,0.057688218,-0.03774003,-0.029873334,0.043293763,0.0030898398,0.028175294,-0.011422148,0.061591785,-0.04232303,0.016857896,-0.04121122,-0.06343762,0.07020014,0.0019930562,0.015712487,0.053127866,0.01788945,-0.039228063,-0.10118224,0.035382345,-0.04104658,0.013615756,-0.0052664094,-0.032250848,-0.059596166,0.06634058,0.05493141,-0.0029525626,0.016049553,0.026029332,0.0016448307,0.015113176,0.02485577,0.043496974,0.033917204,-0.14700982,0.066315174,-0.032584134,0.009885972,-0.056254927,0.030386107,0.044427387,-0.041662417,0.007388995,0.10820146,0.038873162,-0.024877563,0.07709067,-0.056534946,0.0074169356,-0.02232065,-0.0020752288,-0.06861049,-0.11260739,0.055980485,-0.007969074,0.040989835,0.003027539,0.00982087,0.018085022,-0.092207745,0.03270096,0.059476633,0.033213276,-0.027076816,0.014056777,-0.05730696,0.0031402868,0.029651651,-0.06312099,-0.03871926,0.023653338,-0.02643229,-0.01810395,0.005172964,-0.049741875,0.025371308,0.009466605,0.019193185,-0.025999088,0.06482461,-0.07929712,0.048415348,7.546858e-33,-0.04874853,-0.0015551184,-0.02169775,0.038033005,-0.02854645,0.024979975,0.05307707,0.032016154,0.0004920372,-0.0013151866,-0.09038347,0.06253359,-0.030135741,-0.028929833,0.023568094,0.0021153574,0.123665154,-0.014406301,0.034673486,-0.058129203,0.05332936,-0.003173798,0.060955286,-0.053649064,0.044591516,0.056497585,0.03770215,-0.03757307,-0.103311315,0.07953423,0.059592523,0.0046652136,0.039994396,0.021607693,-0.014556708,0.0027109045,-0.04447398,-0.030830765,-0.011078146,0.012142898,0.06089474,0.055325463,0.0016909466,-0.047124006,0.02489906,-0.004745179,0.036846023,0.045889188,0.06937811,0.079947166,-0.0397633,-0.064878754,-0.09468507,-0.052422762,-0.020985676,0.011778562,-0.13919902,0.004816971,-0.006231936,-0.036762346,0.004171825,0.017762806,-0.06855867,-0.070206285,0.028509824,-0.04426401,0.07952546,0.006029617,0.03973406,-0.034342125,-0.00382953,-0.041924026,-0.024264067,0.019907761,0.0383545,0.0022386962,0.07069549,-0.037944477,-0.00818083,0.03654659,-0.09423186,0.036473654,-0.010676697,-0.009747874,0.1852135,0.0043800264,0.052846655,-0.009469863,0.01998853,0.025468184,0.06132217,-0.021146175,0.01067842,0.047755994,0.06358686,-6.314974e-33,0.0011534533,0.06699847,-0.07631044,0.10364303,0.012612181,-0.029879326,-0.030087586,-0.029780753,0.02349668,0.029786363,0.07378437,-0.09406778,0.023167744,-0.052270435,-0.06667739,0.022190673,0.013047814,-0.0564217,-0.049178306,-0.0014901601,-0.070540026,0.028204143,0.065165326,0.032881673,0.047049273,-0.015905194,0.082704455,-0.012454036,-0.05293505,0.053506795,0.047536846,-0.04281186,-0.014769626,0.065452695,-0.042325847,-0.093024105,0.17452721,0.022055378,0.00011476724,0.0052987062,0.045636896,0.10996654,0.04894443,-0.06301814,-0.04445269,-0.03319893,-0.033541366,-0.020473696,0.023939898,-0.058482666,0.111092575,-0.026745252,-0.062439363,0.011982786,0.0405404,-0.02915089,0.06849931,0.0062445505,-0.13124801,0.0024507276,0.07738443,0.008998414,0.07126957,-0.0022443945,0.10530981,0.056856886,-0.028124684,0.04160927,0.03845737,0.025821516,0.05869158,-0.11381982,-0.047613926,-0.019254878,-0.08628332,0.019561362,-0.06323795,-0.008872985,0.032359667,0.025150053,0.04032635,-0.0677625,-0.042628583,-0.002874709,-0.092711605,-0.11532475,-0.040730953,0.033090454,0.0399433,0.011697729,0.015163515,0.037708845,0.10211887,-0.012625423,0.05337679,-3.1485158e-08,-0.018908689,0.035620604,-0.038561173,0.07522745,-0.013747953,-0.024801334,-0.09536194,-0.022850703,0.0013038812,0.012502813,-0.028238438,-0.0023094767,0.026401728,-0.012166587,-0.045804292,0.024433684,0.017352518,0.04618548,-0.012565578,-0.037985086,0.026090035,-0.005098942,-0.045774683,-0.022586377,-0.019830188,0.006827043,-0.05229692,-0.052961074,0.098627836,-0.06930269,0.0339871,0.041812222,0.03762255,-0.065189056,-0.09927834,0.0012646094,0.0113703925,0.0070158895,-0.07002282,0.048498817,0.10883553,0.03743247,0.029160362,-0.027390799,-0.015890965,-0.045785923,0.013807952,-0.010618124,-0.05709306,-0.07295477,-0.026934115,-0.02986178,0.034159854,0.03458099,-0.02247176,0.051951624,0.03749357,0.012667229,0.009484967,0.020493485,-0.01184622,0.013942167,-0.03427964,-0.03759269
real,0.013228736,-0.004638869,-0.03173754,-0.03493028,-0.025439179,-0.013985154,-0.038454495,0.0706412,-0.04562791,0.087336294,0.019835273,-0.01843134,-0.08800768,0.02152685,-0.042966194,-0.03322607,-0.06769164,0.052216683,0.054844104,0.088786684,0.04542591,-0.06536004,-0.080421515,0.07717835,-0.11794709,0.10446979,-0.039496623,-0.027469825,-0.05718505,-0.057358842,-0.023929989,0.095421955,0.1280763,-0.07331933,0.06515671,-0.026490826,-0.0091876825,-0.000880595,-0.035614274,0.090578064,-0.014732233,-0.03320671,-0.049289387,-0.03208003,-0.08631989,-0.06549478,0.077339895,0.029763628,0.03737217,-0.05760452,-0.053748537,0.01162478,-0.07762337,0.01900967,-0.068916015,-0.060039144,-0.034804545,-0.06400551,-0.012149713,-0.016965002,0.036758404,0.01944421,-0.020398589,0.0054727583,0.04013093,-0.021774067,-0.010087813,-0.0209351,-0.004774518,-0.010155421,0.09969309,-0.026477145,0.044803213,-0.012926007,-0.08825708,0.075069316,0.04672188,0.05694479,-0.035767276,-0.10635564,0.048340455,-0.005819753,0.013425915,-0.069861025,0.06432824,0.035405412,0.004892161,0.0036703898,0.03689839,0.028059615,0.07221056,0.11753213,-0.023654373,-0.0047707683,-0.014535212,-0.060010254,-0.018187547,-0.022753181,0.05018847,0.031258,0.053051393,-0.0070373355,-0.03129395,-0.060727574,-0.013500401,0.017648408,0.0054374123,-0.0070566274,0.032706324,0.11205463,-0.12249499,0.026502052,-0.038102306,-0.013612503,-0.057495557,0.015618976,-0.083990686,-0.062106274,0.01513732,-0.031045761,0.018337516,-0.06569854,-0.034711216,0.0030035588,0.042340282,-0.013600837,-0.049462225,1.6825741e-32,0.012591003,-0.008325182,-0.0065684407,-0.02562116,-0.036337256,0.023453515,-0.07225332,0.0065117255,-0.040993176,0.008715257,-0.08999377,0.018624544,0.018978484,-0.065511525,0.057854548,0.008448511,0.034966175,-0.037199173,-0.021000097,0.0025704207,-0.06372374,0.08641799,-0.053385485,-0.014559693,0.011216791,0.12218991,-0.09100182,-0.14691387,-0.064757295,0.059226573,0.015435504,-0.09519521,-0.0037801529,0.04230503,-0.05504974,-0.04797882,-0.004593829,-0.07431412,-0.079878554,0.06537624,0.018846579,-0.011736938,0.009879198,0.068212815,0.035056524,-0.095916934,0.0587011,0.05344815,0.09990552,0.033055883,-0.008147814,-0.029513802,-0.033642374,-0.06682785,-0.0048872195,-0.0024283228,-0.103229746,-0.04972947,-0.018608991,0.011178173,0.05858464,-0.051836364,-0.009000825,-0.022909926,0.024019059,-0.028797518,-0.0033072901,0.07749607,0.14684917,0.01463351,-0.06409291,-0.008768717,0.012486477,-0.011331775,0.020039309,-0.011648749,0.10414306,0.050164208,-0.068968214,0.08360026,0.0040544244,0.05364914,0.022460336,0.036479376,0.080820985,0.1424326,0.0976106,0.088430904,-0.026043242,0.06778999,0.017987441,-0.011882791,0.01768773,-0.03963022,0.06729607,-1.5230694e-32,-0.017476205,-0.0052687,-0.02937587,0.001500835,-0.052103966,0.0042933105,-0.07310347,0.047887582,-0.065564945,-0.090845644,-0.010540014,-0.073122315,0.0867759,-0.064087704,-0.061538752,-0.008549459,-0.012230533,-0.08763123,-0.057738826,-0.015310061,-0.013455842,0.03893928,-0.009159886,-0.0419678,-0.09718812,0.014617091,0.029997798,-0.033446025,0.0031355454,0.038834043,-0.0023913642,0.053917065,-0.07520085,0.09053368,0.00089468114,0.024255527,-0.020938624,-0.03388529,-0.068262935,0.08100067,0.02918154,0.083979495,0.025932258,-0.059113942,-0.0745999,0.006272357,0.040878225,-0.00022920161,-0.0022961053,-0.048657093,0.07864737,0.0038750612,-0.108294874,-0.01362553,0.06863688,-0.037196867,-0.011644823,-0.051454302,-0.07086421,0.028584113,0.048992783,0.038220014,-0.035889786,-0.027515007,0.05377664,0.03329469,-0.025123132,0.02218269,0.010370965,0.10194652,0.035145614,-0.02882656,-0.05602212,0.03633184,0.010653014,0.08768468,-0.019297153,0.041283287,0.0064595533,0.040795323,-0.0183448,-0.07374957,-0.02278859,-0.011635705,0.019897847,0.061100543,-0.024756437,0.0026777973,0.0182738,0.0666811,-0.009763882,-0.007907925,0.07793544,0.025792431,-0.028874854,-6.359858e-08,0.026968565,-0.015371742,-0.017802136,0.045415986,0.041645594,-0.010022546,-0.0023644872,-0.027004099,-0.04670506,0.05823271,0.05031603,-0.0032766229,0.019055897,-0.022405727,0.016720915,0.04862085,0.045213863,0.03204839,-0.012727285,-0.04702995,-0.043109316,0.0049134674,-0.07997779,-0.06353791,-0.01282635,-0.0020275814,0.021804515,0.007082941,-0.006196428,-0.04170133,-0.008888072,-0.049651768,-0.00012425931,-0.09860517,0.045310345,-0.01843232,0.015119788,-0.008705607,-0.06860339,-0.06794425,0.13733886,0.015958179,-0.055730756,0.01976656,0.04960388,0.016156891,0.023189766,0.014206261,0.007210363,-0.030785456,-0.07247471,0.062983714,0.04620479,0.016094716,0.004235584,0.008483103,0.077822104,0.005186134,-0.006893559,0.0038693775,0.011487164,0.0072085075,-0.07389783,-0.006229146
real,-0.018538943,0.0014031029,0.014079748,-0.06382909,-0.012526929,-0.007630243,-0.023861792,0.06782131,-0.031860635,0.07301023,0.1035827,-0.09008692,-0.011990197,0.0254247,-0.037394542,-0.029420706,-0.031171542,0.03208928,-0.0066526392,0.09240946,0.03321033,-0.06018537,-0.07300484,-0.028375866,-0.093895085,0.013133593,0.036876965,0.049112245,-0.055139888,-0.032721296,0.025103556,-0.016063627,0.053156786,-0.031567723,0.03983561,0.0040470604,0.051844776,-0.06526841,-0.008695061,0.0033568577,0.0028184701,-0.011780592,-0.061772514,-0.03679328,-0.011673883,-0.045597486,0.080649205,0.020699825,0.0095076235,-0.046276625,-0.031844523,0.00334645,-0.049334705,-0.034033187,-0.04607006,-0.04158621,-0.032178164,0.010814833,0.035705414,0.04447255,-0.040512055,-0.01166942,-0.0010083186,0.0200262,0.042126596,-0.07169722,-0.06589512,-0.08567259,-0.02551168,-0.002554717,0.10298792,-0.050672498,-0.0048362627,-0.01999091,-0.123357445,0.01595279,0.039079648,0.16064055,0.024829993,-0.082423866,0.05515855,-0.055678915,-0.049070526,-0.056612533,-0.008187206,-0.024575535,-0.013550411,-0.060825456,0.054706573,0.039731167,0.04510971,0.06950677,-0.030632345,0.006088735,-0.060258914,-0.0135703795,0.029388437,0.052122388,0.0013848128,0.022397608,0.0064915647,-0.033929322,0.053459976,0.04431978,0.007164356,-0.01706664,0.0406319,-0.02092159,-0.00046894024,0.03700068,-0.09373455,-0.06448771,-0.0629784,-0.03799273,-0.042768676,0.032961987,-0.040107213,-0.08543324,-0.1216236,-0.016344601,0.029459009,-0.01829305,0.04666858,-0.050003953,0.028539041,0.022275018,0.068753116,1.05854706e-32,0.007487013,-0.0928908,0.02801797,0.035417944,0.007951239,0.08394686,-0.03323239,0.0024942074,0.041579418,-0.01892542,-0.060504556,0.028226757,-0.031713426,-0.016736405,0.07687498,-0.005418338,0.0014664312,-0.076964505,-0.0017418189,-0.025790421,0.021598145,-0.036272854,-0.003680583,-0.035079945,0.050933674,0.08918968,0.0013648234,-0.06886073,-0.04891944,0.04139192,0.012836152,-0.0116583,-0.028636718,-0.052401505,-0.0046130577,-0.012805738,0.0336098,-0.008018063,-0.028898695,-0.03986242,-0.029267516,0.005316554,0.040880546,0.03708246,-0.023803297,-0.075822465,0.044493888,0.025609659,0.16435313,0.008461538,0.045406237,-0.07631747,-0.057193905,-0.059514508,-0.018189901,0.054569162,-0.08753694,0.045198314,0.02093735,-0.019025946,0.01907691,0.018835792,-0.076814,0.05379187,-0.059714075,0.018039009,0.056144938,0.032078847,0.07801345,-0.05341388,-0.035238188,-0.050332073,0.046003457,-0.00020908755,-0.033550374,0.013620404,0.037483387,-0.01709176,-0.06386273,0.087573305,-0.03517963,-0.01601319,0.10689806,-0.015947342,0.044426475,0.07246419,0.025594745,0.053083714,0.080477,0.085480586,0.004079071,0.012798448,-0.02908402,-0.002377225,0.054184876,-1.3041103e-32,-0.012421294,-0.010543469,0.016275337,-0.046085153,0.044776786,0.009031773,-0.03697256,0.043726984,-0.0061503365,-0.18332428,-0.08103467,-0.01832205,0.073031396,0.03877426,-0.070225134,0.048474588,-0.055066634,-0.073553294,-0.07217347,-0.053885363,-0.014534746,0.033371504,-0.002427867,0.013312665,-0.08896494,-0.039692845,-0.023620632,-0.0005069679,-0.072323166,0.007785426,-0.0073168674,0.034610603,0.04382861,0.1763766,0.029003052,0.024596168,0.12541205,0.015118535,-0.034833714,0.12987503,0.017006371,0.04934547,0.04379603,-0.054381195,-0.07211757,0.055380795,-0.015707579,-0.123974234,-0.03250891,-0.022762297,0.02759507,0.05260286,-0.12557386,-0.0006856778,0.026032973,-0.029871369,-0.014956128,0.0071911374,-0.07210595,0.0037823082,0.089615844,0.05247574,-0.029146487,-0.052827414,0.013994173,0.03358977,-0.06499811,0.028156908,0.07084006,-0.047371794,0.0003857053,-0.16813378,-0.10789506,0.018110475,0.053631302,0.026597107,-0.07040609,0.071210936,0.007980581,0.0012716606,-0.03830392,-0.005344689,-0.0639577,-0.030836688,-0.0076203835,0.061869074,0.015662082,-0.1584067,-0.0004906117,0.0058116214,-0.011580922,0.00792584,0.0029294856,0.05764833,0.0044084406,-5.898785e-08,-0.0016797385,0.014215117,0.042844135,0.06852804,0.024483476,-0.017895062,-0.0062964777,-0.00046434347,0.059943873,0.025950186,0.030360175,0.037221216,-0.10184833,-0.049517702,-0.05428105,-0.018382775,-0.012233541,0.01396044,-0.012031382,0.0066534104,-0.020859988,0.034173634,-0.10079143,-0.0073108347,0.05878104,-0.05765632,-0.06767884,0.011493941,-0.008012521,0.037547257,-0.028573835,0.002910257,-0.030729845,-0.08699276,-0.0035882562,0.007853386,0.03474747,-0.023520837,-0.089372896,0.004731896,0.07162035,0.030312534,0.013518489,-0.06659138,0.023161385,0.04835566,-0.011973699,-0.015047204,0.088608466,0.012230451,-0.07741705,0.04047219,0.036542892,0.024183698,-0.045603227,-0.007848486,0.01692223,0.039071947,-0.055241,-0.029648941,0.03509671,-0.0029390757,0.020372028,0.05060474
falso,0.036051575,0.0648352,-0.09107991,0.014135521,-0.03265086,0.033030573,0.03286342,0.1231092,-0.025190681,0.06630408,0.032945666,-0.042153906,-0.025380561,-0.020820662,-0.02829693,-0.011209101,-0.001781519,0.053116437,-0.021635853,0.048237216,0.08154619,-0.06057467,-0.06724692,0.06768754,-0.016416116,0.015820716,0.036939137,-0.013806839,-0.063341565,-0.02076929,0.029907517,0.010265467,0.123644456,-0.05246272,0.042594045,-0.016784046,0.06305706,-0.068725966,0.03359782,0.0038823942,-0.04313195,0.025979478,-0.013203953,-0.054366663,-0.009358292,-0.10128699,0.025055371,0.13790569,0.045746963,-0.084547795,0.008487206,0.045294374,-0.022613663,0.0034612915,0.00093705254,-0.025457403,-0.02097224,-0.026616888,0.018201798,0.06178553,-0.032985184,-0.063110664,-0.003304132,0.024096956,-0.0072739827,-0.04083061,0.06931196,-0.11554484,-0.051123265,-0.041520685,0.041246604,-0.0031412619,0.04932623,-0.06472468,-0.0055114087,-0.048076358,0.036514353,0.104270115,0.009410194,-0.055521585,0.067196235,-0.050755452,-0.071477585,-0.029109357,0.018454736,0.015051801,0.05318585,-0.05858949,0.07194465,0.0498018,0.0032698868,0.07049554,-0.0061055818,-0.039743856,-0.050990418,-0.02231947,0.005954003,-0.087603144,0.02381556,0.043664437,0.06521218,-0.0064517646,0.049264845,0.030198934,0.004924999,0.06688065,0.00067477685,-0.056808982,0.015822021,0.08476094,-0.06819178,-0.063762136,-0.04555881,-0.015320538,-0.032777335,0.0070580286,-0.003994538,-0.05630482,-0.05395672,0.0040551247,0.05163076,-0.07710317,0.00064069964,-0.07976891,0.055209484,-0.05837167,0.007359249,5.1140686e-33,-0.0056988094,0.0071417745,-0.02450236,0.010383215,0.011935623,0.04303972,-0.04442041,0.007586268,-0.016090985,-0.046432793,-0.010831821,0.016582608,0.006652578,-0.053366736,0.08766355,0.035811912,0.029027658,0.027579797,0.060944885,0.0045942143,-0.14014539,0.021796815,0.025677016,-0.03797835,0.017005436,0.09634784,-0.0021484839,-0.14690419,0.0284545,0.039219905,0.034180045,0.01991336,0.0063656336,-0.00483243,-0.023998687,-0.037433684,0.037211195,-0.01570747,0.03134348,0.0014659043,0.012812799,0.043507166,-0.0065331254,0.047875118,-0.0044321404,-0.046313908,0.06528673,0.03275565,0.102499016,0.07329957,-0.036975726,-0.00611215,-0.15269266,-0.03313721,-0.017339582,-0.051100977,-0.12989601,0.09246604,0.04478609,-0.047014628,0.042520333,0.026128162,0.008406652,0.05029553,-0.022030098,0.040202342,0.0043002246,-0.020744832,0.16763343,0.0028114174,-0.040321164,-0.027650269,-0.014630752,0.030323908,0.022699941,-0.018100034,0.13888061,0.026294831,0.011755566,0.0068602622,-0.07750583,0.039430372,0.048262224,0.006974124,0.09096196,0.095901884,-0.010753662,0.08959123,0.0009659157,0.030186102,0.052760854,-0.028709318,0.0036587692,0.01036498,0.06748976,-5.866593e-33,0.042542145,-0.0089956205,0.037821874,-0.037878245,-0.020956103,-0.042902745,-0.11471765,0.035404153,-0.029379062,-0.013910571,-0.061341103,-0.076487266,0.13334458,0.039559644,0.008652752,0.05901276,0.043041844,-0.10769296,-0.04622466,-0.07091273,-0.08273097,-0.0108767925,0.08032644,0.01870894,-0.024613552,-0.07184746,-0.021611605,-0.06580608,-0.043072164,-0.08545877,0.008818572,-0.056868758,-0.033478465,0.017623408,-0.053289145,-0.0030396085,0.04685168,-0.022486228,-0.0003480751,0.09335232,-0.019686148,0.06511235,0.04371479,-0.06438699,-0.08701373,-0.050678577,-0.062270854,-0.0652847,-0.048261907,-0.08760614,0.050199077,-0.018195523,-0.036090795,-0.074816756,-0.030607138,0.02545086,-0.012389846,0.054888815,-0.047868688,0.007379626,0.038633786,0.016477812,-0.10913918,0.02514863,0.044760596,0.015271865,0.021482805,-0.014885849,0.037462752,0.013557754,0.124320164,-0.056775983,0.037847467,0.09409653,-0.0094129825,0.010507215,-0.030625017,0.034533355,0.10268481,0.062905006,0.009906136,-0.01887018,-0.025733132,-0.08493598,-0.023513015,-0.09877871,0.0643743,-0.049502466,-0.083199434,0.046195462,-0.03151353,0.008578928,0.025109896,-0.06284311,0.013853382,-3.672702e-08,0.060159173,-0.0506482,-0.018765444,0.04072323,0.08927797,-0.010941002,-0.032325834,-0.023076424,-0.062420834,0.035923164,0.036166426,-0.050045654,0.012479874,0.008801231,-0.05274502,0.037399746,0.008475889,0.058889445,-0.01832342,-0.04699714,0.020459726,-0.00057399523,-0.08910742,-0.0038532368,-0.016762314,0.0040440564,0.014853039,0.009238194,-0.0831314,-0.012896224,-0.02194298,0.025691196,0.02328426,-0.019194875,-0.074314095,0.028139956,0.054466754,0.010150964,-0.05173974,-0.015115436,0.102495104,-0.009256808,-0.027470741,-0.028316291,0.023179013,-0.009025746,-0.009652698,-0.028457385,-0.0049549537,-0.0671559,-0.004920699,0.029518576,0.029955572,0.024992116,0.0007793519,-0.044232234,0.03706807,0.026781278,-0.07547652,-0.006874934,0.003936418,0.10280167,-0.0028392805,0.020257635
falso,0.070730485,0.021604626,0.044644978,0.049321357,-0.04749968,-0.073754415,-0.012388225,0.0077465856,-0.04358334,0.016175492,0.080207564,-0.05180083,0.0004909976,-0.046920437,-0.07286758,-0.0024504096,-0.023232602,0.014210523,0.011578978,0.08043169,0.076828375,-0.059519805,-0.059115466,0.018688211,-0.021651814,-0.018173866,0.021368528,0.038137566,-0.033582002,-0.040202763,0.053912222,-0.0060685137,0.036592837,0.026793228,0.012785007,0.038460836,0.09175288,-0.031439718,-0.06416611,0.037725043,-0.004841664,-0.012795074,-0.014509694,-0.12845363,-0.022842495,-0.07056747,0.10958835,0.019094078,-0.028354213,-0.033548016,-0.07344205,0.028223813,-0.09268982,-0.044686873,0.054078978,-0.021152394,-0.01455782,-0.022410935,0.00010414314,-0.049718384,0.004406762,0.028113017,-0.0011545973,0.008443861,0.021518787,-0.084916845,0.078249045,-0.026286349,-0.08957661,0.010928039,0.06193303,-0.06651972,0.010570617,-0.009863197,-0.10056913,0.07484268,-0.027206028,0.055866163,0.071591154,-0.07084865,0.044176307,-0.053093463,0.053533565,-0.02275503,-0.066689126,-0.010844332,0.01193731,0.008867235,0.009873215,-0.019376876,0.046364214,0.062193632,-0.019681022,0.01472038,-0.019005667,-0.017946534,0.005002579,-0.045622025,-0.005182835,-0.019119887,-0.056160137,0.04303603,0.096122764,0.022903763,-0.070835575,0.02728345,-0.039032206,-0.027513048,0.016416727,0.08287152,-0.11173419,-0.01978163,-0.12033874,0.0013227859,-0.038986955,-0.017721897,0.046253618,-0.0335029,-0.023850366,0.06304001,0.070821255,-0.06875015,-0.05508066,-0.053064577,0.005097798,-0.056684155,0.08804766,1.4447549e-32,0.033236668,-0.07949122,-0.024143552,0.03151312,0.011731692,0.0201099,-0.035458736,0.014951036,0.03775773,0.011563055,-0.024715958,0.0058268243,0.031734344,-0.0008436527,0.0572695,0.05311892,0.025857994,-0.040467378,0.0030230377,0.005314034,-0.002500116,0.048199795,0.042428866,-0.041887764,0.020688616,0.013073213,0.011844975,-0.08047311,-0.011011272,0.019657286,0.032424055,-0.01139729,-0.027748514,-0.1155742,-0.053680208,0.014063797,-0.015636373,-0.024075678,-0.058122545,-0.037155088,-0.077531606,-0.023551926,0.07630021,0.00642095,0.014572528,0.045153446,0.07447507,-0.061065543,0.036841545,0.07282849,0.012466039,-0.06746053,-0.09407006,0.031867187,0.064298555,0.005076612,-0.0939929,-0.02013175,-0.021562394,-0.06478685,0.04596309,-0.04173632,0.031295065,-0.008764833,0.0014289907,-0.042299516,0.0056232335,0.09113483,0.07051472,0.013052443,-0.021000445,-0.01610803,-0.09277103,0.06112863,-0.046318546,0.008908158,0.03491486,-0.037411287,-0.07220705,0.06980221,-0.045385167,0.02633994,-0.006831822,-0.018597439,0.12848945,0.0736407,0.04646576,0.020633949,-0.042244792,0.09610613,0.027194642,0.08409307,0.0583263,-0.03776318,-0.008880211,-1.5786538e-32,-0.06862156,0.01011572,-0.019521613,0.015778832,-0.03167034,-0.00807853,-0.033887006,0.0024232825,-0.01672874,-0.12433322,-0.14568259,-0.0993292,0.17466265,0.024722213,-0.074356735,0.025897287,-0.0070511247,-0.10000266,-0.06710412,-0.026407657,-0.051245064,0.08224469,0.008269474,0.010960414,0.005486936,-0.021974795,-0.012956298,-0.04828969,-0.100261904,-0.036672007,0.060746238,0.094528094,0.024669906,0.08552817,-0.009880135,0.050195288,0.044971153,-0.028730521,0.0032685532,0.07470199,0.06372346,0.05725298,0.011776779,-0.039163183,-0.04704703,0.02237013,0.027880913,-0.14364122,0.027462613,-0.101977766,0.09075721,0.03426152,-0.08965639,0.00058006187,0.13018622,-0.029741686,-0.018563397,-0.04955013,-0.10006267,-0.0054564476,0.06914428,0.023056746,-0.048073847,0.0030351775,0.031439807,0.018923152,-0.019998448,-0.048436232,-0.013389675,0.03303751,0.05114589,-0.085394785,-0.11477426,0.04564378,0.012206103,-0.008349959,-0.089356974,0.059077885,-0.008403785,0.017470319,0.041806176,-0.030319693,-0.06416086,-0.037094537,-0.01092811,-0.07968494,0.0043414426,0.00068090047,0.039728504,0.020751968,-0.032781575,0.007264186,-0.015851904,-0.04136711,-0.037409663,-6.2777616e-08,0.050040476,-0.036603037,0.030325726,-0.014817239,-0.05232558,-0.05234018,0.06738721,0.040595505,-0.015368181,0.0831181,0.008600421,0.0283864,-0.034157645,0.011143374,-0.011471204,0.0020336234,0.043000504,0.037530594,-0.0044431253,-0.025985423,0.03558389,-0.038376857,-0.119758785,0.017008768,0.030437134,-0.04045702,-0.02304,-0.019800164,-0.02546833,-0.012958654,-0.031761885,-0.0057508624,0.03216661,-0.047126986,-0.06488741,-0.017305767,0.07892818,0.06437093,-0.022217816,-0.023436163,0.12076981,0.0035395836,0.025054576,-0.033105217,-0.018974591,0.005702692,0.022120623,0.01036525,-0.01649314,-0.013895182,-0.01752106,0.02385124,0.07001518,0.05448415,-0.045281503,-0.048552696,0.05120005,0.12905861,0.020270813,0.005452066,0.01627473,0.035986662,-0.036129173,-0.047486126
real,-0.04523875,0.022928245,-0.038877144,-0.10387418,-0.024022123,-0.07982986,0.020106314,0.041976202,-0.0026848086,0.0025144718,0.105403945,-0.035491657,0.026391828,-0.023641458,0.0071175997,0.031997528,-0.014259591,0.0117694205,0.011954243,0.06648059,0.12344082,-0.003618813,-0.07194411,0.056484494,-0.027517412,0.009246894,-0.037693754,-0.0325079,-0.030608157,-0.029164447,-0.025971359,0.051896907,0.09937837,0.014852867,-0.002061376,0.027477663,0.03467708,-0.042626847,0.0304267,0.09883861,-0.05211278,-0.011263998,-0.11413476,-0.10222914,-0.032210633,-0.06303464,0.09977254,0.019153617,-0.05175104,0.006877732,-0.0778128,-0.018145151,-0.027391704,0.0193479,0.008937428,-0.07538547,-0.056873035,0.015377469,0.04743575,0.006128,0.0076026125,0.033547744,-0.018379785,0.072725736,0.0073870025,-0.0066195945,-0.018649668,0.047490276,-0.043557253,-0.011142105,0.056490466,-0.036521785,0.029171765,0.057741687,-0.0658126,0.09156283,0.06450593,0.033109535,-0.008796114,-0.097309805,0.024550484,0.07842455,0.036796577,-0.057562374,0.014881548,0.00885029,-0.003518542,-0.00988396,0.0585926,0.054998018,0.03857311,0.049985737,-0.04271866,-0.025387596,0.07944517,-0.047320925,0.0018042285,-0.09652115,0.0017047647,0.026195208,0.059664086,0.0060846508,0.04996161,-0.011876724,-0.0650758,-0.0011496953,-0.059193358,0.010767632,0.03745527,0.14464574,-0.08080271,-0.054696072,-0.04634505,-0.11354799,-0.069409534,-0.048579726,0.0014312495,-0.047274407,0.04345599,-0.05899193,0.036496382,-0.05013354,-0.05073355,-0.035758622,0.08437402,-0.02645595,0.00042586008,1.08614855e-32,-0.03732738,0.015680391,-0.058332093,-0.012306984,0.033591934,0.01508354,-0.037155624,0.0364073,-0.008241853,0.021042282,-0.093341775,0.035010736,-0.022578435,0.026116796,0.060208146,0.004764906,0.03420133,-0.020752259,-0.009343915,0.01572286,-0.0030243294,0.030883666,-0.018206257,-0.058819085,-0.035059378,0.091462575,-0.013560624,-0.12389368,-0.024573546,0.048915252,0.034562998,-0.0019308554,-0.002048698,-0.0010843974,-0.024545126,-0.07405522,0.016710045,-0.04059166,-0.04653318,-0.0656499,-0.016527982,0.06391125,-0.019378215,0.038732342,0.05267679,-0.004349486,0.040771037,-0.033569466,0.14711389,0.016020935,-0.0044883005,-0.043912183,-0.059371915,-0.0201058,0.046559237,0.03787295,-0.14937203,0.003350911,0.02443263,-0.04045245,0.007868814,-0.05230047,0.033243883,-0.037978556,-0.029821156,-0.07082918,-0.028591132,0.0015485536,0.098301284,0.048473813,-0.069348,-0.033898056,-0.057750553,-0.012395618,-0.055079397,-0.007666719,0.010679467,-0.046020888,-0.013539082,0.05074802,0.033459663,-0.040011372,0.08939884,-0.03691273,0.037208065,0.109978065,0.057562277,0.025319593,0.0033240546,0.14181732,-0.0025936342,0.06267702,-0.09100445,-0.024977652,0.0391336,-1.0949016e-32,-0.044687327,-0.016510766,-0.036341455,0.010066177,-0.045120798,-0.019718755,-0.048373353,0.0191618,0.04421952,-0.057385355,-0.07406721,-0.030590076,-0.0003573349,-0.045486707,-0.03551714,0.04548197,-0.018909631,-0.034088336,-0.08552993,-0.05229981,-0.06579365,0.087064944,-0.030929409,-0.03809098,0.019818738,-0.029080607,0.040111136,0.03530607,0.02903152,-0.02536663,-0.015201615,0.012451075,0.015297637,0.08958082,0.0135713415,0.065977864,0.034548845,0.04425872,0.006827164,0.039595447,0.057537086,0.102467835,0.03752093,-0.05862027,-0.061935958,0.07039362,-0.0817502,-0.054140236,-0.0239321,0.014364153,0.14847793,-0.0076080523,-0.006970127,0.0014631139,0.03951259,-0.08831582,-0.0093135135,-0.07726137,-0.13852185,0.019748468,0.03592027,0.04195896,-0.07456841,-0.063256316,0.10970442,-0.030857753,-0.039110295,0.0038661042,-0.05047502,0.019664481,0.11655832,-0.09576171,-0.07563699,-0.06312802,0.01995232,-0.012977362,-0.046822738,0.039235733,-0.028155105,0.027631791,-0.040483776,-0.0013843487,0.028182227,-0.0026792046,-0.03478423,0.0051974086,-0.045713153,0.076927796,-0.023765989,0.06784521,0.014189519,-0.005853256,0.035414726,0.06035357,0.02920616,-6.728822e-08,-0.015070917,-0.10056044,-0.0064487564,0.0010399376,0.02523138,0.029642964,0.020073976,0.013638337,0.044515654,0.03471089,0.030077143,-0.00013189178,-0.10399113,0.05828862,0.008244035,-0.022774361,0.027501183,0.020414598,-0.04036284,-0.059048317,0.0020737443,0.0023127957,-0.113527566,0.010464594,0.057779983,-0.017578814,-0.049385265,0.006590101,0.004550472,0.018855374,-0.062135074,-0.013189964,0.027959535,-0.069066904,-0.057408586,0.0326044,-0.009554588,-0.00987822,-0.030449567,-0.009714534,0.14952986,-0.016805064,0.061185446,-0.061813947,-0.03107271,-0.0050310525,0.016283872,-0.0057231747,0.05163521,0.0024712747,-0.036146358,0.015115685,0.08310503,0.040158525,-0.051696453,-0.08812167,0.020422315,0.0063349195,0.06160942,0.027603306,0.08732177,0.061020676,0.024234632,0.008961984
falso,0.061123967,-0.032862432,-0.017601786,-0.037707854,0.024541447,0.04463811,-0.010052706,-0.013617058,-0.02878308,0.012427367,0.093438946,0.03248767,-0.015308695,0.004570091,-0.009927308,-0.03187339,0.017879436,-0.06725106,-0.0345718,0.032054164,0.033317562,0.016743165,-0.04839813,0.0794766,-0.07317622,0.04508328,-0.020615047,-0.03702535,-0.01128419,-0.05923267,-0.09196892,-0.040672477,0.07219264,0.052903086,-0.034920342,-0.033634894,0.040814914,-0.08144203,-0.028480995,-0.07313502,0.0452824,-0.0046800417,-0.01434976,-0.045711886,-0.00032266328,-0.050521933,0.047257695,0.059969526,-0.07422998,-0.11403497,-0.013274201,0.04672617,0.0023729424,0.023042968,-0.02638192,-0.07616232,-0.0038947964,0.070104726,0.043537196,0.08504605,0.0063601052,0.01618315,-0.012250367,0.03482374,0.09574525,-0.04164665,-0.004415081,0.0318745,-0.118090644,0.10047715,-0.05217566,-0.040315114,0.08123119,0.07761932,-0.016593875,0.0050506685,-0.017838567,0.064070605,0.086067304,0.004344719,0.0791727,-0.059169568,0.011431336,0.016436202,0.0678266,-0.083386764,0.07115182,-0.04674435,0.07386076,-0.0008506663,-0.008664,0.0713459,0.18178211,0.060598496,0.016571868,-0.017350659,0.10518898,-0.049051005,-0.022673717,0.034440972,-0.03226306,0.020801937,-0.051404957,-0.020790152,0.012537848,0.0043625147,-0.048750423,0.0006104987,-0.037570454,0.03395964,-0.07694489,-0.017231172,-0.042427983,-0.044319533,0.020012882,-0.020834949,0.0622022,0.03151343,-0.035517275,0.038868576,-0.023121066,-0.07434416,-0.05474264,0.04666368,0.014401818,0.022226697,-0.057256076,-6.700518e-33,0.042942066,-0.021447122,-0.040901892,-0.017909791,0.031686407,0.031597883,-0.09728446,0.0394976,0.011748776,0.07980778,0.0699626,-0.014694836,-0.037070785,0.015564497,0.11531773,0.044294998,-0.004859721,0.0355936,-0.023867248,0.04577502,0.054579552,0.034548037,0.02666388,-0.013723405,-0.005500693,0.047259454,-0.08253594,-0.093161404,-0.0060761743,-0.0080509065,-0.06494284,-0.026476705,-0.0015569546,0.0038651528,-0.000874906,-0.043491587,0.06188766,0.040917158,0.0027714227,0.060892455,-0.041525397,-0.014701043,-0.029532732,-0.033726633,0.075630486,0.039392855,0.06949568,-0.094352275,-0.013744058,0.06123369,-0.030921435,-0.017811323,0.00950261,-0.04534118,0.07089723,0.046649013,-0.092295334,0.03946497,0.028317796,-0.095297575,-0.00025841244,0.026994376,0.04355665,-0.015212231,0.059012853,0.010400738,0.018185392,0.020058583,0.009267986,-0.06307447,-0.06627677,0.060132515,-0.008519393,0.04216054,-0.062417787,0.0029254348,0.031007336,-0.011686474,-0.0063115926,-0.027946217,-0.007439634,0.0604092,0.13162415,-0.06183031,0.0038682586,0.06033309,0.018955193,0.015218081,0.0048733116,0.09810359,-0.10291045,0.02564512,-0.020405082,0.018988492,0.018539438,2.2946985e-33,-0.102782026,-0.13442275,-0.057945963,0.04384134,-0.07449099,-0.019906072,-0.058910683,0.07999108,-0.017180277,-0.007092779,-0.11382723,-0.078323014,0.077499025,0.022863783,0.048813704,-0.034437843,0.028780408,-0.019106193,-0.09169187,-0.026473602,0.009430337,0.03575605,-0.036245946,0.07259465,-0.049166214,-0.05459055,-0.013647752,-0.10769104,0.021102568,-0.077517755,0.011580388,0.08503077,-0.02107916,0.063237436,-0.023728669,-0.017372044,-0.0727824,0.018403023,-0.020675234,-0.053549636,-0.020200752,0.03703976,-0.0915813,-0.022862826,-0.052426193,-0.06562836,-0.029681101,-0.04657137,0.046289008,-0.030224077,-0.018639548,-0.06344896,-0.033152595,0.044079978,-0.036828827,-0.006040845,-0.030757157,-0.029475892,0.03540654,0.022492891,-0.008618118,-0.028570708,-0.14633317,-0.011271085,0.073469214,-0.0008522602,-0.08025012,0.063423164,0.08990535,0.017417887,0.071557485,-0.08448589,-0.10168623,0.02172998,0.078013025,0.063972756,0.008545928,0.07518017,0.023057854,0.027098771,0.11267424,-0.013066186,-0.007898866,-0.023468912,0.012197987,0.060523354,0.059769053,-0.07368395,-0.0040007154,0.023263846,-0.046194687,-0.042733252,-0.08521346,0.015126305,0.0108287465,-3.116072e-08,0.010462533,-0.08835828,-0.015164498,0.06470907,-0.014404627,0.07375214,0.03234695,-0.03410323,-0.016557347,0.047556203,0.013727267,-0.033037093,-0.011894052,0.017191462,-0.06470532,0.047976717,0.0040704026,0.088499255,0.0019776172,0.06851302,-0.0742894,0.0051106354,0.044843618,-0.06341469,0.022841701,-0.030444374,-0.0103484,-0.06300464,0.01820605,0.05386687,-0.042500954,-0.051567633,0.017705293,0.05782747,-0.08792189,0.041372553,-0.044403914,-0.0020052171,-0.051053476,-0.027680518,0.051787928,-0.018121423,0.059318386,-0.018336395,-0.009961247,-0.036012173,0.008912922,0.033445068,0.03880268,0.004361706,-0.057207566,0.01127714,0.0047107884,-0.019772582,0.05654482,-0.040269736,0.08612823,0.05764721,-0.08120171,0.043302797,0.006708254,-0.010782339,0.019748682,0.000837684
falso,-0.002426652,0.086731434,0.08528365,-0.046649136,0.00084908796,-0.066118635,0.09407674,-0.023159297,0.034512896,-0.067559086,-0.038644284,-0.06091264,0.00024586255,0.023684023,-0.0013669272,0.010028577,-0.0074734823,0.04317593,-0.038560584,0.063943245,-0.053387683,0.0525503,0.00032788722,-0.034138564,-0.0016632834,0.016174398,0.022965299,0.04587267,-0.07525928,-0.0030752297,0.0014855323,0.07078035,0.008250887,0.04693946,0.081796035,0.038228713,0.027790952,-0.059765533,0.1303114,-0.031141663,0.036574844,-0.076612964,-0.051978525,0.11584947,0.006791859,0.0747522,-0.006434804,-0.04930772,-0.003267788,-0.0029548383,-0.054084755,-0.047354948,-0.09725233,0.04180627,0.043619428,0.061250065,0.071130164,-0.057700288,-0.038446568,-0.04281408,0.05048585,0.016377367,-0.004647445,0.07187982,-0.004813653,-0.023560723,0.028049521,-0.0870293,-0.038014222,0.01785723,0.044072326,0.095043175,0.04186636,0.07831998,-0.082131684,0.0056833103,-0.01572917,-0.020990314,0.034688793,0.008185364,-0.05519895,-0.0041985754,-0.034893718,-0.051551554,-0.05575433,-0.04505281,0.014589214,0.028077217,-0.01781205,-0.03742376,-0.018920878,-0.010505419,0.06120986,-0.021835359,-0.038883727,0.019986445,-0.008280717,0.028570125,-0.027390065,0.0727901,-0.005412416,0.019547464,-0.02502427,-0.13125378,-0.10987005,0.044072933,0.01235865,0.09550458,-0.02607433,0.0032475607,-0.02690569,-0.050939813,0.018207826,0.08561604,0.06220905,0.054142203,0.030256564,-0.0062516504,0.073513694,0.040266443,0.06480796,0.04893244,-0.045541007,0.03331276,-0.0073837056,-0.108716875,0.00977667,-4.6802315e-33,-0.025799606,0.026853146,0.036463503,0.028763674,0.021116458,0.028971277,-0.0053070076,0.025907801,-0.024865242,0.003365585,0.020377785,-0.081229664,-0.060323805,0.021669833,-0.06787566,-0.084556304,-0.0040385113,0.0046188314,-0.044765323,-0.0052980236,-0.014909696,0.040500056,-0.024943221,0.124013625,0.0060460214,-0.11730381,0.049837314,-0.05565188,-0.046484336,0.008387259,-0.029312171,0.019932797,-0.03655445,0.050434925,-0.021546852,-0.068208344,-0.008387108,-0.00070051895,-0.0943638,-0.012631531,-0.07589366,0.03750956,-0.044457827,-0.050593365,-0.0016321909,-0.013751879,0.076936476,0.012645719,-0.016988104,0.0481059,-0.008341864,0.023861684,0.07403559,-0.07476977,-0.04534614,0.01688959,-0.049220234,0.0030737102,-0.03407785,-0.026883163,-0.023055676,0.002028406,0.012235584,-0.0380718,-0.021237213,-0.00227222,0.09380436,-0.04922189,-0.024224492,-0.036336157,-0.07740786,-0.069679156,-0.04552905,0.09304023,0.023281299,0.013319414,-0.043200813,0.052879773,-0.048305348,0.025097702,0.052904993,0.021827048,-0.061125133,-0.0018325283,0.078483604,0.034855712,0.027176274,-0.045860182,-0.0024008106,0.0793157,-0.14834578,0.02850988,0.014747975,0.045598917,-0.07469022,1.6272712e-33,0.0022611069,-0.060463242,-0.009161762,0.025637241,0.010691127,-0.089193255,0.009609025,-0.0496851,0.049054008,0.10472642,-0.030347288,-0.064721584,-0.04553693,-0.044802554,-0.01883581,-0.004535924,0.08647744,0.07824235,-0.0020058847,0.06298045,-0.05403128,0.08131355,0.018772187,0.06779274,0.02157521,0.007077858,0.080504514,0.027260086,0.07949333,0.09470929,-0.012571037,-0.089097746,-0.11357347,-0.021859892,-0.023652984,-0.030174667,0.024862844,0.0025308658,0.03387291,-0.09363793,0.028279327,0.01737593,-0.004659839,0.03985935,-0.0032418622,-0.04089256,0.12204934,-0.053531125,-0.09002276,0.021957096,-0.008114944,-0.011277573,0.021388268,-0.024877394,0.055440243,0.0029432308,0.14985985,-0.081575334,-0.028367126,-0.008633642,8.890125e-05,0.032776427,0.044242345,-0.027546035,0.10062074,-0.074019365,-0.008931387,0.070928305,-0.0037226547,-0.03377837,0.014735588,0.005623519,-0.027273856,0.035629507,0.13750668,0.020309076,0.0148175685,0.0037211853,-0.012854511,0.067654885,0.06253143,-0.048060097,-0.03776477,-0.07705868,0.044869978,-0.028921846,0.053871125,0.055729512,-0.038688865,-0.03472511,-0.035545774,0.05113409,0.08025361,-0.02023047,-0.0045275306,-2.3121626e-08,0.11496331,0.04395224,-0.033984296,-0.029510735,0.052420538,0.037680686,-0.11022865,0.03366512,0.008000542,-0.06405064,0.08003481,-0.021970967,-0.02456188,0.031106258,-0.026556125,-0.02391981,-0.090574324,0.023784045,-0.049126096,-0.007819562,-0.044082012,0.0028842152,0.027887234,-0.02214672,0.06953122,0.07728635,-0.050046362,0.034151547,-0.048128687,0.0014040341,-0.008260952,-0.036902416,-0.12655987,0.028311195,0.02049813,-0.100218,-0.009826131,0.051646333,0.016474716,-0.0065505775,0.032056686,0.05803298,0.06450824,0.058199484,0.014196104,-0.04787549,-0.0019940196,-0.047055043,-0.06570716,-0.04089577,-0.03520614,-0.008778787,0.0841042,0.0055327206,-0.014109805,-0.054559793,0.01784228,-0.00708905,-0.038595065,0.038169894,0.06432496,-0.02156701,-0.043284826,-0.058025684
falso,0.012031384,0.06610957,-0.101254776,-0.09907341,-0.046957586,0.01710088,0.0019208271,0.11261767,0.07041832,0.04542171,0.08866744,-0.083807416,-0.05058227,-0.006315207,-0.06981426,-0.08502755,-0.08681945,0.056612775,0.05746912,0.05204318,0.017540844,-0.023786172,-0.052661993,0.026430983,-0.076705955,0.06551006,-0.013831408,-0.020152463,0.012752696,-0.013448721,0.05574121,0.08102039,0.104934625,-0.041345,0.019108986,0.014639772,0.03349676,-0.067810684,0.013643317,0.14229266,-0.06458992,-0.055230375,-0.089553066,-0.03675398,-0.0026127754,-0.03945736,0.0017452389,0.07362759,0.0057280594,-0.018678535,-0.04399054,0.0051012337,-0.06739341,-0.037041046,0.00048073655,0.01517642,0.042377107,0.058614474,0.027549036,-0.009791529,-0.011316669,-0.021398399,-0.050120126,0.023736106,0.044319663,0.017476955,0.022404443,0.006719505,-0.08853007,0.080770835,0.10275611,-0.0016663237,-0.034158595,-0.014142099,-0.05765692,0.07875465,-0.07121611,-0.005444122,-0.011805319,-0.094630465,0.050395768,0.020892395,0.040019028,-0.08096511,0.04174207,0.005811374,0.09574275,-0.099802874,0.039723054,0.0076773767,-0.04601285,0.05297108,-0.10713206,0.0316683,-0.050959844,0.021726666,-0.047505185,0.035936557,-0.075598925,0.009231852,0.0084323315,-0.0002730405,0.043218356,0.009828936,-0.07969574,0.078995034,0.028435891,-0.058542434,-0.0061330246,0.10629674,-0.07553694,0.03646467,-0.038949855,-0.10958351,-0.0020799474,-0.08757619,-0.0031160992,-0.032286696,-0.019112553,-0.025123008,0.01690999,-0.06009008,-0.06504989,0.020290947,-0.0053406563,-0.054925077,0.079556815,4.111333e-33,-0.05686188,-0.025733508,0.052081164,-0.00868993,-0.06045023,-0.016437773,-0.05319523,-0.03610447,0.006591284,0.0017062136,-0.031769495,0.0628736,0.00745847,0.002179255,0.073099166,-0.036703207,0.101043865,-0.0032636933,0.046369273,-0.031678516,-0.02982595,0.06755131,0.0034630767,0.00094922143,0.067701556,0.027268158,0.014341442,-0.09330158,-0.052940033,0.012634107,0.023950337,0.058515094,0.0040198686,0.009352224,-0.017679542,-0.017116489,-0.0070437565,-0.007564396,-0.07920817,0.020032546,0.06202871,-0.04538815,0.07332355,0.009721503,0.040861297,-0.045093395,0.041721713,0.029571058,0.052800782,-0.015985394,-0.047346096,-0.015770905,-0.14699191,0.028018512,0.030406691,0.0024718894,-0.13394558,0.01849401,-0.006635215,0.00014327317,0.02541344,-0.019685198,-0.034645397,0.01527655,-0.036322195,-0.027087493,-0.03446889,-0.01905662,0.13628198,-0.024363453,-0.09920547,0.043723036,-0.02768344,0.040996604,-0.026126938,0.03723358,0.04084301,0.022743471,-0.055255145,0.029849906,-0.046529274,-0.0022299427,0.0044694985,0.022072654,0.047142908,0.14458962,0.0004302644,0.07127259,-0.0036585005,0.11768933,0.0063088234,-0.0010955959,0.026581043,-0.054487195,0.028888822,-4.1969747e-33,0.004146903,-0.049033966,-0.03099348,0.054641183,0.013187302,0.055817526,-0.040733427,-0.005477966,-0.024825694,-0.065288864,0.00048464516,-0.08012238,0.06196299,-0.075070225,-0.04756672,0.0398591,0.00473921,-0.0029958028,-0.09629579,-0.009597261,0.03671398,0.06494339,0.018204564,0.008373352,-0.028290551,-0.021221258,0.045089304,-0.0006307311,-0.0607156,0.014242284,0.03963954,-0.031860545,0.022242652,0.12195757,-0.016079282,0.03517822,0.057911016,0.040818237,0.024705665,0.025125954,-0.04697556,0.04352101,0.025023509,-0.025423562,0.012302321,0.01785829,-0.00488513,-0.07377945,-0.015584732,-0.008979064,0.04489069,0.059309587,-0.074410595,-0.018191935,0.071229376,-0.02897506,-0.05786966,-0.11730692,-0.058727466,0.023017297,0.07775904,0.08247958,-0.039899617,0.0020378414,0.1195354,-0.03862631,-0.11613936,0.06168173,-0.0096037565,0.017724097,0.070127286,-0.058202684,-0.01334137,0.06514576,-0.03675856,0.0021306612,-0.095790476,0.05526751,-0.001635544,0.04988893,-0.0653175,-0.08117058,-0.05468119,-0.0061430563,-0.006374975,0.030489247,0.02710266,-0.16660441,0.03514958,0.013346988,0.041404918,-0.026464183,0.060802493,0.051349662,0.038056847,-2.3085091e-08,0.027141772,-0.03800934,-0.020923924,-0.010418223,0.03687308,-0.032083105,-0.011337497,-0.10883474,-0.029763972,0.06454095,-0.015339777,-0.0106324125,-0.010670308,0.048742127,-0.004391888,0.04435999,0.09517215,0.01275343,0.010174214,-0.042364035,0.014375458,-0.008140924,-0.056743618,-0.0056990893,-0.00908788,0.0041267895,0.018699232,0.0057534105,-0.02155443,-0.0012421499,0.0072315875,0.01397885,0.04090209,-0.06960526,0.03094374,0.093783386,0.053413134,0.048757803,-0.027572637,0.014279533,0.100284144,0.0353984,0.05882204,-0.02703192,0.015884586,0.06198347,0.040961716,0.0038156866,0.012526441,-0.021158101,-0.011559871,0.08659362,0.020923078,0.06777212,-0.0017222215,-0.0017254624,0.018330978,0.042742454,0.0056642513,-0.008138294,0.015939003,-0.029670628,-0.02414594,-0.011980859
falso,-0.02584184,0.07423162,-0.013046551,-0.010370179,-0.050412606,-0.034761228,0.014196714,0.031226419,0.03939784,0.06686718,0.010856339,-0.046535518,-0.046491228,-0.022832457,0.029589621,0.026373763,0.008453344,-0.009106729,0.044919655,0.03597055,0.08189695,-0.018271903,-0.11002714,0.046918787,-0.09132953,0.035745252,0.05112531,-0.033468086,-0.0001649549,-0.10413016,0.00885789,0.06579607,0.06549563,0.026928086,-0.021181932,-0.02455224,0.07540191,-0.05575728,-0.019540822,0.120096855,-0.022038138,0.022437174,-0.010184048,-0.033789583,-0.012016978,-0.074314035,-0.009853454,0.08612185,0.0011200741,0.026613535,-0.0073981746,0.042089686,-0.09513618,-0.015878046,0.013207567,0.010916368,0.03373753,-0.004286677,-0.004237541,0.042040046,0.01958053,0.041933194,-0.00606426,0.009851539,0.014280255,-0.08969247,-0.030379795,-0.0031439925,-0.07424608,-0.008916157,0.05635508,-0.07554829,0.07952325,-0.016419197,0.022297839,0.016763454,0.046448253,0.109632306,0.04840787,0.0025398412,-0.05073335,0.010618751,-0.0801357,-0.054070488,0.02539874,0.0024992458,0.012142784,-0.0466212,0.046164136,-0.015782047,-0.025512144,0.060003024,-0.031721737,0.001180336,0.091177136,0.02389332,0.08186386,-0.08470087,0.04598899,0.059482235,0.047237385,-0.035974395,-0.053290747,0.0043073944,-0.05383165,-0.030358888,-0.008577212,-0.047490444,0.06205845,0.06775423,-0.063824564,-0.06952146,-0.01790345,0.012174708,-0.08101537,-0.070490666,0.0052264137,-0.10629489,-0.0077101537,-0.087398484,-0.0076310947,-0.047806133,0.014282746,0.025118738,0.039866194,-0.017775334,0.03705128,2.9393261e-34,-0.045809273,-0.09644639,-0.014808845,0.010386864,-0.08090214,0.050103825,-0.06592152,-0.015030787,0.009694866,-0.049148493,-0.04142686,0.092718266,-0.0798588,0.020635482,0.08292484,0.029026391,0.05783818,0.028405262,-0.012733988,0.031367373,-0.037714746,-0.0034904992,0.023949599,0.03199249,0.04791982,0.12179742,-0.03896728,-0.14290237,-0.08733072,0.044378657,0.014125634,-0.023264857,-0.019241394,-0.029941997,-0.10259124,-0.014921409,0.0230005,0.074527055,-0.07075823,-0.008863334,0.026963124,-0.038145263,-0.0030740635,-0.03746464,0.04493026,0.023874242,0.023343904,-0.007274394,0.07026344,0.04664562,-0.06376903,-0.0151424715,-0.07922753,-0.05943607,0.024020659,0.015504812,-0.11384433,0.051755287,0.04156012,-0.031813167,-0.009846266,0.03801072,-0.051110223,-0.00061698037,-0.0813675,-0.011436146,0.04077235,0.091093145,0.10568045,0.032040726,-0.07242827,-0.014857585,0.016616717,0.09044031,-0.063879326,-0.03519401,0.058943532,0.07165618,-0.00038882933,0.06877423,-0.01718159,0.021226408,0.059178967,-0.054033563,0.07617776,0.1177122,0.0010397446,-0.0017368004,-0.011512793,0.0711414,-0.01170576,0.06502013,0.028641446,-0.050935082,0.14363971,-4.4025437e-33,-0.021568537,-0.0826953,0.04943953,-0.023389753,0.045483276,-0.0018304136,-0.120374046,0.09370908,-0.0743453,-0.021048341,-0.095928445,-0.06649922,0.09680979,-0.014128147,-0.011058024,0.019864755,0.03956297,-0.04199685,-0.03270716,0.03270419,-0.037401732,-0.055080455,0.0437149,-0.03888468,-0.039233018,-0.07148262,0.019998219,-0.00089742115,-0.075192995,-0.08841621,0.02603625,0.04854569,-0.041137423,0.0739364,-0.03539704,-0.04340348,-0.0104258675,0.03990619,-0.016660215,0.057110313,0.015958749,0.0042502712,-0.00968536,-0.0011595818,-0.023878323,-0.0023525518,-0.01837116,-0.032108508,0.0079371175,-0.00822731,0.12286365,-0.05851362,-0.0024797912,-0.010706979,0.017498316,-0.049509566,-0.013256671,-0.013918313,0.062296398,0.028506704,0.044497963,-0.0006083846,-0.06981053,-0.0052537727,-0.024810996,-0.011590345,-0.06498454,0.030277492,-0.08230465,0.06976053,0.12631339,-0.041037146,-0.14362493,0.06900544,-0.0074428776,-0.020650612,-0.062067892,0.034469627,0.040588066,0.0226061,-0.10653363,-0.012809441,0.025265021,-0.021357533,0.037172254,0.068414606,-0.005956363,-0.011850662,-0.041010115,0.08177204,0.010603509,-0.019781856,-0.050077833,-0.0375579,-0.013822538,-2.2092378e-08,0.0361356,-0.06123801,-0.023176763,0.0466135,-0.05414203,-0.021447197,0.04972462,-0.019178465,0.0032611084,0.0089890985,0.06592528,-0.035128355,-0.030052384,0.026331749,0.02640232,0.043701865,0.023154693,0.083311334,0.0397114,0.027186211,0.012716253,-0.029643063,-0.0062316116,-0.04928358,-0.03785452,0.004895171,-0.049386077,-0.041489206,0.0036932926,-0.040106155,-0.0079409545,0.05437142,-0.030643214,-0.037742097,-0.046083968,-0.09507757,0.06767992,-0.031459652,-0.04676595,-0.065749235,0.11054249,0.02634806,-0.03306425,-0.04458841,0.039585594,-0.031592302,0.0118555175,-0.061470177,-0.006715736,0.046122923,-0.05506435,0.028776966,0.06040234,0.017285347,0.01612612,-0.015121349,0.06673558,-0.025605068,-0.1082777,-0.016631939,0.06619812,-0.011377626,0.0613574,0.048748422
falso,0.055918004,0.056997065,-0.024611056,-0.087708384,0.014948266,0.031532813,-0.02312014,0.054746088,-0.00960497,0.09518424,0.12139126,-0.033658266,-0.07490619,-0.05415329,-0.070029095,-0.040286757,-0.056812845,0.048359394,0.010214698,0.0719317,0.045269247,-0.018845059,-0.010711715,0.012852807,-0.082536004,0.09696567,0.03674042,0.0010306543,-0.020671826,0.009163325,0.011808905,0.022698516,0.15617415,0.04860324,-0.0041036033,-0.015545143,0.02799944,-0.028019808,-0.04309859,0.10472704,-0.00575464,-0.08018773,-0.08846361,-0.013778939,-0.095984034,-0.081432596,0.040768884,0.09086938,0.05061456,-0.042453922,-0.010866741,0.053511426,-0.060417313,-0.03368346,-0.013587289,0.02226896,0.03843063,0.025856188,-0.021686198,0.01667212,0.0032150438,0.013060771,-0.028780615,0.027688527,0.018277919,-0.026419878,0.020256408,0.002882643,-0.06027899,-0.00059419154,0.07144101,-0.000701231,0.004044698,0.029868565,-0.034874745,0.08647424,-0.030538915,0.028586939,-0.042160764,-0.10477787,0.024875246,-0.004842855,0.013829691,-0.1031082,-0.0022542814,0.021225603,0.036568917,-0.061759524,0.015409414,-0.03971973,-0.011895757,0.022865972,-0.015447709,-0.0056460327,-0.054810714,0.0020928527,0.030303972,0.0035684227,-0.071027935,-0.0042921957,-0.017294865,-0.015211338,-0.04681202,-0.048356105,-0.017599646,0.082981385,-0.02718716,-0.05901093,0.002300692,0.08722184,-0.045068674,-0.038509816,-0.06576182,-0.027095223,0.034113914,-0.065626234,-0.016113548,-0.03871911,-0.04273595,-0.069462724,0.000755984,-0.056193005,-0.06260934,-0.013641088,0.013557131,-0.059677243,0.05847154,8.386308e-33,-0.032783784,-0.005174674,-0.015267976,0.008389332,-0.040600307,0.009487558,-0.014832683,-0.030899001,0.027006844,0.034179546,0.003076956,0.016295308,-0.035849955,0.04077831,0.048488546,0.036746126,0.057933856,-0.037609037,-0.026269998,0.014584715,0.00939456,0.06473003,0.009492729,0.006421391,-0.0101603875,0.03503274,-0.041299824,-0.15352449,0.03813705,0.005343453,0.011909901,0.066489354,-0.020634815,-0.026009336,-0.054504767,0.02355884,0.03177078,-0.011187465,-0.046120342,0.04516805,-0.022746699,-0.005224146,0.07060138,0.04468814,0.010804327,-0.044381104,0.038269393,0.06605753,0.11096314,0.03179056,-0.021084277,-0.056476627,-0.0063763633,-0.06724488,0.014237011,-0.0015537213,-0.1326624,0.0393075,0.0549933,-0.057840124,0.031939995,-0.022494238,-0.027879884,0.026034307,-0.10823371,-0.12358218,-0.018880144,0.024100654,0.12293283,0.021794066,-0.10343847,0.10045366,0.0033493612,0.0200483,-0.06781205,-0.00898638,0.058585044,0.034796305,0.0062843673,0.0238522,-0.091528974,0.019532157,0.01595695,0.060348257,0.059010636,0.1548944,0.021997208,0.044550046,0.012981378,0.15830156,-0.027114538,0.031908214,-0.041096304,-0.056701034,0.07913444,-1.1657673e-32,-0.016274808,-0.040352825,-0.070211865,-0.01185718,0.044532523,0.033622157,-0.06841077,0.0375133,-0.09367853,-0.117803514,-0.11997709,-0.07228301,0.16796361,-0.0024316288,-0.030953012,-0.02380913,-0.027454868,-0.03323842,-0.038036756,0.030301552,-0.02593531,0.052762743,0.019953122,-0.074876815,0.0016812327,-0.082692124,0.0130193615,0.051348794,-0.1328793,-0.015205959,0.035461795,0.072534,-0.031494156,0.09534494,-0.06589493,0.051302277,0.01739384,-0.01953964,-0.031485472,0.043931916,-0.054348174,-0.0035733094,-0.013675034,-0.044731755,-0.08624882,0.045319233,-0.015046919,-0.048846945,-0.06235666,0.01726026,0.07240917,0.076485395,-0.09393759,0.01299487,0.01497889,-0.01066922,-0.025945207,-0.10042259,-0.020019257,0.049977787,-0.01112949,0.07793885,-0.020726677,-0.042572845,0.055842176,-0.026056454,-0.06688938,0.044551726,-0.030160083,-0.01547941,0.074758105,-0.09555954,-0.05957703,0.021361811,0.024874765,0.008650968,-0.07182583,0.051940072,-0.0002997856,-0.0015429532,-0.022783814,-0.0635877,-0.10131506,0.009429521,-0.020423295,0.1047058,0.047786538,-0.050219804,-0.034668505,0.013053164,0.012535011,-0.00036241053,0.0011762339,-0.03713262,0.031264797,-4.8457537e-08,-0.0032161968,0.018451892,0.021006055,0.032067332,0.010923324,-0.035748255,-0.026903942,0.002168479,-0.008066593,0.037227858,0.016889457,-0.032870375,0.0021486862,-0.011110914,-0.026018301,-0.039387297,0.060913745,0.054127313,-0.061204165,-0.006053884,-0.06521345,-0.01326987,-0.075899005,-0.026609594,-0.003997812,2.8751763e-05,0.0017631176,-0.06544238,-0.039388962,-0.005762184,-0.04401767,0.021213384,0.017499758,-0.044671614,0.05103045,0.05005868,0.021801883,0.065536045,-0.042970374,-0.11507525,0.0663428,-0.08450308,-0.016351338,-0.035782754,-0.003861639,0.013721842,0.02468875,0.01463907,0.06608292,0.015837597,-0.043333445,0.0023942913,0.06282215,0.04120524,0.022865986,0.0016952399,0.050540153,0.06809572,0.001115787,0.0020634034,0.039467826,0.0002009579,-0.04794999,0.009679475
real,-0.041535374,0.04869662,-0.07629676,-0.09740905,-0.029756192,0.029355044,-0.025750779,0.07699808,0.07168749,0.09005604,0.056223962,-0.02486091,0.009521873,-0.012214622,-0.050183073,-0.019111397,-0.00979553,0.041195747,-0.012985406,0.065476984,0.12998417,-0.0556531,-0.06581504,0.013614645,-0.08516464,0.060510296,-0.047108352,-0.06271899,-0.07443551,-0.044766385,0.0004321597,0.0124099385,0.05702498,0.0019626021,-0.007989081,0.010429364,0.049950913,-0.019365419,-0.043700837,0.029851796,-0.07619586,-0.047246452,-0.094612695,-0.0096777715,-0.049960572,-0.037671555,0.06888438,0.05831989,-0.050381474,-0.057199094,-0.06820739,0.04864441,0.011616352,0.044695355,0.0081747025,-0.05946862,0.0035350719,0.01413036,0.00737108,0.0041112956,-0.004609451,-0.014310837,-0.023731522,0.008081969,0.066223204,-0.021177057,-0.0008951933,-0.011282842,-0.05216423,-0.037427343,0.0286152,0.03325782,0.08239001,0.004076903,-0.008969465,0.11820808,-0.0045079463,0.07042121,0.0253998,-0.09157912,0.035351176,0.015271883,-0.02566542,-0.06832694,0.043534447,-0.012118346,0.033759546,-0.006169884,0.030594725,-0.012508024,0.058250252,0.057710413,-0.02082479,-0.029864423,-0.002802293,-0.004538761,0.019294333,-0.028916948,0.04821319,-0.03468871,0.047380384,0.020248914,0.029138064,-0.0024394402,-0.017434787,0.047377825,-0.04424448,0.029953707,0.08453427,0.063936524,-0.10336161,-0.029408282,-0.08498803,0.02049981,0.03089719,-0.027825942,-0.008241085,0.033027336,0.024968803,-0.04816203,-0.022026705,-0.05058153,-0.0717434,-0.06487445,0.08284948,0.0068398076,-0.0020766044,1.2332232e-32,0.015606686,0.015125596,-0.047548655,-0.0048776683,-0.08130395,0.045672134,-0.059175584,0.038243007,0.023181846,-0.014830502,-0.06663763,0.03772762,-0.021834042,0.05139455,0.08967264,0.00882839,0.031844217,-0.06970308,0.0057731196,0.00867107,0.0780822,0.070683725,-0.013829147,-0.014366314,0.0015653627,0.11444882,-0.010720892,-0.096895605,-0.08799246,0.028437728,0.036921144,-0.016375288,0.0021686351,-0.018608028,0.017765738,-0.050092246,0.063952476,0.03384454,-0.0015118041,-0.03861772,-0.05170863,0.02034912,0.028437596,0.048829876,0.04886144,-0.059178695,0.013099697,-0.01589937,0.09691982,0.066517375,-0.009554236,-0.02951173,0.007814427,-0.06283336,-0.0018328856,-0.00060347264,-0.14023603,0.055554744,0.030475304,-0.01839772,-0.01377745,0.043886065,0.014320215,0.018846603,-0.014967147,-0.061014593,-0.04716251,0.046832953,0.1251504,-0.0030066133,-0.087127104,0.09801601,0.025299383,0.01301983,-0.06041595,-0.06199955,0.038537662,-0.018898625,-0.02147892,0.03694823,-0.06290044,-0.0015598655,0.037895396,-0.008296596,0.059674915,0.045238454,-0.021843804,0.014864069,0.0030596042,0.08218072,0.02296902,-0.0029500248,-0.051531784,-0.022194901,0.03295963,-1.3628742e-32,-0.0076602562,-0.044473324,-0.033607494,-0.0075629517,0.026432449,0.041537452,-0.05131643,0.0534906,-0.06818965,-0.14284173,-0.10467902,-0.09691335,0.10423051,0.0067605106,-0.064291455,0.0038629826,-0.070134334,-0.057618033,-0.080486596,0.023098834,0.010893016,0.044913583,0.0186401,0.01144808,0.03061381,-0.08509198,0.052469134,-0.029752046,-0.07564201,-0.04478359,0.080987655,0.011366527,-0.03725556,0.10452193,-0.013004034,-0.07819124,0.05969874,0.0158146,0.022718234,0.054163016,0.06708517,0.0944897,-0.037837755,-0.04614192,-0.099922344,0.033384535,-0.06231484,-0.10326895,0.01847174,-0.057589415,0.09003693,-0.032774765,-0.038032714,-0.050395787,0.03807251,-0.045447905,-0.027695851,-0.05376961,-0.0981575,0.047062133,-0.028841244,0.05312722,-0.028536785,-0.033094466,0.1062249,0.015017707,-0.037595734,0.04243611,0.027415775,0.00071419595,0.11342022,-0.12269652,-0.12573689,0.007719927,0.08257486,0.026153225,-0.07063749,0.023304462,-0.03799232,0.070419915,-0.009148234,-0.04921667,-0.045216676,-0.05589553,-0.010952805,0.05419334,0.017929763,-0.013743696,-0.04988947,0.034746576,0.021295195,0.05448157,0.05214819,0.053380538,0.038025018,-5.6807863e-08,0.0051928223,-0.023501327,0.022524547,0.07938436,0.017425537,0.0020138866,0.047188636,-0.053221464,-0.016860832,0.0134671945,0.077664874,-0.028361792,-0.09495887,-0.018597746,-0.002450376,-0.053701736,0.036261216,0.011024194,-0.011357192,0.018206354,-0.04202856,-0.06015302,-0.11561224,0.0047032526,0.06391357,-0.028269071,-0.01937989,-0.08467742,-0.02002148,0.05739362,-0.03768862,-0.053431526,-0.002414024,-0.030472672,-0.033308372,0.017610917,0.030769138,-0.008601367,-0.038115956,-0.00050195016,0.15332463,0.016556852,0.024730703,-0.038900748,0.043759152,-0.038759783,-0.057106167,0.00053965935,0.07212244,-0.022936052,-0.102151096,-0.017105546,-0.01608084,0.01176597,-0.018724471,0.029065458,0.04598454,0.015196826,-0.01145319,-0.012273207,0.11419316,0.030859482,-0.0016792564,0.012270906
falso,-0.05481129,0.04236928,-0.07225676,0.0386383,-0.06850671,-0.034523807,0.052789018,0.07830835,-0.0037449447,-0.016345594,0.044773262,-0.03142727,-0.029832298,-0.059230555,-0.0059806304,-0.034000665,-0.031036777,0.03207678,-0.027951725,-0.0050796154,-0.047130544,-0.05877009,-0.025813786,0.067540966,-0.06435309,0.047140427,-0.014348215,0.058285277,0.008926602,-0.09092167,-0.005123561,0.05931123,-0.013693563,-0.058904093,-0.025769368,-0.0022317255,0.019750299,-0.043932874,0.049162153,0.040737025,-0.010871998,0.007910801,-0.03754063,-0.080983065,0.048864584,-0.064115085,-0.024673883,0.09394963,-0.029713767,-0.033886794,0.013374061,0.030819438,-0.078828305,0.082709454,-0.06574314,0.0041116453,-0.006250742,-0.021833546,0.061861932,0.011837022,-0.04792857,0.041512642,-0.0020782524,0.057452995,-0.004126387,-0.049548246,-0.06775277,-0.096114635,-0.06799051,0.03685579,-0.027419792,-0.07492146,0.066689335,0.10626159,-0.03365009,0.04240728,0.008215003,-0.06175472,-0.05722727,-0.011518088,0.06702596,0.056222677,0.027048865,-0.013695956,0.041735068,0.0133436555,0.037796374,-0.014051606,0.06999268,-0.085919805,0.0029409947,0.06904837,-0.09110623,0.018118873,0.038999423,0.033931702,-0.006000112,0.00023801198,-0.036618885,0.047907647,0.05522314,-0.042750083,-0.02131179,0.012877352,-0.057693906,0.06280341,0.065331906,-0.09542142,0.011628352,0.08993203,-0.057892624,-0.027124932,-0.022366269,-0.07501129,-0.06872888,-0.010780509,-0.08415403,-0.06808902,-0.04364564,0.009082371,0.015139053,-0.037433792,0.020693554,-0.07270947,0.06842039,-0.077684,0.08283358,5.9501526e-33,-0.015189582,-0.033085365,-0.031765223,-0.004515732,0.117710605,-0.03421016,-0.0161087,-0.0621941,-0.048439644,0.009308625,-0.031496968,0.082520425,-0.07003091,0.0041360264,0.029623527,0.13128412,0.09867873,-0.06426568,-0.004700196,-0.046396483,-0.011430415,-0.04922066,0.01752674,-0.019450339,0.06406432,0.060122337,0.036742795,-0.023704883,-0.0191189,0.06965752,0.028723842,-0.06375883,0.047594205,-0.01141896,-0.059514746,0.013180434,-0.04253171,0.009884909,-0.048278898,0.0358914,0.011082953,0.053940374,0.081008345,0.023386214,5.5568235e-06,0.051041927,0.09081101,-0.0025551,0.025556717,0.0015870982,-0.055753447,-0.091179684,-0.05245131,-0.022095902,0.007071961,-0.029711757,-0.109071076,0.029995162,0.05250668,0.039614875,0.026292939,-0.020208426,-0.08932928,-0.085181706,-0.050882638,-0.009070539,-0.0015218026,0.027589932,0.070336744,-0.045321483,-0.08264271,-0.051656537,-0.00046655303,0.057616528,-0.04480516,0.009707681,0.078026734,-0.0059056813,-0.059763577,-0.026244195,-0.06299867,-0.0011302285,0.030069921,0.084114455,0.0062026256,0.04880117,-0.021952944,0.06866534,-0.047693145,-0.0019885874,0.04942023,0.1412562,0.0442941,-0.012349001,0.041921094,-5.7535655e-33,0.07868642,0.0016249737,-0.06644593,0.03846913,0.035433207,-0.04475923,-0.05832519,-0.046570655,0.061956637,-0.05649314,-0.10611154,-0.06802636,0.086452976,-0.1072687,-0.022794316,0.024655629,0.017207114,0.027286736,-0.026855841,-0.013483187,0.008974776,0.09966591,-0.006445162,-0.05292511,0.0049662525,-0.03698824,0.040527895,-0.023482203,-0.050167337,0.009586963,-0.057599757,-0.06069157,0.03491398,0.02519583,-0.044580128,0.0023020112,0.06871357,-0.048407607,-0.026929587,0.04408116,0.04074198,0.03899905,0.025277223,-0.02736279,0.06510602,0.022179233,-0.06592922,-0.058128335,-0.0095135085,-0.0042586136,0.0820822,-0.06950701,-0.024538435,0.020128494,0.07487523,0.03328526,-0.004771137,-0.05274233,-0.03077675,-0.00097361475,0.062467467,0.030087214,-0.027530888,0.024391854,0.060981475,0.08223549,-0.065270126,-0.038441684,0.037223827,0.08287481,0.12144893,-0.09502916,-0.08595958,0.053561725,-0.06461481,0.007370039,-0.09911817,0.021114988,-0.00322257,0.058649085,-0.044824686,-0.07495277,0.043904543,-0.0065837386,0.0147839775,0.023883214,-0.03880367,-0.056103267,-0.020961829,0.023109838,0.06563656,-0.046310294,0.009048794,0.014107314,-0.069872096,-3.4044938e-08,-0.017964426,-0.07803962,-0.061018907,0.08944682,0.02203304,0.031786975,0.05975055,-0.055129305,0.05916563,0.069070965,-0.017423859,-0.022014493,0.06331032,0.022057272,0.012190035,0.108685814,0.0096274745,0.09838707,-0.0095598865,-0.07795532,0.07123377,0.015667567,0.025985166,0.014272664,0.028160809,0.034477063,-0.059455447,0.030587532,-0.010321243,-0.016788447,-0.008785821,-0.0042413115,0.07593685,-0.026838718,-0.010756567,0.061783995,-0.027062418,0.033770498,-0.01480733,-0.0027279707,0.11688429,0.023672292,0.07621527,-0.07782284,0.03784675,0.021621697,0.057316244,-0.010573362,0.014053913,0.0014374497,0.07871781,-0.06413139,0.092117526,0.025308585,-0.022125494,-0.023441559,0.033920527,-0.034360074,-0.038075887,-0.058709264,0.045783598,0.06463753,-0.002743292,-0.020627793
real,-0.020259444,-0.047597207,-0.03939725,-0.030282153,-0.015377724,0.019630963,0.00545331,0.054110426,-0.01728212,0.049765725,0.051518932,0.000646908,-0.039019983,0.047305398,0.025311522,0.03862673,0.020133873,-0.056978088,-0.05766375,0.10805534,0.1321797,-0.044440027,-0.0565941,0.07336879,-0.10994317,-0.008563948,0.02322503,-0.002711457,-0.059345633,-0.024357054,0.0156208845,0.08613577,0.06870007,0.032044165,0.029377332,-0.023111213,0.09752894,-0.08927477,0.031045781,0.06593283,-0.059352517,0.047650393,-0.05224795,-0.06661934,-0.013946673,-0.025756756,0.07889428,0.047736723,0.017688911,-0.038692974,-0.036983646,0.03717167,-0.058829173,0.01031107,0.025019411,-0.07149048,-0.009919315,0.0022312573,0.06271735,0.000615718,0.021886049,-0.030345395,-0.008663262,0.026459027,0.008307168,-0.027054347,-0.011322451,-0.05174472,-0.104347214,0.010061694,0.040929314,-0.06477361,-0.025515618,0.020848947,0.0070688077,0.094456665,0.034635983,0.046465132,-0.0010057157,-0.12640773,0.03252878,0.062129654,-0.018510377,-0.06500706,0.034834165,-0.035008073,0.028505612,0.018494682,0.020842561,-0.017255927,-0.02492984,0.08565964,-0.075528115,0.023583546,0.061786804,0.015019727,0.03453634,-0.037320994,0.028402183,-0.027985496,0.02864643,0.040470272,0.020324918,-0.06839645,-0.061664686,-0.015855528,0.049589228,0.017266186,0.011572429,0.11134968,-0.025286967,-0.04486975,-0.08218123,-0.023898115,-0.02551933,-0.02827335,0.019870298,-0.061928518,-0.02259906,-0.009187129,-0.01371854,-0.13052388,0.072085194,0.010924271,0.07503466,-0.038375407,-0.022642886,1.06363916e-32,-0.040278856,-0.095693395,-0.095889606,-0.004561518,0.023981906,0.04471879,0.03654315,-0.0032320237,0.0035027696,0.061719075,-0.10003421,0.12562329,0.020323297,0.04669298,0.0885081,-0.0059067337,0.007922915,-0.058421437,-0.05393464,-0.0023723184,0.0035315533,0.09837421,0.06376839,-0.025925016,0.080734186,0.07502503,-0.009139954,-0.08857408,-0.03734808,0.03376947,0.0021504571,-0.046378862,0.027902003,0.02596928,-0.03997301,-0.009813734,0.027093194,0.012918447,0.009264536,-0.022696061,-0.01686733,0.0020293782,0.06656625,0.07134924,0.027046775,0.00054872327,0.034492113,-0.052729372,-0.0044053253,0.016811742,-0.011863978,-0.025385,0.022295503,-0.05922059,0.00058638916,-0.028278336,-0.16865636,0.0070122737,0.020667069,-0.09399663,-0.0029666086,-0.006045445,-0.034323473,0.027089344,-0.052956313,-0.014747222,-0.08941748,0.050085988,0.16212969,0.0095925685,-0.0005117255,-0.047422625,-0.029446758,0.048593797,-0.09627213,0.026092146,0.09412189,-0.050165273,-0.08790632,0.08418013,-0.02996287,0.014266937,0.0676412,0.017277794,0.028677056,0.05693342,0.0075488607,0.06026569,-0.04728651,0.04871676,0.021362415,0.05382652,0.06121824,-0.026118347,0.04733121,-1.22890235e-32,0.010435066,0.026174106,-0.07287734,-0.04405626,-0.007715706,0.02180488,-0.06442951,-0.069479026,-0.021265177,-0.1287157,-0.013684314,-0.08451274,0.013023272,0.0068691773,-0.042794913,0.059098244,-0.0045660716,-0.027789243,-0.031913854,-0.014583072,0.007456975,0.09697069,0.010919365,-0.01112764,0.012401277,-0.056441274,0.008191048,-0.0580155,-0.005551683,-0.017507257,0.0098890085,0.012264142,-0.02241528,0.08096031,0.016008785,0.02060667,0.034110315,-0.059079852,-0.0106830355,0.023694301,0.0422204,0.057810143,0.002020012,-0.038994163,-0.06292943,0.022204865,-0.024513919,-0.1232939,-0.064740375,0.01867455,0.062532686,-0.038817532,-0.049493335,-0.07806115,0.021671511,-0.038369928,-0.016195936,0.0070637846,-0.098795965,0.03640634,0.07224345,0.05920818,-0.01062393,-0.09258292,0.051387507,0.067723565,-0.060235955,-0.004230086,0.0071649365,0.060016155,0.07332241,-0.050871868,-0.17743959,0.03167022,-0.009332412,-0.02438152,-0.058339264,0.08457884,0.0130982855,0.064380646,0.00423678,-0.054057803,-0.01012293,-0.067017324,0.01857322,0.00013953209,-0.002299417,0.02077618,-0.029534535,0.033309806,0.02749176,-0.069287464,0.04355809,0.0005886668,-0.0044426857,-5.3625016e-08,0.020792153,-0.045353208,0.042755894,-0.02331526,0.0031741322,-0.07675162,0.011984402,-0.0015549053,-0.008874759,0.035433326,0.09808593,-0.047655087,-0.11187185,0.006719677,-0.03251153,-0.020801354,-0.04065836,0.03714959,-0.021715423,-0.051858984,0.030024074,-0.034784857,-0.09782104,0.041303284,0.019879248,-0.014529392,-0.025212774,-0.080675155,0.015103245,0.01542765,-0.02173303,0.010258931,-0.03922628,-0.02157748,-0.07150126,-0.05933836,0.05356422,0.0012997965,-0.046825577,-0.025146548,0.15480682,0.01796963,-0.0021092785,-0.067593716,0.014833053,-0.037221458,0.03629141,0.031633947,0.06929167,0.012009662,-0.031587146,0.0804968,-0.0126710655,0.029045414,-0.03834801,-0.060335286,0.023233738,0.029219748,0.022433095,-0.049637124,0.013367851,0.09633721,-0.010718703,-0.024451457
real,-0.03699223,-0.030421482,-0.11415427,-0.03974508,-0.012289614,0.040836502,0.064504504,0.057631366,0.030953078,0.08553314,0.07908333,-0.0040816567,-0.034576256,-0.03469109,-0.053914163,-0.06832116,-0.057099834,0.0057886476,-0.022911252,0.095693156,0.090402275,-0.11405852,-0.07492617,-0.022051258,-0.02671147,0.019760814,-0.026561288,0.020853437,-0.06901556,-0.083461784,0.012924641,0.035905223,0.0808508,-0.023371719,0.03384408,-0.0029373511,0.04528574,0.016823223,-0.0041909954,-0.0082910415,0.0028886616,-0.06108897,-0.054316286,-0.040969454,-0.04557562,-0.034253187,0.0685078,0.11805993,0.007048237,-0.0041441405,-0.06813622,0.054909132,-0.040972047,0.0092382645,-0.03326536,-0.001082845,0.053685993,-0.020344745,-0.0076089464,0.048746966,-0.010736285,0.04079042,-0.024489397,0.034119453,0.015967356,0.031687893,-0.012713871,-0.06822157,-0.06763521,-0.020965371,0.048601005,-0.102646254,-0.036765333,0.009209486,-0.0050500026,0.035863332,-0.0099654775,0.1278553,0.05086622,-0.117288135,0.046210676,0.0047916216,-0.017933244,-0.09433556,0.009041412,0.008744073,-0.05140616,0.020864315,0.009458182,-0.0136027355,0.08635843,0.051595047,-0.023130193,-0.02059992,0.010497315,-0.029222442,0.054637212,-0.029335866,0.08241907,-0.013495377,0.09703848,0.007784363,0.014827748,-0.012595281,-0.042480014,0.047934853,0.024528818,-0.019574765,0.03640808,0.059220504,-0.11616987,0.02435309,-0.04789177,-0.07016458,-0.016459394,0.026456017,-0.08377805,0.02470611,-0.01117805,-0.034913354,0.0009279604,-0.025278773,0.002565603,-0.027996613,-0.023994198,0.0007379293,-0.0027563688,1.005312e-32,-0.091245,0.043624196,-0.025643433,-0.043791804,-0.047619317,0.02315346,0.0018917805,0.00058245595,-0.0036646952,0.037982833,-0.09147172,0.032078832,-0.028704653,-0.0062612942,0.078458674,0.0075794253,0.020234428,0.009225785,0.040532384,0.0054101027,0.042602412,-0.026777862,0.041812632,-0.025454909,0.074450634,0.068078294,-0.08092838,-0.047223046,0.03201451,0.05168905,0.032825347,-0.008074073,0.016571932,-0.044330467,-0.058110874,-0.05840056,0.029512746,-0.031080669,-0.0865706,-0.046825804,-0.025683776,-0.009182261,0.053981986,0.05930433,0.0015778106,-0.049504355,0.035938095,0.01573689,0.104841925,0.0462817,-0.014572811,-0.09758053,-0.027267102,-0.060072687,0.024175845,0.021731861,-0.11470582,0.022958582,-0.010845298,-0.043574743,0.010499215,-0.047322243,-0.050858643,-0.025842221,-0.086656734,0.022516342,0.03456183,0.031860508,0.0980027,0.030917365,-0.061306324,0.025528591,-0.02848237,0.063625865,-0.006690868,-0.012111942,0.051091928,0.040576365,-0.060230635,0.071625814,-0.022346219,0.0051091434,0.02143479,0.026986737,0.03274024,0.07000995,0.029003115,0.040686876,-0.007521349,0.04554027,0.031383373,0.0008219498,0.045221537,0.035438612,0.10004695,-1.2696817e-32,-0.01114879,0.0043227794,-0.023399998,-0.07197271,-0.059778206,0.027187677,-0.017625136,0.01988925,-0.011094064,-0.11131547,-0.108810194,-0.09598008,0.11587354,-0.09941942,-0.0833045,-0.030744882,-0.036320213,-0.059439886,-0.021115284,-0.021388063,0.02486135,0.046123687,0.05732048,0.051410697,-0.0034503017,-0.0016033323,-0.0704715,0.009061089,-0.053635992,0.048656423,0.086286746,0.03623879,-0.030564165,0.12046827,-0.05296605,-0.044147156,0.10350912,0.0021231622,-0.05822662,0.08828811,0.067029715,0.12377942,0.032093864,-0.04017164,-0.025829813,0.005356019,-0.008333496,-0.09629852,0.041946866,-0.06709981,0.036095925,0.029725501,-0.10372245,-0.016023904,-0.003830405,0.04656915,0.04644084,-0.011853656,-0.0554567,-0.008274996,-0.01640814,0.03656297,-0.04603327,0.002097882,0.1042695,-0.041916568,-0.006904348,-0.002838169,0.093244374,-0.02391005,0.07924333,-0.118392445,-0.07949595,0.05254239,0.041402612,0.05470793,-0.01983243,0.032537732,-0.046254843,0.09068692,0.04721178,0.010777567,-0.04423478,0.015591496,-0.07974209,-0.010658806,0.040062133,-0.07331859,-0.007346178,-0.030689582,-0.045306507,0.010011358,0.064709455,-0.0064407825,-0.04928101,-5.3781836e-08,0.05667963,0.0050369883,0.04145413,-0.010286634,-0.027356073,-0.06656747,-0.055129133,-0.05565673,-0.009479512,-0.046980996,0.0060555167,0.043031808,-0.042585302,-0.062285006,-0.054723036,-0.06243209,0.028642632,0.037923846,-0.00014105137,-0.025603214,0.045080926,-0.007616258,-0.0660449,0.014740235,0.045046452,-0.101252355,0.02283529,0.0066593084,0.03330551,0.056536093,-0.07605874,-0.056640137,0.04434998,-0.00036557805,-0.016979285,0.040801425,0.089732796,-0.039515052,-0.05539766,-0.0013619523,0.13215545,-0.021706743,-0.041862465,-0.097952634,0.0168204,0.015315083,-0.031167233,-0.04278114,0.07618565,-0.04599653,-0.08452956,0.018902315,0.0102917,0.03858594,-0.04230052,-0.046602022,-0.033600423,0.020752547,0.04104406,-0.0920623,0.06221954,0.035311162,0.009030254,-0.026156016
real,-0.010946794,-0.0040834555,-0.04313903,-0.056733027,-0.046653893,0.010095816,0.015788125,0.07399596,0.03067297,0.10904837,-0.0014297534,0.009709197,-0.026576709,0.031078175,0.016399585,0.0055241897,-0.0047485405,-0.054213155,-0.0032390498,0.082016975,0.07320674,-0.05949534,-0.014771865,0.085332856,-0.121574216,-0.0010156411,-0.033601128,0.030471917,-0.080449894,0.004135729,-0.01623642,0.017919032,0.08924824,0.0019704134,-0.044649728,-0.057390228,0.0650178,-0.030004738,-0.0059650876,0.037033983,-0.016907884,0.015190218,-0.07610966,-0.014012838,0.0052880677,-0.012043061,0.06725709,0.08654012,0.027275627,0.0027493655,-0.056082927,0.020837104,-0.08480152,-0.023895562,-0.013164687,-0.044104848,-0.063762404,-0.034387782,0.107693225,0.07192564,-0.01724923,0.027407644,-0.062331326,0.036837827,-0.009214448,-0.038133614,0.050526217,0.018743737,-0.057685513,0.07198447,0.052415833,-0.01673367,0.057564992,-0.021982633,-0.043676343,0.11864604,0.019668829,0.007281873,-0.022359956,-0.15590483,0.028414538,-0.04624092,-0.061960556,-0.095796965,0.010683416,0.0031118002,0.07215728,0.00030682265,0.057449415,-0.029005902,0.036849212,0.011904369,-0.04783828,-0.038007934,-0.0025749244,0.02850411,-0.015232139,-0.083499014,0.03330074,-0.009040249,0.08404449,0.015887722,0.038157318,-0.113046676,-0.0683355,0.029370885,-0.006855429,-0.015512456,0.05920684,0.118135266,-0.14791052,-0.0138123,-0.036705542,-0.004499751,-0.048173055,0.018581914,-0.003940008,-0.10357168,-0.030087546,-0.037723407,0.005231269,-0.06557694,0.020115454,0.0003053557,0.06301873,-0.092662506,-0.001325763,1.0761605e-32,-0.029521694,-0.066898264,0.049248837,0.0062233456,0.020883378,0.08271689,0.008809078,-0.00031064925,0.0057299,0.027365679,-0.032646563,-0.0025913261,-0.018860387,0.03870084,0.04259787,0.026827015,-0.05915536,-0.05595174,-0.014288897,-0.0055606524,-0.037567955,0.021500075,0.0039562774,0.014387267,0.04500749,0.10636208,-0.015994376,-0.014924358,-0.027329274,0.028077742,0.015800564,-0.0053908797,-0.017520001,-0.039454866,-0.0023039477,-0.038254235,0.014481328,0.005270433,0.0005322242,0.058385767,-0.0021408738,-0.008384588,0.03893091,0.04161371,0.0003203666,-0.07171641,0.06106134,0.0319007,0.006017462,0.0018692856,-0.016463483,-0.0540872,-0.05793472,-0.06936094,-0.02209201,-0.032783493,-0.1250994,0.0006498538,-0.050060056,-0.08943261,0.04696394,-0.039593533,-0.054257266,0.02002065,-0.07505931,0.00460581,-0.04203291,0.035151985,0.14995193,0.030103706,-0.017651154,0.0061695515,-0.06664168,-0.04175898,-0.0060130414,0.06018051,0.02142794,0.008211844,-0.001975071,0.072028525,-0.061864078,-0.012708586,0.08271985,0.053225253,0.044020478,0.060355116,0.03865441,0.046350624,-0.054076098,0.027316747,0.06930022,0.008613796,0.0750009,-0.017164912,0.069375224,-1.2384731e-32,0.003790481,0.0429753,0.0009912306,0.007842576,0.0022232372,0.015082729,-0.04011823,-0.009367405,-0.027993355,-0.1941347,-0.035072293,-0.09435871,0.10474773,-0.019830061,-0.018262206,0.0058496995,-0.043683406,-0.04322896,-0.031347584,-0.015150076,0.02817689,0.025945466,0.0054233437,0.005457595,0.023163054,-0.07857376,0.018339336,-0.017460007,0.014513933,0.008306073,-0.0006538989,0.02306053,-0.01817895,0.105856135,0.005191948,-0.007705232,0.06224654,-0.04197151,-0.0019744718,0.09842313,0.025516713,0.08102589,-0.020613318,-0.045462273,-0.09481473,0.018180514,0.03803679,-0.07218037,0.011420046,-0.02367701,0.10475654,-0.048059337,-0.0735116,-0.05324904,0.06931866,0.013499505,-0.002184614,-0.0071784263,-0.038132627,-0.007986711,-0.0067082974,0.05045643,-0.02448961,-0.10389995,0.05938779,0.009718898,-0.016650127,0.074484095,0.052873258,0.03936226,0.12555665,-0.06311921,-0.119083606,0.015026396,-0.05115402,-0.020241544,-0.01584926,0.051870394,0.0033965956,0.11189111,-0.023498049,-0.023004599,-0.068473786,-0.024468148,-0.01610874,0.0552937,-0.034986973,-0.0258984,-0.027215304,0.07308965,-0.022353709,-0.009752907,0.07794566,0.0071545094,-0.001655365,-5.531461e-08,0.027405228,-0.022972113,-0.028902337,0.032053016,-0.0157369,-0.02673633,-0.020349555,-0.016076228,-0.04377339,0.043710288,0.129522,-0.0020426684,-0.02649099,0.029446242,-0.050835174,-0.018470025,0.026513923,0.031080564,-0.02587589,-0.06054856,-0.004487042,-0.036776997,-0.09986123,0.001471047,0.0036314405,-0.02490396,-0.042651165,0.012872634,-0.06389985,0.068569615,-0.047721576,-0.0725997,-0.07941615,-0.14837426,-0.010445836,0.008741306,0.024054285,-0.03229086,-0.019108137,-0.0043791966,0.20836511,0.04941716,-0.04648305,-0.025628079,0.04224346,-0.05019177,-0.013887865,-0.007089338,0.011579585,0.014354817,-0.029377157,0.049253926,0.036785126,-0.04107701,-0.014527319,0.0036006512,0.02445368,0.0187094,-0.03308146,-0.012190206,0.0722752,0.08063303,-0.00053374516,-0.017155193
real,0.036981355,0.033658408,-0.05671568,-0.04518539,-0.09750792,-0.023745047,-0.09076154,0.11461664,-0.0151349995,0.0748852,0.06921306,-0.049711775,-0.031082505,0.02556023,0.011085839,-0.03854894,-0.008567545,0.040820807,-0.008214427,0.008084667,0.11951889,-0.08546845,-0.11453127,0.019352032,-0.004540969,-0.00085210236,-0.029190538,0.037160512,-0.060778577,-0.053393774,0.023899136,0.0960419,0.19386867,-0.027386717,0.05818578,0.03026636,0.019693073,-0.029312449,-0.004586353,0.006347695,-0.06759529,-0.0021268763,-0.040620446,-0.08369876,-0.030530114,-0.05519803,-0.017706161,0.07287837,-0.05101521,-0.029995985,0.006650937,0.026799822,0.035783794,0.05986146,0.014460793,-0.051392965,-0.024276765,-0.013912358,-0.017468708,0.015263729,0.026246201,0.0056042993,-0.052970618,-0.03314276,-0.057013296,-0.04530832,-0.015696326,-0.013694209,0.00020279016,-0.01719312,0.08654363,-0.17607863,-0.05143221,0.0023838074,-0.003912275,0.05601776,0.06803799,0.09958216,0.05321535,-0.17165752,0.0073407036,0.0018386696,-0.055073876,-0.06173947,-0.0011242608,0.008799356,0.038680524,-0.011538207,0.12429168,0.024027556,0.0066902568,0.071191534,-0.03416444,-0.02789322,0.008340696,-0.012307623,-0.025509575,-0.07519628,0.037444394,0.000661705,0.021236412,-0.0135506485,0.025467748,-0.057505757,-0.0639997,-0.054756746,0.008527167,-0.008803522,0.05555929,0.09853379,-0.0897965,-0.041490216,-0.060450252,0.04311065,-0.029734718,0.032106668,-0.017303968,-0.038584538,0.11443051,0.00076251355,0.056349386,-0.051472507,-0.012748726,-0.039082963,0.0015861943,0.06867301,-0.04586343,7.79826e-33,-0.086957484,-0.06356233,-0.0672245,0.02935353,-0.008682962,0.0040590228,0.010288085,0.07726586,0.014971591,-0.051833417,-0.055541188,0.078106225,-0.018158462,0.064920835,0.11389356,-0.08140561,0.08209541,0.0053361747,0.06859941,0.037048206,-0.052844215,0.04904436,0.00037186235,-0.034442272,0.09743122,0.051894713,-0.008681686,-0.051624626,-0.023271568,0.051044304,0.091128305,-0.040392615,-0.019942185,-0.031353187,-0.04405222,0.041030172,0.039245196,0.025215954,-0.0424077,0.028976534,-0.068305366,-0.012218857,0.08124109,-0.00135666,0.007203961,-0.01712951,0.054088924,-0.02147716,0.044231012,0.0544912,-0.042471178,-0.014875439,-0.036107194,-0.080823235,0.005666135,-0.0031842592,-0.1028821,-0.0067243557,-0.017856171,-0.10067169,-0.09776987,0.007474167,-0.0052216616,0.032924585,0.02697015,-0.022570219,-0.0077138916,0.055617187,0.067889385,0.032549355,-0.06150179,-0.08099165,0.016270831,0.020131692,-0.035299428,0.0031697953,0.03622702,0.07565252,0.01687092,0.04016843,0.028429674,0.029905615,-0.073300324,-0.051732883,0.069757484,0.056186996,0.04383958,0.05238887,0.0819361,0.026395103,-0.010380378,0.040448803,-0.017067246,0.054918364,0.106039,-1.16135786e-32,-0.04494288,0.022335403,-0.026380144,-0.02585163,0.0007539035,0.036064934,-0.023942003,-0.044788532,-0.0993856,-0.11488179,-0.10460155,-0.054393753,0.043060314,0.03254363,-0.09516128,0.026587464,-0.010098949,-0.076913334,0.018988658,-0.04432332,0.0012340082,0.09441385,0.052253015,0.02435415,0.034831826,-0.0743353,-0.05362037,0.0016173978,-0.060388815,-0.10069941,0.054604188,0.008774988,-0.019616807,0.098847866,-0.037334178,-0.04085961,-0.020305889,-0.005810425,-0.01123773,0.017455291,0.0734016,0.010189406,0.016709054,-0.028668834,-0.0053429827,-0.045306947,-0.0011519947,-0.11211957,0.09479432,-0.053942725,0.048850592,-0.006500276,-0.03957993,-0.048729762,-0.012189976,-0.09020764,0.078728,0.020099312,-0.026899904,-0.0007631025,0.060755774,0.017129436,-0.047509294,0.013342025,0.018218327,-0.016911367,-0.0038033372,-0.0084584765,-0.020082016,-0.05477037,0.06641454,-0.053282294,-0.009865619,-0.036872562,-0.07001966,-0.05133342,-0.060871705,-0.019520324,-0.011410409,-0.027211236,-0.06801181,-0.012347536,0.034780957,-0.0045387973,-0.016797971,-0.008204055,-0.038656183,0.015401623,-0.019715404,0.070329875,-0.08980154,-0.017721811,0.0038439212,0.030685766,0.009113935,-6.214606e-08,0.0764698,-0.020676816,0.018993039,0.024210375,0.024413204,-0.10386647,-0.05403506,0.01565916,0.015329535,0.048618678,-0.014891731,-0.006915501,-0.071115,0.036411677,-0.017815843,-0.019190766,0.10853623,0.05116163,-0.0020729846,0.008048883,0.015644046,0.024341062,-0.112725176,0.0006476452,0.0125487605,-0.043359283,-0.00039902655,-0.01235634,0.014434632,0.027883265,-0.010656797,0.054026473,0.0659973,0.015196843,-0.019348495,-0.046262845,-0.03061435,0.016720707,-0.05920223,-0.09478645,0.046670567,-0.04302365,-0.056178883,-0.04762255,-0.017347272,-0.041504703,-0.05249138,0.0031516838,0.022117112,0.015590636,-0.02723113,0.027399234,0.033196542,0.034367308,0.028540898,-0.02187505,0.008192114,0.0046937154,-0.036526058,0.001994787,0.044228915,-0.037726976,-0.015946545,-0.024964847
real,0.049022485,0.0035546187,-0.05822946,-0.0035369487,-0.13725656,0.002051012,-0.063574135,0.10860974,0.009075353,0.050807983,0.05793433,-0.034734063,-0.040570125,0.0305141,-0.012483876,-0.036825217,-0.009826911,-0.03118417,-0.039810617,0.041475695,0.13366976,0.011320572,-0.012091844,0.007666294,-0.11209461,-0.046869896,-0.097289495,-0.08068032,-0.059234615,0.020796921,-0.019975564,0.057866443,0.077299535,-0.09049203,0.018420838,-0.039542038,-0.010290156,-0.042302918,-0.022113834,0.0047774,-0.048222568,-0.048250243,-0.08616407,-0.013977914,0.021361079,-0.0311325,0.0007491477,0.08905347,0.038671948,0.06225783,-0.057974413,-0.028847633,-0.03372702,0.05660692,-0.010986159,-0.079237886,-0.08515626,-0.061007928,-0.0016410972,0.024242075,-0.06735273,0.02119546,0.027407896,0.01998889,0.0011597717,-0.048277657,0.08132009,-0.07340627,0.050996717,0.06750283,0.05498555,-0.051136874,0.082059816,0.023194639,-0.019236682,0.064823836,0.027433032,0.08731303,-0.0700647,-0.116640836,0.07303488,0.029710384,0.06225979,-0.048536357,0.017108876,0.026180474,0.01310777,0.026728671,-0.06037905,0.015627272,0.05650969,0.044982232,-0.064367965,-0.024630796,0.057023197,0.036293212,-0.06620001,-0.09705112,0.01968797,-0.04624537,0.0046931156,-0.002006801,0.022844082,-0.036206156,-0.06538427,-0.04782877,-0.0009733582,-0.0552223,0.0006822652,0.069405854,0.005625469,-0.037146237,-0.035836145,-0.012358646,-0.009164768,-0.011590474,0.002950163,-0.021366043,0.06429832,-0.009036798,0.001604135,-0.038277093,0.02230314,-0.102833234,0.055537406,-0.06755661,0.008095928,1.15569484e-32,-0.03814898,-0.053357568,0.010846193,0.038261045,-0.0034467005,0.059251785,-0.031677637,-0.008066039,0.06617412,-0.03517537,-0.040621705,0.00042242883,0.048181515,-0.015046708,-0.016941639,-0.002558121,0.045540106,0.0065495935,-0.011753061,0.01532103,0.018035784,-0.03920303,0.027281258,-0.009822648,0.042988695,0.06543753,-0.059328903,-0.014725048,-0.049205203,0.03549495,0.030657936,-0.011462369,-0.009622813,-0.1102492,-0.017488517,-0.0137471985,0.090868324,0.049734425,-0.02727692,0.04112321,0.021618918,0.052644096,0.05560154,0.043084607,0.038808417,-0.04223772,-0.006439448,0.008312231,0.041211955,-0.018194212,-0.017627003,-0.017320108,-0.01904625,-0.066379234,0.031482585,-0.024011057,-0.076097526,-0.003781424,-0.05094604,0.015951319,0.1319383,0.04496476,-0.034482908,0.027347378,-0.06482765,-0.039552193,-0.022356926,0.032440316,0.026648471,0.0090595335,-0.08695317,0.0006581998,-0.05302572,0.007345512,-0.01408713,-0.024115672,0.116897486,0.046291504,-0.036472846,0.043077223,0.038436305,-0.019745559,0.04412965,-0.0044679935,0.10539556,0.04493576,0.024160448,0.13801749,-0.021513404,-0.07335499,0.09104366,0.030275598,0.062120143,0.001163871,0.033777215,-1.3505105e-32,0.033162393,0.041082695,0.02905496,0.009893324,0.031476133,-0.012427072,-0.00048086434,0.08740193,-0.035712566,-0.116000034,-0.061075464,-0.017601198,0.11532132,-0.03236934,-0.016907342,0.06964284,-0.08326612,-0.101334825,-0.07994612,-0.058375984,-0.084704064,0.013245787,0.040244337,-0.04915665,-0.019111423,-0.002202603,0.0057591433,-0.0732071,-0.083991505,-0.016303882,-0.023925204,-0.016348956,-0.042395853,0.037070725,-0.08887189,-0.055325907,0.022172138,-0.0442212,-0.0045863637,0.055217844,0.07209701,0.08530387,0.005814739,-0.07355963,-0.076929025,0.012556677,0.072798446,-0.054313604,0.0489527,-0.018392853,0.052265618,-0.021737415,-0.03818449,-0.049735125,0.09265291,-0.045554668,-0.054883745,-0.08103676,-0.10304328,0.039160874,0.021895157,-0.004750367,-0.015751986,-0.023806935,0.09200575,-0.0036208334,-0.017184911,0.055071812,-0.0283515,0.06366575,0.109107964,-0.03892354,-0.1578724,0.0021883775,-0.0023070413,-0.04805838,-0.033963982,-0.03715778,-0.024943903,0.055483967,-0.05660728,-0.03768912,-0.053169657,-0.0073962063,0.0025586532,-0.039589737,0.01246076,-0.05825725,-0.046191193,0.010441959,-0.011617942,-0.06131596,0.025472298,-0.0140155135,0.05278639,-6.115094e-08,0.04890146,0.016086213,-0.012773913,-0.0069460776,0.07314174,-0.048781753,-0.03594677,0.07462414,-0.0048490693,0.047582384,-0.06030501,0.049083002,0.013399257,-0.039001305,-0.04348575,0.031009512,0.026576983,0.06805594,-0.003112833,-0.05652716,0.016876113,-0.065135956,-0.06255587,0.021149514,0.025618486,0.036276188,-0.006018429,-0.009617311,-0.06862931,-0.031039823,-0.04493169,-0.063946865,0.014109371,-0.066884264,-0.11476079,-0.093712136,0.037778605,0.044654902,-0.06767888,0.012567873,0.09572643,-0.06025602,0.03979057,0.038656894,-0.034306552,-0.08519661,-0.0013816754,0.050375298,-0.0024463863,-0.0391945,0.014419789,0.06143347,0.076887414,0.037672564,-0.023088958,0.048885405,0.022564236,0.06979848,-0.017456293,0.045725428,0.063694775,0.050445646,-0.007628413,-0.00055079075
falso,-0.068411455,0.015586639,-0.047641583,-0.07656466,-0.057703916,-0.009703913,0.007175152,-0.053305972,0.03228049,0.04095121,0.059533566,0.01100888,0.07646749,0.0027581058,-0.023932703,-0.062393192,-0.07357089,0.05771987,0.03330131,0.0004674988,0.025411187,-0.09734958,-0.13411279,0.0049016834,-0.03846224,-0.031644057,0.073722616,0.014521484,-0.08283283,-0.09464197,0.015335444,0.061894417,0.008731486,0.023470325,-0.00794282,-0.04616334,-0.058192197,-0.03960966,-0.008465395,0.018547306,-0.003365467,-0.08365012,-0.016953586,-0.03889714,-0.0130274,-0.021706399,0.021707857,0.11617808,0.02554504,-0.026924055,-0.068851545,0.012965544,-0.012315192,-0.03732776,-0.011426606,-0.08948757,0.054525916,0.027042573,0.06351542,-0.031634327,0.13499147,0.08868828,-0.054802746,0.027749311,0.05924728,-0.012613721,0.01594509,0.07360488,-0.03715418,-0.0019220221,0.07115305,-0.10597131,-0.010686951,0.029716833,-0.023083078,0.07890439,-0.057886805,0.03994503,0.02675467,-0.043274455,0.00046764803,-0.07621724,-0.018103037,-0.02034169,0.029369636,0.064157926,-0.03849353,0.0055567888,0.08869056,-0.058297712,-0.0026493135,0.01840524,0.024039349,0.027310295,-0.03806721,-0.047513884,0.022088407,0.028381696,0.06767192,-0.00906642,0.003015654,0.062654965,0.005840044,-0.07732057,0.04585248,0.043095328,0.053621724,0.02327605,0.045882523,0.063439175,-0.06606349,0.048404045,-0.045804232,-0.03146528,0.017447453,0.08427473,-0.025876626,0.042773206,-0.101110764,-0.024264809,0.04733173,0.038273048,-0.0008826273,-0.026003482,-0.021932311,-0.06664027,0.038248252,1.06543296e-32,-0.02645713,0.044138156,-0.06347989,0.003951036,0.01592242,0.034489896,-0.036680236,-0.013185014,0.0047587375,0.010261961,-0.1037632,0.07701856,-0.01951694,0.056811042,0.07412588,0.07771473,0.04734766,-0.02813535,-0.018328879,0.013346999,0.016340716,-0.0482089,0.07282284,0.013935138,0.015716564,0.047632903,-0.043892052,-0.061904684,0.0074480874,0.03586117,0.020574551,-0.01782466,-0.0061558885,-0.0040749554,0.012011332,0.031696953,0.052660193,-0.06493916,-0.13542002,-0.011977017,-0.028682511,-0.017560454,0.021914339,0.001896983,0.012651385,0.055832252,0.009503129,-0.032414332,0.02583958,0.062274773,-0.1085971,-0.023362182,-0.059333786,-0.0029472443,0.040408205,-0.02078166,-0.065720916,0.02338201,0.071985826,0.009785607,-0.004637453,-0.027914159,-0.07419833,0.0112901265,-0.11624069,-0.07894411,0.084088646,-0.025916412,0.07070349,0.069975294,-0.0050065434,0.009768295,-0.060678907,0.06101353,-0.07790724,-0.04864636,0.018544462,0.026076032,-0.02451281,0.021145554,-0.027668677,-0.060985886,0.07041671,0.009819475,0.038033023,0.103791736,0.042218197,0.04078302,-0.03467048,0.0835625,-0.041406617,-0.010814694,0.05862193,0.020054802,0.09892763,-1.180199e-32,-0.07561645,-0.005726141,-0.0012845153,0.050815392,0.046387065,-0.06904171,-0.031465728,0.05810047,0.008395793,-0.056826707,-0.10210435,-0.097047426,0.1026356,-0.0477125,0.043066118,-0.07184989,0.09385695,-0.07202415,-0.077626824,-0.043724816,0.069263555,0.04426473,-0.08002643,-0.05469786,-0.009436449,-0.00966864,0.034488592,-0.022526562,-0.073660046,0.00054041576,0.05446845,0.07604206,-0.024245976,0.12336914,-0.012853769,-0.0061464356,0.13888034,0.069880955,0.0014287244,-0.029751968,0.040584903,0.046051145,-0.09994921,0.0025680764,-0.056882784,0.008589365,-0.03952195,-0.07902223,0.050247315,-0.009715276,0.08808807,-0.007886845,0.029360002,0.015598862,-0.007374919,0.003874486,-0.0035873235,-0.027038744,0.020809425,0.032925308,0.011775545,-0.00802948,-0.047551632,0.005132096,0.032747652,-0.028520104,-0.02825411,0.050323505,-0.01786001,0.026670981,0.06867236,-0.045934577,-0.07368874,0.030771505,-0.058174755,-0.053485047,-0.08911886,0.09195506,0.030132916,-0.0069225943,0.0938159,-0.045859337,0.026019428,0.039671823,0.03914778,0.03813521,0.07249995,-0.06180892,-0.0334527,-0.07040103,-0.071348235,-0.05522911,-0.019106826,-0.013392657,-0.042141836,-4.8761933e-08,0.010113123,-0.024789918,0.026561802,0.059708383,0.02689646,0.009523277,-0.05139774,0.055305015,-0.046757836,0.06375834,0.03853858,-0.054362886,0.0017957495,-0.021411942,0.0054160794,-0.0046372744,0.029326905,0.050980926,-0.032291375,-0.03904729,0.06398436,0.042549577,-0.082472436,-0.0037395922,-0.02042871,0.0015940395,0.01373551,0.009889857,-0.04138311,-0.008854754,-0.07352532,-0.06988118,0.081853345,-0.0076765483,-0.08172384,0.09975654,0.032147925,-0.038783863,-0.042358596,-0.084868886,0.030791977,-0.04507815,0.04329681,-0.048162352,-0.02377873,-0.13328572,-0.012986671,-0.07050509,0.020002289,-0.025539927,-0.045921426,-0.030871334,0.049373433,0.01924726,0.0024116966,-0.05439562,0.045145668,-0.043840207,0.02686338,0.0075548515,0.10307118,0.017685194,-0.011813496,0.0075069414
real,-0.032348562,0.07092886,-0.1200959,-0.040986143,-0.009211677,-0.053401027,0.011230954,0.11757212,0.014690179,0.089664824,0.1295048,-0.060093824,-0.0057184896,0.008354256,-0.005263569,-0.057059508,0.04588502,-0.023040269,-0.005393079,0.053400524,0.09826865,-0.06797937,0.040280484,-0.0067463955,-0.06948383,0.018064795,-0.04832822,-0.009716826,-0.037646927,-0.031699177,0.035632785,0.011117433,0.09102863,-0.06575406,0.01862641,0.04801884,0.100195915,-0.04191238,0.02975688,0.03528494,-0.043435253,-0.04711814,-0.08831696,-0.04370536,0.018199794,-0.05275813,-0.005531846,0.11085891,0.022526503,-0.011370788,-0.074972756,-0.02026622,-0.06163062,0.066879585,-0.05499315,-0.09802264,-0.01770183,0.012516498,0.007839244,-0.009568448,-0.023358464,0.02863349,-0.054461773,0.025008705,0.018613862,-0.015406612,0.011325471,-0.030339302,0.025303528,0.0076681566,0.0818904,-0.050347082,0.0071194097,0.04641717,-0.10035723,0.06515932,-0.036380943,0.040544376,-0.032784346,-0.14979245,0.026184939,0.0069868797,0.009713063,-0.100091256,0.032418773,0.0003669302,-0.029745696,-0.05883838,0.01078488,-0.012965884,0.012247605,0.03568755,-0.05180136,0.025849395,-0.0015825538,-0.06376814,-0.028063515,-0.024529006,-0.02578036,0.0310364,0.04859575,0.038031127,-0.0016773664,0.014449231,-0.013614602,0.022447774,-0.07909113,-0.018060524,-0.005019828,0.07290318,-0.079945825,-0.034333326,-0.04082802,-0.025617277,0.015128722,-0.017313143,-0.026861858,-0.054006625,-0.016389117,-0.011709225,0.0015356151,-0.04227342,-0.07502406,-0.028484708,0.07955326,-0.08595637,-0.0054885843,1.15833235e-32,-0.040279966,-0.02931836,0.0338247,-0.032742836,0.052903004,0.047614146,-0.056440275,-0.0034821893,0.035069585,0.001775958,-0.08436737,-0.013312819,0.047772408,0.01441795,0.06301539,-0.003677043,0.07793391,-0.041400407,0.046198316,0.041974157,-0.008173979,0.021019565,0.023579488,-0.0108566005,0.023829497,0.13486257,0.013811939,-0.065604284,0.002866311,0.062344465,-0.011761193,-0.017565759,0.04722033,-0.004975977,0.010378014,-0.07319789,0.024662012,-0.02076599,-0.067244776,0.015189808,-0.037729543,-0.021333374,0.053892322,0.055330288,0.0036125334,0.017627386,0.00897373,-0.07633762,0.080475606,0.0466666,0.055011813,-0.078216314,-0.015580747,-0.026434975,-0.0079785,0.035312112,-0.19025311,0.009126898,-0.020853013,-0.102287255,0.052920226,-0.048113365,-0.010184306,0.018632015,-0.05432922,-0.07483569,-0.018546153,0.07016179,0.12107519,0.018655472,-0.065960966,0.059921496,-0.057783168,0.045732252,-0.039378457,0.033504944,0.10083756,-0.029999282,-0.10218748,0.0445708,-0.037494536,0.017858488,0.05236411,-0.06568464,0.06393081,0.019295866,-0.014598211,0.0033119856,0.0067641027,0.05824733,-0.03094381,0.08520552,-0.0157628,0.034615897,0.0048396774,-1.2828564e-32,0.027564222,0.011737306,-0.04186104,-0.05948955,-0.039359882,0.03359838,-0.08583103,0.011986844,-0.043368928,-0.08797162,-0.103485964,-0.071994014,0.07967541,-0.020375513,-0.07428246,0.0264895,-0.026843468,-0.0005884533,-0.06121042,-0.03280315,0.00063807046,0.08903613,0.010026451,0.006443378,0.05066475,-0.036336027,-0.00016401314,-0.017044807,-0.009512592,0.026423251,0.06131562,0.02018278,0.025794372,0.0796143,0.03105244,0.028017739,0.07401102,0.032966428,0.015914429,0.11363832,0.055625554,0.036894478,0.02636739,-0.040264666,-0.0789974,-0.04064205,-0.009918338,-0.0326437,-0.012579093,-0.065005496,0.09011072,-0.044848423,-0.015836896,0.0018313108,0.05006511,-0.014375151,-0.02774009,-0.036573473,-0.049816154,-0.017202606,0.02572386,-0.017860621,-0.093061216,-0.07792625,0.12510103,0.021252058,-0.0691736,0.019176528,-0.026931377,0.10151563,0.10064628,-0.08367233,-0.1167174,0.009980273,0.034613043,-0.0338586,-0.061225787,0.03449882,-0.08233398,0.03425317,-0.06933636,-0.08911027,-0.015329061,0.021035738,-0.060310103,0.018004583,-0.013538365,-0.061289538,-0.062524475,0.020760143,0.043841586,-0.0046682404,0.04215535,0.02853675,0.027744124,-6.106176e-08,0.049938217,-0.039960064,0.026701914,0.027286777,0.03775253,-0.003793123,-0.013328531,-0.033206124,-0.029344406,-0.012192674,-0.015016077,-0.002836593,-0.014190921,-0.0037094478,-0.022308238,-0.022396814,0.046624072,0.021170918,-0.019944614,-0.055141807,0.06272825,-0.04094635,-0.030255072,-0.016793344,-0.03797663,-0.055862658,0.004945147,-0.04133784,-0.052141264,0.030275568,-0.0021075308,0.012473834,0.008486358,-0.081531554,-0.00398623,-0.007884757,0.030416982,-0.0020856443,-0.080814324,-0.0029199668,0.13443094,0.052672785,0.052477676,0.0019288962,0.036884923,-0.030620746,0.08080483,0.045637164,0.008764951,0.014541326,-0.050685164,0.027611315,0.054978482,0.06788602,-0.022797994,-0.017405698,0.05530177,0.04343592,-0.022426862,0.09601072,0.13509755,0.07301075,0.048297632,-0.013061986
